{"learner":{"attributes":{"best_iteration":"199","best_score":"0.16470428570816736","scikit_learn":"{\"_estimator_type\": \"classifier\"}"},"feature_names":[],"feature_types":[],"gradient_booster":{"model":{"cats":{"enc":[],"feature_segments":[],"sorted_idx":[]},"gbtree_model_param":{"num_parallel_tree":"1","num_trees":"200"},"iteration_indptr":[0,1,2,3,4,5,6,7,8,9,10,11,12,13,14,15,16,17,18,19,20,21,22,23,24,25,26,27,28,29,30,31,32,33,34,35,36,37,38,39,40,41,42,43,44,45,46,47,48,49,50,51,52,53,54,55,56,57,58,59,60,61,62,63,64,65,66,67,68,69,70,71,72,73,74,75,76,77,78,79,80,81,82,83,84,85,86,87,88,89,90,91,92,93,94,95,96,97,98,99,100,101,102,103,104,105,106,107,108,109,110,111,112,113,114,115,116,117,118,119,120,121,122,123,124,125,126,127,128,129,130,131,132,133,134,135,136,137,138,139,140,141,142,143,144,145,146,147,148,149,150,151,152,153,154,155,156,157,158,159,160,161,162,163,164,165,166,167,168,169,170,171,172,173,174,175,176,177,178,179,180,181,182,183,184,185,186,187,188,189,190,191,192,193,194,195,196,197,198,199,200],"tree_info":[0,0,0,0,0,0,0,0,0,0,0,0,0,0,0,0,0,0,0,0,0,0,0,0,0,0,0,0,0,0,0,0,0,0,0,0,0,0,0,0,0,0,0,0,0,0,0,0,0,0,0,0,0,0,0,0,0,0,0,0,0,0,0,0,0,0,0,0,0,0,0,0,0,0,0,0,0,0,0,0,0,0,0,0,0,0,0,0,0,0,0,0,0,0,0,0,0,0,0,0,0,0,0,0,0,0,0,0,0,0,0,0,0,0,0,0,0,0,0,0,0,0,0,0,0,0,0,0,0,0,0,0,0,0,0,0,0,0,0,0,0,0,0,0,0,0,0,0,0,0,0,0,0,0,0,0,0,0,0,0,0,0,0,0,0,0,0,0,0,0,0,0,0,0,0,0,0,0,0,0,0,0,0,0,0,0,0,0,0,0,0,0,0,0,0,0,0,0,0,0],"trees":[{"base_weights":[-1.2636773E-3,9.520735E-1,-3.305864E-1,1.2562966E0,-6.911235E-1,-6.584665E-1,2.922712E-1,1.4362619E0,-7.5351757E-1,-1.3257186E0,3.8630094E-2,2.0393091E-1,-8.480604E-1,1.0810322E0,-2.3985238E-1,-3.6072645E-2,1.5702373E0,2.503331E-3,-6.272157E-2,-7.949284E-2,-1.4427437E-2,6.765388E-1,-8.4026086E-1,-1.2034361E0,-2.2505489E-1,1.4433063E0,-1.9785355E-1,7.492854E-1,-6.9830513E-1,-8.261388E-3,1.6783887E0,-3.4697506E-1,1.1911503E0,1.9462025E-2,-7.185238E-2,-1.2824001E0,4.0655557E-2,-9.952599E-1,3.335957E-1,-5.0150207E-3,1.6112233E0,6.3389815E-2,-6.1057903E-2,7.23299E-2,-2.0494294E-1,3.4233359E-1,-1.037866E0,-5.0150207E-3,1.7616974E0,2.3708822E-2,-5.775934E-2,7.896673E-2,-4.5441953E-3,-6.380481E-1,-1.6165357E0,-1.5175436E0,4.7126114E-1,1.211427E0,-5.049681E-1,8.889746E-2,1.0770448E-2,-5.9451338E-2,3.8630094E-2,6.4115025E-2,-5.1683683E-2,-1.4671215E0,-1.0106372E-1,1.5889581E-2,9.115019E-2,-5.1146742E-2,2.815619E-2,2.503331E-3,-8.521896E-2,-5.0150207E-3,-8.8108025E-2,-1.8352695E-2,5.9957273E-2,7.774389E-2,-1.4427437E-2,3.685345E-2,-6.1162557E-2,-5.0150207E-3,-8.315066E-2,-5.1644187E-2,4.9782787E-2],"categories":[],"categories_nodes":[],"categories_segments":[],"categories_sizes":[],"default_left":[0,0,0,0,0,0,0,0,0,0,0,0,0,0,0,0,0,0,0,0,0,0,0,0,0,0,0,0,0,0,0,0,0,0,0,0,0,0,0,0,0,0,0,0,0,0,0,0,0,0,0,0,0,0,0,0,0,0,0,0,0,0,0,0,0,0,0,0,0,0,0,0,0,0,0,0,0,0,0,0,0,0,0,0,0],"id":0,"left_children":[1,3,5,7,9,11,13,15,17,19,-1,21,23,25,27,-1,29,-1,-1,-1,-1,31,33,35,37,39,41,43,45,-1,47,49,51,-1,-1,53,-1,55,57,-1,59,-1,-1,-1,61,63,65,-1,67,-1,-1,-1,-1,69,71,73,75,77,79,-1,-1,-1,-1,-1,-1,81,83,-1,-1,-1,-1,-1,-1,-1,-1,-1,-1,-1,-1,-1,-1,-1,-1,-1,-1],"loss_changes":[1.2965132E2,5.478283E1,6.3149002E1,3.485887E1,1.863609E1,3.342939E1,4.5599598E1,2.649562E1,3.7397246E0,2.5107555E0,0E0,1.9830158E1,3.6075233E1,2.090876E1,3.0779934E1,0E0,1.5592621E1,0E0,0E0,0E0,0E0,1.5276318E1,1.049737E1,1.887793E1,2.7781593E1,9.364616E0,2.0082212E1,1.5132764E1,1.7004602E1,0E0,1.1617432E1,8.20427E0,9.724741E0,0E0,0E0,1.9677444E1,0E0,2.2221338E1,2.9165068E1,0E0,6.274521E0,0E0,0E0,0E0,1.2305478E1,1.9137691E1,1.3696392E1,0E0,4.97464E0,0E0,0E0,0E0,0E0,1.887954E1,9.966003E0,6.546253E0,6.1919093E0,1.0886641E1,2.0334639E1,0E0,0E0,0E0,0E0,0E0,0E0,5.8917313E0,1.5629932E1,0E0,0E0,0E0,0E0,0E0,0E0,0E0,0E0,0E0,0E0,0E0,0E0,0E0,0E0,0E0,0E0,0E0,0E0],"parents":[2147483647,0,0,1,1,2,2,3,3,4,4,5,5,6,6,7,7,8,8,9,9,11,11,12,12,13,13,14,14,16,16,21,21,22,22,23,23,24,24,25,25,26,26,27,27,28,28,30,30,31,31,32,32,35,35,37,37,38,38,40,40,44,44,45,45,46,46,48,48,53,53,54,54,55,55,56,56,57,57,58,58,65,65,66,66],"right_children":[2,4,6,8,10,12,14,16,18,20,-1,22,24,26,28,-1,30,-1,-1,-1,-1,32,34,36,38,40,42,44,46,-1,48,50,52,-1,-1,54,-1,56,58,-1,60,-1,-1,-1,62,64,66,-1,68,-1,-1,-1,-1,70,72,74,76,78,80,-1,-1,-1,-1,-1,-1,82,84,-1,-1,-1,-1,-1,-1,-1,-1,-1,-1,-1,-1,-1,-1,-1,-1,-1,-1],"split_conditions":[3.945994E-2,7.023986E-1,1.4089358E-1,5.724987E-1,8.742651E-1,1.4801841E-4,1.4383401E0,6.14744E-2,3.0651695E-1,6.158773E-1,3.8630094E-2,1.3440813E-1,4.3484565E-2,1.75507E-1,3.6839437E-1,-3.6072645E-2,1.4312367E-2,2.503331E-3,-6.272157E-2,-7.949284E-2,-1.4427437E-2,4.759866E-1,1.2746222E0,1.2723276E-1,1.0195419E0,7.337032E-2,1.5241038E0,2.1609151E-1,1.4709647E-1,-8.261388E-3,1.9159149E-1,4.9553457E-1,2.2525325E0,1.9462025E-2,-7.185238E-2,2.0105468E-2,4.0655557E-2,1.6142257E0,3.712721E-1,-5.0150207E-3,6.745311E-2,6.3389815E-2,-6.1057903E-2,7.23299E-2,4.4350185E-2,3.5415447E-1,3.6773363E-1,-5.0150207E-3,1.8088014E0,2.3708822E-2,-5.775934E-2,7.896673E-2,-4.5441953E-3,9.201431E-2,3.3362165E-2,3.5489216E-1,1.3624126E0,6.6021425E-3,1.0525106E-1,8.889746E-2,1.0770448E-2,-5.9451338E-2,3.8630094E-2,6.4115025E-2,-5.1683683E-2,6.839388E-2,1.4159457E-1,1.5889581E-2,9.115019E-2,-5.1146742E-2,2.815619E-2,2.503331E-3,-8.521896E-2,-5.0150207E-3,-8.8108025E-2,-1.8352695E-2,5.9957273E-2,7.774389E-2,-1.4427437E-2,3.685345E-2,-6.1162557E-2,-5.0150207E-3,-8.315066E-2,-5.1644187E-2,4.9782787E-2],"split_indices":[1648,975,361,1573,72,946,1019,1973,49,31,0,1797,1901,1762,132,0,1116,0,0,0,0,963,667,1760,436,104,804,166,354,0,1829,1087,900,0,0,1817,0,774,1044,0,1891,0,0,0,54,366,245,0,563,0,0,0,0,1676,1742,43,642,1583,367,0,0,0,0,0,0,1728,1726,0,0,0,0,0,0,0,0,0,0,0,0,0,0,0,0,0,0],"split_type":[0,0,0,0,0,0,0,0,0,0,0,0,0,0,0,0,0,0,0,0,0,0,0,0,0,0,0,0,0,0,0,0,0,0,0,0,0,0,0,0,0,0,0,0,0,0,0,0,0,0,0,0,0,0,0,0,0,0,0,0,0,0,0,0,0,0,0,0,0,0,0,0,0,0,0,0,0,0,0,0,0,0,0,0,0],"sum_hessian":[4.091536E2,1.0400112E2,3.0515247E2,8.820292E1,1.5798206E1,1.9994507E2,1.052074E2,8.1523544E1,6.6793723E0,1.1199552E1,4.5986547E0,3.5912556E1,1.6403252E2,4.1627804E1,6.3579597E1,4.2096415E0,7.73139E1,3.1793723E0,3.5E0,8E0,3.1995516E0,2.5273542E1,1.0639013E1,1.0316256E2,6.0869957E1,3.2299328E1,9.328475E0,1.9664799E1,4.39148E1,4.4192824E0,7.289462E1,8.608745E0,1.6664799E1,3.6491032E0,6.98991E0,1.00023544E2,3.1390135E0,2.5007847E1,3.5862106E1,3.189462E0,2.9109865E1,3.5986547E0,5.7298207E0,1.0826234E1,8.838565E0,1.0727578E1,3.318722E1,3.189462E0,6.970516E1,4.618834E0,3.9899104E0,1.2495516E1,4.1692824E0,3.6245518E1,6.3778027E1,1.8439463E1,6.5683856E0,1.7144619E1,1.871749E1,2.5450674E1,3.6591928E0,4.23991E0,4.5986547E0,6.497758E0,4.2298207E0,2.1909193E1,1.1278027E1,3.4091928E0,6.629597E1,2.7737669E1,8.507848E0,3.1793723E0,6.0598656E1,3.189462E0,1.525E1,3.4495516E0,3.1188343E0,1.3945067E1,3.1995516E0,6.788117E0,1.1929372E1,3.189462E0,1.871973E1,6.2096415E0,5.0683856E0],"tree_param":{"num_deleted":"0","num_feature":"1998","num_nodes":"85","size_leaf_vector":"1"}},{"base_weights":[3.9673527E-5,9.5107937E-1,-3.30371E-1,1.4532266E0,3.3860415E-2,5.449789E-1,-5.255279E-1,-2.7697032E-2,1.5786438E0,-6.690864E-1,1.1369822E0,-7.4169934E-1,1.0617373E0,6.515714E-1,-7.21529E-1,1.7534325E0,2.634491E-1,-1.0228765E0,5.078404E-2,-1.4927581E-2,7.713692E-2,3.3590857E-2,-7.0354596E-2,1.4255692E0,-2.87121E-1,9.456415E-1,-4.648082E-2,-1.0521065E0,-7.435824E-2,9.265127E-2,1.1199329E-3,6.2429994E-2,-3.654722E-2,2.3441924E-2,-1.3500816E0,1.6511452E0,1.2303327E-3,-5.777164E-2,3.3788066E-2,-3.7253618E-1,1.3923386E0,-1.1877817E0,2.6032516E-1,8.9039326E-1,-5.1583695E-1,-7.934864E-2,-5.1916656E-3,8.843477E-2,2.1046054E-2,-5.65734E-2,2.7402082E-2,8.1014425E-2,5.6504183E-3,-1.2594105E0,2.8933505E-2,9.116203E-1,-5.418254E-2,-2.0456292E-2,1.3122777E0,-3.7585072E-2,-1.4590192E0,-1.0921601E-2,-6.876035E-2,-5.065165E-3,6.7628056E-2,7.802596E-2,1.6961414E-3,-5.3330135E-2,2.3301564E-2,-1.3843249E-2,-8.373838E-2],"categories":[],"categories_nodes":[],"categories_segments":[],"categories_sizes":[],"default_left":[0,0,0,0,0,0,0,0,0,0,0,0,0,0,0,0,0,0,0,0,0,0,0,0,0,0,0,0,0,0,0,0,0,0,0,0,0,0,0,0,0,0,0,0,0,0,0,0,0,0,0,0,0,0,0,0,0,0,0,0,0,0,0,0,0,0,0,0,0,0,0],"id":1,"left_children":[1,3,5,7,9,11,13,-1,15,17,19,21,23,25,27,29,31,33,-1,-1,-1,-1,-1,35,37,39,-1,41,43,-1,-1,-1,-1,-1,45,47,-1,-1,-1,49,51,53,55,57,59,-1,-1,-1,-1,-1,-1,-1,-1,61,-1,63,-1,-1,65,67,69,-1,-1,-1,-1,-1,-1,-1,-1,-1,-1],"loss_changes":[1.2918437E2,4.8587143E1,5.265435E1,1.9069687E1,3.2298042E1,3.9153824E1,5.8720993E1,0E0,1.3803589E1,1.722343E1,1.0493637E1,1.8238277E1,2.1135406E1,1.8835283E1,4.587584E1,9.539566E0,1.1711688E1,1.2113888E1,0E0,0E0,0E0,0E0,0E0,1.0121582E1,1.0264283E1,1.998718E1,0E0,2.6087387E1,3.290147E1,0E0,0E0,0E0,0E0,0E0,5.007126E0,2.3662033E0,0E0,0E0,0E0,8.021561E0,6.5720673E0,1.7922241E1,1.5021461E1,1.44671955E1,2.3609442E1,0E0,0E0,0E0,0E0,0E0,0E0,0E0,0E0,1.433429E1,0E0,5.3963947E0,0E0,0E0,5.7169952E0,2.0350246E1,3.3868103E0,0E0,0E0,0E0,0E0,0E0,0E0,0E0,0E0,0E0,0E0],"parents":[2147483647,0,0,1,1,2,2,3,3,4,4,5,5,6,6,8,8,9,9,10,10,11,11,12,12,13,13,14,14,15,15,16,16,17,17,23,23,24,24,25,25,27,27,28,28,34,34,35,35,39,39,40,40,41,41,42,42,43,43,44,44,53,53,55,55,58,58,59,59,60,60],"right_children":[2,4,6,8,10,12,14,-1,16,18,20,22,24,26,28,30,32,34,-1,-1,-1,-1,-1,36,38,40,-1,42,44,-1,-1,-1,-1,-1,46,48,-1,-1,-1,50,52,54,56,58,60,-1,-1,-1,-1,-1,-1,-1,-1,62,-1,64,-1,-1,66,68,70,-1,-1,-1,-1,-1,-1,-1,-1,-1,-1],"split_conditions":[3.945994E-2,6.9213286E-2,8.477334E-2,1.1491694E-1,1.736919E-1,5.1661063E-2,8.7785745E-1,-2.7697032E-2,1.0684259E0,9.9502206E-2,1.5639912E-1,6.1994754E-2,1.2439855E-1,7.3010683E-1,1.4131601E-1,1.2688016E-2,2.4989581E-1,4.32389E-3,5.078404E-2,-1.4927581E-2,7.713692E-2,3.3590857E-2,-7.0354596E-2,5.2548546E-1,5.624838E-3,4.0843047E-2,-4.648082E-2,9.2908356E-4,8.7739056E-1,9.265127E-2,1.1199329E-3,6.2429994E-2,-3.654722E-2,2.3441924E-2,2.108426E0,2.7278128E0,1.2303327E-3,-5.777164E-2,3.3788066E-2,1.7305501E-1,6.162541E-4,2.5175378E0,6.7922235E-1,1.4018998E-1,7.5710714E-2,-7.934864E-2,-5.1916656E-3,8.843477E-2,2.1046054E-2,-5.65734E-2,2.7402082E-2,8.1014425E-2,5.6504183E-3,8.255077E-1,2.8933505E-2,1.2986258E-1,-5.418254E-2,-2.0456292E-2,1.327696E-1,8.527978E-1,2.314305E-1,-1.0921601E-2,-6.876035E-2,-5.065165E-3,6.7628056E-2,7.802596E-2,1.6961414E-3,-5.3330135E-2,2.3301564E-2,-1.3843249E-2,-8.373838E-2],"split_indices":[1648,1763,1660,1954,207,1776,722,0,924,99,943,277,1980,653,361,1296,113,1173,0,0,0,0,0,509,1534,1689,0,1571,676,0,0,0,0,0,529,563,0,0,0,504,1121,529,798,1942,1678,0,0,0,0,0,0,0,0,725,0,3,0,0,1850,478,376,0,0,0,0,0,0,0,0,0,0],"split_type":[0,0,0,0,0,0,0,0,0,0,0,0,0,0,0,0,0,0,0,0,0,0,0,0,0,0,0,0,0,0,0,0,0,0,0,0,0,0,0,0,0,0,0,0,0,0,0,0,0,0,0,0,0,0,0,0,0,0,0,0,0,0,0,0,0,0,0,0,0,0,0],"sum_hessian":[4.069119E2,1.0402798E2,3.028839E2,6.639894E1,3.7629032E1,5.4469753E1,2.4841415E2,3.4561439E0,6.29428E1,2.3408567E1,1.4220466E1,1.5302904E1,3.9166847E1,3.4723106E1,2.1369106E2,5.490367E1,8.03913E0,2.0044453E1,3.3641136E0,3.1958303E0,1.1024635E1,4.8436894E0,1.0459215E1,3.0815325E1,8.351522E0,3.0009123E1,4.713983E0,1.4051135E2,7.31797E1,5.17288E1,3.1748672E0,3.8320162E0,4.2071137E0,3.3950803E0,1.6649372E1,2.6172606E1,4.6427207E0,4.235724E0,4.1157985E0,7.622813E0,2.2386309E1,1.2758785E2,1.2923495E1,2.2264812E1,5.091489E1,1.3463201E1,3.1861725E0,2.3016634E1,3.1559703E0,3.9866474E0,3.6361659E0,1.848201E1,3.904299E0,1.2322195E2,4.3659015E0,9.188515E0,3.7349806E0,5.413429E0,1.6851385E1,3.5234524E1,1.56803665E1,1.2999173E1,1.1022278E2,3.185212E0,6.0033026E0,1.3675992E1,3.1753926E0,1.0908482E1,2.432604E1,3.1963897E0,1.2483977E1],"tree_param":{"num_deleted":"0","num_feature":"1998","num_nodes":"71","size_leaf_vector":"1"}},{"base_weights":[1.4688683E-2,8.50293E-1,-3.0766287E-1,-1.17536224E-1,1.366181E0,3.931644E-1,-5.0157344E-1,-8.488185E-1,9.1774195E-1,-3.259289E-2,1.4776332E0,-7.490193E-1,7.430842E-1,-1.2030992E-1,-1.0380237E0,-1.4202911E0,3.7929493E-1,-2.1654548E-2,1.336514E0,-1.1949418E-2,1.60731E0,4.350563E-2,-6.833082E-2,1.048603E0,-4.5454925E-1,-3.876343E-1,8.6248404E-1,-1.636185E-1,-1.4208221E0,-1.3288303E-2,-8.1557386E-2,6.0407013E-2,-2.9119462E-2,7.644434E-2,1.9191625E-2,1.7308208E0,-2.415057E-2,1.3342221E0,-2.0709997E-2,-6.535019E-2,5.015828E-2,-1.2031134E0,6.059448E-2,1.141191E0,-3.1176627E-2,7.101544E-2,-8.000575E-1,2.016808E-2,-1.6045839E0,8.946412E-2,1.7983656E-2,-5.124777E-3,1.4889737E0,-1.5213933E0,2.0535556E-3,3.96796E-1,-7.943751E-1,-1.4193739E-2,1.3711528E0,-1.2356424E0,2.4716258E-2,-1.6865088E0,-1.0166516E-2,8.057835E-2,1.0871469E-2,-8.216226E-2,-1.33964075E-2,4.7901902E-2,-4.7845025E-2,-1.0857534E-2,5.1579453E-2,-5.578659E-2,3.0504405E-2,7.892E-2,1.9496762E-3,3.645498E-3,-7.6266766E-2,-2.8054863E-2,-8.709746E-2],"categories":[],"categories_nodes":[],"categories_segments":[],"categories_sizes":[],"default_left":[0,0,0,0,0,0,0,0,0,0,0,0,0,0,0,0,0,0,0,0,0,0,0,0,0,0,0,0,0,0,0,0,0,0,0,0,0,0,0,0,0,0,0,0,0,0,0,0,0,0,0,0,0,0,0,0,0,0,0,0,0,0,0,0,0,0,0,0,0,0,0,0,0,0,0,0,0,0,0],"id":2,"left_children":[1,3,5,7,9,11,13,15,17,-1,19,21,23,25,27,29,31,-1,33,-1,35,-1,-1,37,39,41,43,45,47,-1,-1,-1,-1,-1,-1,49,-1,51,-1,-1,-1,53,55,57,-1,-1,59,-1,61,-1,-1,-1,63,65,67,69,71,-1,73,75,-1,77,-1,-1,-1,-1,-1,-1,-1,-1,-1,-1,-1,-1,-1,-1,-1,-1,-1],"loss_changes":[1.0931208E2,5.6863037E1,4.0180626E1,3.2638493E1,1.8637405E1,2.6867989E1,4.6726105E1,1.8839489E1,1.1375241E1,0E0,1.6648148E1,1.8468815E1,1.9453976E1,3.6604195E1,3.1270088E1,3.2393227E0,9.05215E0,0E0,1.2396603E0,0E0,1.8853928E1,0E0,0E0,1.8255104E1,1.7033134E1,4.015052E1,1.3828474E1,3.3815964E1,2.3515854E1,0E0,0E0,0E0,0E0,0E0,0E0,3.5370636E0,0E0,8.156391E0,0E0,0E0,0E0,1.5073257E1,2.1358135E1,9.368462E0,0E0,0E0,1.4652441E1,0E0,6.053116E0,0E0,0E0,0E0,4.027748E0,3.637001E0,1.1051761E1,2.12923E1,1.0878337E1,0E0,5.978958E0,7.325411E0,0E0,1.3509674E0,0E0,0E0,0E0,0E0,0E0,0E0,0E0,0E0,0E0,0E0,0E0,0E0,0E0,0E0,0E0,0E0,0E0],"parents":[2147483647,0,0,1,1,2,2,3,3,4,4,5,5,6,6,7,7,8,8,10,10,11,11,12,12,13,13,14,14,15,15,16,16,18,18,20,20,23,23,24,24,25,25,26,26,27,27,28,28,35,35,37,37,41,41,42,42,43,43,46,46,48,48,52,52,53,53,54,54,55,55,56,56,58,58,59,59,61,61],"right_children":[2,4,6,8,10,12,14,16,18,-1,20,22,24,26,28,30,32,-1,34,-1,36,-1,-1,38,40,42,44,46,48,-1,-1,-1,-1,-1,-1,50,-1,52,-1,-1,-1,54,56,58,-1,-1,60,-1,62,-1,-1,-1,64,66,68,70,72,-1,74,76,-1,78,-1,-1,-1,-1,-1,-1,-1,-1,-1,-1,-1,-1,-1,-1,-1,-1,-1],"split_conditions":[2.3300804E-2,2.2799088E-1,1.1738476E0,1.08931586E-1,1.3368703E-1,4.2746108E-2,2.507248E-2,1.5922598E0,1.0713066E-1,-3.259289E-2,3.663897E-2,4.7239438E-1,1.1578558E-1,7.0483975E-2,1.8151975E-1,7.459047E-2,5.461641E-1,-2.1654548E-2,1.8637796E-1,-1.1949418E-2,5.4508543E-1,4.350563E-2,-6.833082E-2,7.207079E-1,1.379327E-1,2.3676708E-1,2.0673202E-1,5.6008757E-3,4.6728668E-1,-1.3288303E-2,-8.1557386E-2,6.0407013E-2,-2.9119462E-2,7.644434E-2,1.9191625E-2,1.59932E-1,-2.415057E-2,3.5390898E-4,-2.0709997E-2,-6.535019E-2,5.015828E-2,2.2240601E-2,3.56343E-1,9.7482774E-4,-3.1176627E-2,7.101544E-2,8.6062655E-2,2.016808E-2,8.036263E-1,8.946412E-2,1.7983656E-2,-5.124777E-3,1.0391879E-2,4.624206E-1,8.972784E-2,1.0070754E-1,4.532566E-1,-1.4193739E-2,1.342915E-1,7.9992816E-2,2.4716258E-2,1.3335443E-1,-1.0166516E-2,8.057835E-2,1.0871469E-2,-8.216226E-2,-1.33964075E-2,4.7901902E-2,-4.7845025E-2,-1.0857534E-2,5.1579453E-2,-5.578659E-2,3.0504405E-2,7.892E-2,1.9496762E-3,3.645498E-3,-7.6266766E-2,-2.8054863E-2,-8.709746E-2],"split_indices":[1674,1829,466,361,1928,1724,1817,606,1917,0,1907,74,1737,1952,1625,1926,425,0,1862,0,202,0,0,31,1888,215,1862,445,719,0,0,0,0,0,0,1597,0,1385,0,0,0,1837,305,486,0,0,1542,0,431,0,0,0,1124,1056,1215,1734,359,0,1917,1719,0,86,0,0,0,0,0,0,0,0,0,0,0,0,0,0,0,0,0],"split_type":[0,0,0,0,0,0,0,0,0,0,0,0,0,0,0,0,0,0,0,0,0,0,0,0,0,0,0,0,0,0,0,0,0,0,0,0,0,0,0,0,0,0,0,0,0,0,0,0,0,0,0,0,0,0,0,0,0,0,0,0,0,0,0,0,0,0,0,0,0,0,0,0,0,0,0,0,0,0,0],"sum_hessian":[4.016801E2,1.10994156E2,2.9068597E2,3.9062202E1,7.193195E1,6.2441273E1,2.282447E2,2.3159788E1,1.5902413E1,3.2102327E0,6.872172E1,1.40414095E1,4.839986E1,1.3496088E2,9.328382E1,1.5647204E1,7.5125833E0,3.6905682E0,1.2211845E1,4.654171E0,6.406755E1,3.6065621E0,1.0434848E1,3.8827305E1,9.572556E0,1.07133095E2,2.7827778E1,2.9352228E1,6.3931595E1,3.1878E0,1.2459404E1,3.8155308E0,3.6970525E0,9.066459E0,3.1453867E0,6.0863136E1,3.204412E0,3.2688824E1,6.138482E0,6.2140374E0,3.358518E0,3.6883816E1,7.024928E1,2.3880335E1,3.9474423E0,7.6623225E0,2.1689907E1,5.582315E0,5.8349277E1,5.7719326E1,3.1438115E0,3.1814396E0,2.9507385E1,2.8828512E1,8.055305E0,5.1275043E1,1.8974241E1,3.1925375E0,2.0687798E1,1.6354362E1,5.335543E0,5.4674217E1,3.6750607E0,2.6353144E1,3.1542416E0,2.5634798E1,3.1937137E0,4.0870757E0,3.9682288E0,2.6654335E1,2.4620707E1,1.5833683E1,3.1405578E0,1.7517763E1,3.170034E0,3.1730485E0,1.3181314E1,3.6958306E0,5.0978386E1],"tree_param":{"num_deleted":"0","num_feature":"1998","num_nodes":"79","size_leaf_vector":"1"}},{"base_weights":[1.7702326E-2,8.6316603E-1,-2.8330633E-1,1.1400974E0,-8.4921974E-1,1.5336601E-1,-6.1817944E-1,1.3353208E0,-4.8866498E-1,1.4220535E-2,-7.518982E-2,-5.5064523E-1,5.290399E-1,6.463785E-1,-8.0341923E-1,1.4929682E0,1.4111349E-1,-6.684136E-2,5.480531E-2,-1.1541537E0,3.4156328E-1,-8.984066E-1,6.6799587E-1,1.1965473E0,-4.1395935E-1,-4.2416844E-1,-1.3842698E0,1.5700356E0,-6.8766135E-3,8.684816E-1,-5.2509647E-2,2.166238E-3,-1.499965E0,-7.060686E-1,9.4588906E-1,-1.207535E-2,-5.860141E-2,1.0907054E0,1.483079E-1,7.325327E-2,2.6053742E-3,2.916496E-2,-5.6077547E-2,1.3055831E-1,-1.0303792E0,1.5806718E-2,-1.5007296E0,1.1323508E-3,1.6509025E0,6.0139723E-2,7.420756E-3,4.1265756E-2,-4.1269403E-2,-8.313718E-2,-2.0968042E-2,-5.9348524E-2,2.962047E-3,-9.423068E-3,6.787507E-2,-3.4896385E-2,1.2878281E0,-7.739055E-1,6.7068833E-1,5.611983E-1,-9.069046E-1,6.1157435E-1,-1.465702E0,-1.5928096E0,-1.8545492E-2,8.4922954E-2,2.7251342E-2,-3.3878807E-3,7.233283E-2,-6.1595496E-2,2.4351899E-2,-4.7326565E-2,5.355967E-2,-3.761298E-2,5.032565E-2,-6.810608E-2,1.5227891E-2,6.498202E-2,-3.1447057E-2,-8.073081E-2,-0E0,-1.970317E-2,-8.2710676E-2],"categories":[],"categories_nodes":[],"categories_segments":[],"categories_sizes":[],"default_left":[0,0,0,0,0,0,0,0,0,0,0,0,0,0,0,0,0,0,0,0,0,0,0,0,0,0,0,0,0,0,0,0,0,0,0,0,0,0,0,0,0,0,0,0,0,0,0,0,0,0,0,0,0,0,0,0,0,0,0,0,0,0,0,0,0,0,0,0,0,0,0,0,0,0,0,0,0,0,0,0,0,0,0,0,0,0,0],"id":3,"left_children":[1,3,5,7,9,11,13,15,17,-1,-1,19,21,23,25,27,29,-1,-1,31,33,35,37,39,41,43,45,47,-1,49,-1,51,53,55,57,-1,-1,59,61,-1,-1,-1,-1,63,65,-1,67,-1,69,-1,-1,-1,-1,-1,-1,-1,-1,-1,-1,-1,71,73,75,77,79,81,83,85,-1,-1,-1,-1,-1,-1,-1,-1,-1,-1,-1,-1,-1,-1,-1,-1,-1,-1,-1],"loss_changes":[1.0559553E2,5.3634315E1,4.4956142E1,3.149955E1,1.3045828E1,3.6075546E1,4.1722466E1,1.5445633E1,1.8472116E1,0E0,0E0,2.6491892E1,1.8755802E1,1.4615638E1,3.221472E1,9.991501E0,1.2388251E1,0E0,0E0,1.1715767E1,1.4450155E1,8.4745884E-1,1.7559998E1,4.5709763E0,7.9647665E0,3.2367134E1,1.2792274E1,8.73909E0,0E0,1.6092901E0,0E0,7.21093E0,2.3237457E0,3.4364142E0,7.1783485E0,0E0,0E0,1.764619E1,1.9907055E1,0E0,0E0,0E0,0E0,2.3943325E1,3.4609234E1,0E0,4.4288254E0,0E0,1.5067749E0,0E0,0E0,0E0,0E0,0E0,0E0,0E0,0E0,0E0,0E0,0E0,9.181007E0,9.954885E0,1.8983398E1,2.3543663E1,9.632747E0,1.1056299E1,8.005463E0,2.2396088E0,0E0,0E0,0E0,0E0,0E0,0E0,0E0,0E0,0E0,0E0,0E0,0E0,0E0,0E0,0E0,0E0,0E0,0E0,0E0],"parents":[2147483647,0,0,1,1,2,2,3,3,4,4,5,5,6,6,7,7,8,8,11,11,12,12,13,13,14,14,15,15,16,16,19,19,20,20,21,21,22,22,23,23,24,24,25,25,26,26,27,27,29,29,31,31,32,32,33,33,34,34,37,37,38,38,43,43,44,44,46,46,48,48,60,60,61,61,62,62,63,63,64,64,65,65,66,66,67,67],"right_children":[2,4,6,8,10,12,14,16,18,-1,-1,20,22,24,26,28,30,-1,-1,32,34,36,38,40,42,44,46,48,-1,50,-1,52,54,56,58,-1,-1,60,62,-1,-1,-1,-1,64,66,-1,68,-1,70,-1,-1,-1,-1,-1,-1,-1,-1,-1,-1,-1,72,74,76,78,80,82,84,86,-1,-1,-1,-1,-1,-1,-1,-1,-1,-1,-1,-1,-1,-1,-1,-1,-1,-1,-1],"split_conditions":[3.945994E-2,9.541855E-2,6.445604E-2,2.2915378E-1,1.728041E-1,5.6280546E-2,8.7950516E-1,2.71235E-1,5.729986E-1,1.4220535E-2,-7.518982E-2,9.549718E-2,8.935941E-2,1.12965986E-1,5.8152515E-1,2.2942299E-1,4.009534E-1,-6.684136E-2,5.480531E-2,5.21456E-1,8.29478E-2,6.838288E-5,7.159465E-1,1.5389808E-1,1.742613E-1,1.2334559E-1,7.405979E-1,1.466012E-2,-6.8766135E-3,1.772847E-1,-5.2509647E-2,6.7138225E-2,1.2794105E0,2.8105287E-3,3.9028574E-2,-1.207535E-2,-5.860141E-2,3.3236284E-2,5.959371E-2,7.325327E-2,2.6053742E-3,2.916496E-2,-5.6077547E-2,5.868225E-1,1.7970756E-1,1.5806718E-2,4.2416162E0,1.1323508E-3,4.7221687E-1,6.0139723E-2,7.420756E-3,4.1265756E-2,-4.1269403E-2,-8.313718E-2,-2.0968042E-2,-5.9348524E-2,2.962047E-3,-9.423068E-3,6.787507E-2,-3.4896385E-2,2.686434E-1,3.846729E-2,6.8193994E-2,4.709093E-1,1.7063083E-1,5.688407E-1,6.0740888E-2,1.6472112E-2,-1.8545492E-2,8.4922954E-2,2.7251342E-2,-3.3878807E-3,7.233283E-2,-6.1595496E-2,2.4351899E-2,-4.7326565E-2,5.355967E-2,-3.761298E-2,5.032565E-2,-6.810608E-2,1.5227891E-2,6.498202E-2,-3.1447057E-2,-8.073081E-2,-0E0,-1.970317E-2,-8.2710676E-2],"split_indices":[1648,463,1705,1735,1852,1731,722,662,512,0,0,1995,1834,1834,637,1668,62,0,0,786,1734,1349,1106,252,530,1683,596,1116,0,40,0,1890,961,1220,286,0,0,1832,1953,0,0,0,0,11,1625,0,1000,0,93,0,0,0,0,0,0,0,0,0,0,0,620,154,1839,963,266,625,1534,37,0,0,0,0,0,0,0,0,0,0,0,0,0,0,0,0,0,0,0],"split_type":[0,0,0,0,0,0,0,0,0,0,0,0,0,0,0,0,0,0,0,0,0,0,0,0,0,0,0,0,0,0,0,0,0,0,0,0,0,0,0,0,0,0,0,0,0,0,0,0,0,0,0,0,0,0,0,0,0,0,0,0,0,0,0,0,0,0,0,0,0,0,0,0,0,0,0,0,0,0,0,0,0,0,0,0,0,0,0],"sum_hessian":[4.1077725E2,1.0695696E2,3.038203E2,9.269319E1,1.4263768E1,1.3220772E2,1.716126E2,8.314871E1,9.544482E0,5.579366E0,8.6844015E0,4.558463E1,8.6623085E1,2.1221724E1,1.5039087E2,7.29363E1,1.021241E1,6.462038E0,3.0824442E0,2.6908236E1,1.8676392E1,6.6508384E0,7.9972244E1,1.3865065E1,7.3566594E0,9.318252E1,5.720835E1,6.977386E1,3.1624424E0,6.7295203E0,3.4828892E0,6.5856175E0,2.0322618E1,6.64856E0,1.2027832E1,3.1703417E0,3.480497E0,4.2782986E1,3.7189262E1,1.0705544E1,3.1595206E0,3.140508E0,4.2161517E0,4.9390728E1,4.379179E1,3.392174E0,5.3816177E1,3.6538613E0,6.6119995E1,3.5852811E0,3.1442394E0,3.36489E0,3.2207277E0,1.6645258E1,3.6773593E0,3.4864743E0,3.162086E0,3.426412E0,8.60142E0,3.6922388E0,3.9090748E1,1.3030577E1,2.4158684E1,3.561983E1,1.3770896E1,8.95936E0,3.4832428E1,4.8921036E1,4.8951426E0,6.227962E1,3.840373E0,4.153995E0,3.4936752E1,9.650605E0,3.3799715E0,4.2045484E0,1.9954136E1,8.612908E0,2.7006922E1,9.888888E0,3.8820078E0,5.753438E0,3.2059216E0,3.1422485E1,3.4099443E0,3.1860263E0,4.573501E1],"tree_param":{"num_deleted":"0","num_feature":"1998","num_nodes":"87","size_leaf_vector":"1"}},{"base_weights":[-1.476036E-2,-5.7969546E-1,4.1200075E-1,6.7914295E-1,-7.300226E-1,1.2208383E0,7.24181E-2,1.0968115E0,-4.490068E-2,6.9342755E-2,-9.6987057E-1,1.419482E0,-6.0937773E-2,-4.8580092E-1,4.4628093E-1,7.110398E-2,1.0158156E-2,9.114575E-1,-1.1193993E0,1.14454016E-1,-1.092563E0,-9.256695E-3,1.516529E0,3.6670637E-1,-1.0998913E0,-1.0800792E0,7.0315474E-1,1.3323728E0,-4.3121915E-2,-7.352391E-2,1.1137252E-2,5.1182088E-2,-7.4235696E-1,-3.780017E-1,-1.3028667E0,1.5927278E0,2.6011704E-3,1.05664E0,-6.1497366E-1,-1.3044401E0,1.2532662E-2,-7.436173E-2,1.3875063E-2,8.939894E-1,-7.6896983E-1,2.2149323E-3,7.813778E-2,-5.5417348E-2,-3.2401588E-3,8.368273E-1,-1.0171299E0,-1.3803527E0,2.032511E-2,8.2931645E-2,2.7829966E-2,-2.2489069E-2,7.211946E-2,-6.2406074E-2,2.4163326E-2,-1.4663553E0,5.7087936E-3,-2.2854644E-1,1.1082684E0,-6.560492E-2,1.0244227E-2,6.899936E-2,-1.2601651E-2,-6.696214E-2,1.08229285E-2,-7.253378E-2,2.8479062E-3,-7.888176E-2,-1.344799E-2,3.919086E-2,-5.8596678E-2,3.275837E-3,7.209409E-2],"categories":[],"categories_nodes":[],"categories_segments":[],"categories_sizes":[],"default_left":[0,0,0,0,0,0,0,0,0,0,0,0,0,0,0,0,0,0,0,0,0,0,0,0,0,0,0,0,0,0,0,0,0,0,0,0,0,0,0,0,0,0,0,0,0,0,0,0,0,0,0,0,0,0,0,0,0,0,0,0,0,0,0,0,0,0,0,0,0,0,0,0,0,0,0,0,0],"id":4,"left_children":[1,3,5,7,9,11,13,15,-1,17,19,21,-1,23,25,-1,-1,27,29,31,33,-1,35,37,39,41,43,45,-1,-1,-1,-1,47,49,51,53,-1,55,57,59,-1,-1,-1,61,63,-1,-1,-1,-1,65,67,69,-1,-1,-1,-1,-1,-1,-1,71,-1,73,75,-1,-1,-1,-1,-1,-1,-1,-1,-1,-1,-1,-1,-1,-1],"loss_changes":[9.8533875E1,3.428845E1,6.3614655E1,1.4988204E1,3.0554367E1,3.672496E1,3.5098373E1,4.0707664E0,0E0,4.0341213E1,1.6566948E1,1.07229E1,0E0,3.6207798E1,4.0939514E1,0E0,0E0,1.9935745E1,8.659212E0,1.2547307E1,1.5345993E1,0E0,6.477188E0,2.145097E1,1.1752537E1,9.364367E0,2.5943275E1,5.597969E0,0E0,0E0,0E0,0E0,1.8150935E0,2.337588E1,1.2332565E1,1.8825836E0,0E0,1.1990276E1,1.0640476E1,8.497131E0,0E0,0E0,0E0,1.9443611E1,6.490756E0,0E0,0E0,0E0,0E0,7.112055E0,8.3342495E0,8.468918E0,0E0,0E0,0E0,0E0,0E0,0E0,0E0,3.1738434E0,0E0,1.5384303E1,2.2696205E1,0E0,0E0,0E0,0E0,0E0,0E0,0E0,0E0,0E0,0E0,0E0,0E0,0E0,0E0],"parents":[2147483647,0,0,1,1,2,2,3,3,4,4,5,5,6,6,7,7,9,9,10,10,11,11,13,13,14,14,17,17,18,18,19,19,20,20,22,22,23,23,24,24,25,25,26,26,27,27,32,32,33,33,34,34,35,35,37,37,38,38,39,39,43,43,44,44,49,49,50,50,51,51,59,59,61,61,62,62],"right_children":[2,4,6,8,10,12,14,16,-1,18,20,22,-1,24,26,-1,-1,28,30,32,34,-1,36,38,40,42,44,46,-1,-1,-1,-1,48,50,52,54,-1,56,58,60,-1,-1,-1,62,64,-1,-1,-1,-1,66,68,70,-1,-1,-1,-1,-1,-1,-1,72,-1,74,76,-1,-1,-1,-1,-1,-1,-1,-1,-1,-1,-1,-1,-1,-1],"split_conditions":[1.5034528E-1,7.158746E-1,4.2492412E-2,1.5199354E-1,8.483772E-1,1.4113122E-1,1.5639432E-1,1.5398474E0,-4.490068E-2,8.961978E-2,7.0687935E-2,1.121189E0,-6.0937773E-2,3.784082E-1,1.066486E-1,7.110398E-2,1.0158156E-2,8.649227E-2,1.6296047E0,1.23637944E-1,1.7904726E-1,-9.256695E-3,2.9643846E-1,5.986303E-3,6.703089E-1,3.3912745E-1,3.4593964E-1,4.552733E-1,-4.3121915E-2,-7.352391E-2,1.1137252E-2,5.1182088E-2,1.884508E-1,9.2783205E-2,1.540013E-1,7.5465906E-1,2.6011704E-3,1.1896495E-1,7.7398E-1,1.7061563E-1,1.2532662E-2,-7.436173E-2,1.3875063E-2,6.15666E-2,1.7706493E-2,2.2149323E-3,7.813778E-2,-5.5417348E-2,-3.2401588E-3,1.7972224E0,1.0482159E-1,1.244335E0,2.032511E-2,8.2931645E-2,2.7829966E-2,-2.2489069E-2,7.211946E-2,-6.2406074E-2,2.4163326E-2,3.3815312E0,5.7087936E-3,2.1556662E-4,6.55177E-2,-6.560492E-2,1.0244227E-2,6.899936E-2,-1.2601651E-2,-6.696214E-2,1.08229285E-2,-7.253378E-2,2.8479062E-3,-7.888176E-2,-1.344799E-2,3.919086E-2,-5.8596678E-2,3.275837E-3,7.209409E-2],"split_indices":[1928,864,1802,1743,554,1836,207,994,0,1873,1808,521,0,975,1954,0,0,1621,674,1361,1625,0,1810,428,595,299,1008,423,0,0,0,0,235,1969,1699,973,0,1859,963,1946,0,0,0,1740,984,0,0,0,0,522,1959,386,0,0,0,0,0,0,0,940,0,1429,136,0,0,0,0,0,0,0,0,0,0,0,0,0,0],"split_type":[0,0,0,0,0,0,0,0,0,0,0,0,0,0,0,0,0,0,0,0,0,0,0,0,0,0,0,0,0,0,0,0,0,0,0,0,0,0,0,0,0,0,0,0,0,0,0,0,0,0,0,0,0,0,0,0,0,0,0,0,0,0,0,0,0,0,0,0,0,0,0,0,0,0,0,0,0],"sum_hessian":[4.046468E2,1.7392589E2,2.3072092E2,1.7732584E1,1.5619331E2,6.6601326E1,1.6411958E2,1.4551527E1,3.1810572E0,3.6280964E1,1.19912346E2,6.239787E1,4.2034545E0,6.5481735E1,9.863785E1,9.719358E0,4.8321686E0,2.1559017E1,1.4721946E1,1.2119814E1,1.0779253E2,3.3962955E0,5.9001575E1,2.7687536E1,3.77942E1,1.3229375E1,8.540848E1,1.787238E1,3.6866386E0,1.157692E1,3.1450262E0,5.7478685E0,6.371946E0,2.5891092E1,8.1901436E1,5.5852177E1,3.1493974E0,1.6230055E1,1.1457481E1,3.2946552E1,4.8476515E0,1.0086855E1,3.1425207E0,7.636278E1,9.045695E0,3.139272E0,1.4733107E1,3.215725E0,3.156221E0,8.658415E0,1.7232677E1,7.877405E1,3.1273868E0,5.129156E1,4.560617E0,3.1882243E0,1.304183E1,7.1522408E0,4.305241E0,2.9574251E1,3.3722994E0,1.2144095E1,6.421868E1,5.4270244E0,3.6186712E0,5.4812746E0,3.17714E0,1.3593051E1,3.6396272E0,7.514827E1,3.6257815E0,2.640196E1,3.1722906E0,5.969944E0,6.1741514E0,1.6218426E1,4.800026E1],"tree_param":{"num_deleted":"0","num_feature":"1998","num_nodes":"77","size_leaf_vector":"1"}},{"base_weights":[8.50865E-3,-2.80178E-1,8.2765675E-1,1.7537864E-1,-6.125283E-1,8.486397E-3,1.2227434E0,4.282728E-1,-1.0911518E0,-3.124217E-1,-1.1433465E0,1.0128224E0,-4.9969617E-1,1.5307379E0,7.1322784E-2,6.2849313E-1,-7.7677137E-1,-7.2220944E-2,2.35236E-3,-5.23397E-1,7.918141E-1,4.188159E-1,-1.3777272E0,4.250291E-3,6.848162E-2,-9.8207337E-1,7.105822E-1,7.939197E-2,1.5053282E-2,-6.1070263E-1,5.0226726E-2,9.5509E-1,-1.2305075E-1,-1.2497537E0,2.8243935E-2,-7.704364E-1,5.601621E-1,6.7811094E-2,-2.3628626E-2,-3.6320716E-2,6.0957063E-2,1.2767513E-2,-1.4873995E0,2.8275771E-2,-1.3551214E0,-0E0,5.5737246E-2,3.5317954E-2,-6.447659E-2,-1.0176404E-1,1.2687818E0,9.1660076E-1,-6.170731E-1,-7.175593E-2,-1.9939559E-2,-1.1882896E0,-6.4567284E-4,7.208419E-2,-6.286547E-1,-1.5557413E0,-1.7925238E-2,-7.5737976E-2,-2.0388996E-2,-3.554686E-2,4.5254245E-2,7.2651014E-2,-0E0,-0E0,6.459485E-2,-5.69983E-2,3.427222E-2,-6.866022E-2,3.52306E-3,6.295207E-2,-2.4983026E-2,1.3510873E-2,-6.0988892E-2,-3.4473207E-2,-8.147723E-2],"categories":[],"categories_nodes":[],"categories_segments":[],"categories_sizes":[],"default_left":[0,0,0,0,0,0,0,0,0,0,0,0,0,0,0,0,0,0,0,0,0,0,0,0,0,0,0,0,0,0,0,0,0,0,0,0,0,0,0,0,0,0,0,0,0,0,0,0,0,0,0,0,0,0,0,0,0,0,0,0,0,0,0,0,0,0,0,0,0,0,0,0,0,0,0,0,0,0,0],"id":5,"left_children":[1,3,5,7,9,11,13,15,17,19,21,23,25,27,29,31,33,-1,-1,35,37,39,41,-1,-1,43,45,-1,-1,47,-1,49,51,53,-1,55,57,-1,-1,-1,-1,-1,59,-1,61,-1,-1,-1,-1,63,65,67,69,-1,-1,71,73,-1,75,77,-1,-1,-1,-1,-1,-1,-1,-1,-1,-1,-1,-1,-1,-1,-1,-1,-1,-1,-1],"loss_changes":[9.704928E1,4.616967E1,3.4475677E1,4.229465E1,2.7160965E1,1.9897247E1,2.5178795E1,2.733572E1,9.131565E0,2.7649338E1,2.4191254E1,3.9667673E0,1.6471107E1,2.8357086E0,1.232528E1,2.3615055E1,1.1886165E1,0E0,0E0,2.7126398E1,1.5076088E1,1.0667517E1,1.0734352E1,0E0,0E0,1.2770723E1,2.3280358E0,0E0,0E0,1.1911953E1,0E0,2.241584E1,1.6730907E1,6.9127846E-1,0E0,2.5853931E1,2.2103085E1,0E0,0E0,0E0,0E0,0E0,2.6967163E0,0E0,1.0246811E0,0E0,0E0,0E0,0E0,1.1691457E1,1.1961739E1,3.520587E0,1.6516373E1,0E0,0E0,1.2486702E1,2.0352264E1,0E0,5.8313274E0,6.0582733E-1,0E0,0E0,0E0,0E0,0E0,0E0,0E0,0E0,0E0,0E0,0E0,0E0,0E0,0E0,0E0,0E0,0E0,0E0,0E0],"parents":[2147483647,0,0,1,1,2,2,3,3,4,4,5,5,6,6,7,7,8,8,9,9,10,10,11,11,12,12,13,13,14,14,15,15,16,16,19,19,20,20,21,21,22,22,25,25,26,26,29,29,31,31,32,32,33,33,35,35,36,36,42,42,44,44,49,49,50,50,51,51,52,52,55,55,56,56,58,58,59,59],"right_children":[2,4,6,8,10,12,14,16,18,20,22,24,26,28,30,32,34,-1,-1,36,38,40,42,-1,-1,44,46,-1,-1,48,-1,50,52,54,-1,56,58,-1,-1,-1,-1,-1,60,-1,62,-1,-1,-1,-1,64,66,68,70,-1,-1,72,74,-1,76,78,-1,-1,-1,-1,-1,-1,-1,-1,-1,-1,-1,-1,-1,-1,-1,-1,-1,-1,-1],"split_conditions":[1.586083E-1,2.7476743E-2,7.7477384E-1,6.90185E-1,7.542995E-2,1.8767247E0,1.9650955E-1,6.920243E-2,3.9322403E-1,1.3580952E0,7.3431396E-1,5.1463094E-2,1.9378173E-1,3.2724898E0,1.2989609E0,1.4048252E0,7.756989E-2,-7.2220944E-2,2.35236E-3,2.9638398E-1,1.4764531E0,8.4221554E-1,6.655512E-2,4.250291E-3,6.848162E-2,6.536436E-2,6.8866545E-3,7.939197E-2,1.5053282E-2,3.037239E-2,5.0226726E-2,6.098015E-2,5.126719E-2,5.660854E-1,2.8243935E-2,3.2976967E-1,2.1137936E0,6.7811094E-2,-2.3628626E-2,-3.6320716E-2,6.0957063E-2,1.2767513E-2,1.9250421E-3,2.8275771E-2,2.1598778E0,-0E0,5.5737246E-2,3.5317954E-2,-6.447659E-2,9.9398E-2,2.1172999E-1,1.0318015E-1,6.7753106E-1,-7.175593E-2,-1.9939559E-2,2.4655233E-1,1.2526339E0,7.208419E-2,1.318993E0,1.4662369E-1,-1.7925238E-2,-7.5737976E-2,-2.0388996E-2,-3.554686E-2,4.5254245E-2,7.2651014E-2,-0E0,-0E0,6.459485E-2,-5.69983E-2,3.427222E-2,-6.866022E-2,3.52306E-3,6.295207E-2,-2.4983026E-2,1.3510873E-2,-6.0988892E-2,-3.4473207E-2,-8.147723E-2],"split_indices":[1937,1636,747,975,1678,899,306,1990,359,436,554,1893,1693,1020,778,593,1977,0,0,145,456,992,1724,0,0,1925,1271,0,0,503,0,136,1806,131,0,438,688,0,0,0,0,0,1349,0,995,0,0,0,0,1615,1693,361,1031,0,0,242,977,0,949,251,0,0,0,0,0,0,0,0,0,0,0,0,0,0,0,0,0,0,0],"split_type":[0,0,0,0,0,0,0,0,0,0,0,0,0,0,0,0,0,0,0,0,0,0,0,0,0,0,0,0,0,0,0,0,0,0,0,0,0,0,0,0,0,0,0,0,0,0,0,0,0,0,0,0,0,0,0,0,0,0,0,0,0,0,0,0,0,0,0,0,0,0,0,0,0,0,0,0,0,0,0],"sum_hessian":[4.0620328E2,3.01235E2,1.0496829E2,1.2733672E2,1.7389827E2,3.4900944E1,7.006735E1,1.07311905E2,2.0024817E1,1.13241104E2,6.0657166E1,1.1125001E1,2.3775942E1,5.4692017E1,1.5375335E1,9.291396E1,1.4397947E1,1.4938181E1,5.0866365E0,9.6035194E1,1.7205904E1,7.6524734E0,5.3004692E1,3.855705E0,7.2692957E0,1.7328936E1,6.447007E0,5.1630623E1,3.061396E0,9.220603E0,6.1547318E0,6.448308E1,2.8430887E1,1.0801526E1,3.596421E0,7.8751076E1,1.7284124E1,1.1850018E1,5.3558865E0,3.172508E0,4.479965E0,3.1110563E0,4.989364E1,3.1133375E0,1.4215597E1,3.141309E0,3.3056982E0,3.0583603E0,6.162243E0,1.4995245E1,4.948783E1,8.541801E0,1.9889086E1,7.645636E0,3.15589E0,5.025483E1,2.8496243E1,9.728807E0,7.5553164E0,4.6248985E1,3.6446526E0,1.1050059E1,3.1655385E0,9.770763E0,5.224481E0,4.2924294E1,6.5635366E0,3.1257606E0,5.416041E0,1.4424693E1,5.464392E0,4.372855E1,6.526282E0,7.1643724E0,2.1331871E1,3.3610396E0,4.194277E0,5.3610992E0,4.0887886E1],"tree_param":{"num_deleted":"0","num_feature":"1998","num_nodes":"79","size_leaf_vector":"1"}},{"base_weights":[1.1404347E-2,-4.8831055E-1,4.6889699E-1,2.1779478E-1,-7.2953975E-1,6.910197E-1,-7.650125E-1,5.6208396E-1,-8.882197E-1,-1.2289246E0,-3.2741946E-1,1.0906689E0,-1.6372155E-1,-1.2839068E0,1.3767008E-1,-6.845146E-1,9.4545186E-1,-6.0139533E-2,1.1570577E-3,-1.3594123E0,2.2166433E-2,2.92245E-1,-7.5762695E-1,1.180599E0,-4.092063E-2,7.3173064E-1,-6.045984E-1,-7.4075684E-2,-1.4792998E-2,-6.223859E-1,5.644418E-2,-6.2281866E-2,1.849691E-2,1.1921983E0,-3.7182245E-2,7.5683407E-3,-1.4573631E0,-9.1368514E-1,6.637853E-1,-1.0788032E0,8.370521E-1,-1.9717094E-1,1.3009108E0,1.1288289E0,-2.3477297E-2,1.7368697E-1,-1.1559509E0,1.0785028E-2,-5.7668418E-2,1.452452E0,-2.6534198E-2,-1.5373677E0,-1.4281871E-2,-5.8654636E-2,-1.1903756E-2,9.358621E-1,-2.7149219E-2,2.8174678E-2,-1.2401245E0,1.8630011E-3,6.0276814E-2,3.1893194E-2,-5.813181E-2,-1.2547788E-2,1.367621E0,7.266735E-2,2.4445807E-3,-7.685009E-1,8.552049E-1,1.0577991E-4,-1.3954989E0,8.003705E-2,1.1344542E-2,-1.7542971E-2,-7.986953E-2,-1.2682289E-3,7.150713E-2,-7.075182E-2,1.463757E-2,7.113756E-2,-0E0,-3.332647E-3,-5.5588692E-2,-9.201999E-3,6.423549E-2,-7.6243855E-2,-2.5425239E-2],"categories":[],"categories_nodes":[],"categories_segments":[],"categories_sizes":[],"default_left":[0,0,0,0,0,0,0,0,0,0,0,0,0,0,0,0,0,0,0,0,0,0,0,0,0,0,0,0,0,0,0,0,0,0,0,0,0,0,0,0,0,0,0,0,0,0,0,0,0,0,0,0,0,0,0,0,0,0,0,0,0,0,0,0,0,0,0,0,0,0,0,0,0,0,0,0,0,0,0,0,0,0,0,0,0,0,0],"id":6,"left_children":[1,3,5,7,9,11,13,15,17,19,21,23,25,27,29,31,33,-1,-1,35,-1,37,39,41,-1,43,45,-1,-1,47,-1,-1,-1,49,-1,-1,51,53,55,57,59,61,63,65,-1,67,69,-1,-1,71,-1,73,-1,-1,-1,75,-1,-1,77,-1,-1,-1,-1,-1,79,-1,-1,81,83,-1,85,-1,-1,-1,-1,-1,-1,-1,-1,-1,-1,-1,-1,-1,-1,-1,-1],"loss_changes":[9.200143E1,3.3117287E1,5.8653946E1,2.0154535E1,2.7930267E1,6.1674156E1,1.5898584E1,2.0304329E1,3.805604E0,1.5117386E1,2.2491287E1,2.29944E1,2.4070377E1,3.0813942E0,1.1822812E1,7.187245E0,1.4855444E1,0E0,0E0,9.346931E0,0E0,1.6944876E1,2.7113691E1,2.0154663E1,0E0,1.0769802E1,1.7898184E1,0E0,0E0,4.6055803E0,0E0,0E0,0E0,1.42397995E1,0E0,0E0,4.183319E0,8.883629E-1,1.0283892E1,1.2596752E1,2.541317E0,1.0510915E1,1.2050705E1,5.2603645E0,0E0,1.3187042E1,6.822319E0,0E0,0E0,3.636158E0,0E0,2.3752518E0,0E0,0E0,0E0,1.14910145E1,0E0,0E0,1.1380669E1,0E0,0E0,0E0,0E0,0E0,7.9461365E0,0E0,0E0,1.8412867E0,5.8184824E0,0E0,5.431061E-1,0E0,0E0,0E0,0E0,0E0,0E0,0E0,0E0,0E0,0E0,0E0,0E0,0E0,0E0,0E0,0E0],"parents":[2147483647,0,0,1,1,2,2,3,3,4,4,5,5,6,6,7,7,8,8,9,9,10,10,11,11,12,12,13,13,14,14,15,15,16,16,19,19,21,21,22,22,23,23,25,25,26,26,29,29,33,33,36,36,37,37,38,38,39,39,40,40,41,41,42,42,43,43,45,45,46,46,49,49,51,51,55,55,58,58,64,64,67,67,68,68,70,70],"right_children":[2,4,6,8,10,12,14,16,18,20,22,24,26,28,30,32,34,-1,-1,36,-1,38,40,42,-1,44,46,-1,-1,48,-1,-1,-1,50,-1,-1,52,54,56,58,60,62,64,66,-1,68,70,-1,-1,72,-1,74,-1,-1,-1,76,-1,-1,78,-1,-1,-1,-1,-1,80,-1,-1,82,84,-1,86,-1,-1,-1,-1,-1,-1,-1,-1,-1,-1,-1,-1,-1,-1,-1,-1],"split_conditions":[1.551954E-1,2.5104027E0,7.023986E-1,2.1163781E-1,2.0561856E-1,1.7427988E-1,1.5362091E0,9.42611E-2,1.9683977E0,1.480835E-1,2.8544492E-1,3.592944E-1,5.1500265E-2,3.643931E-1,8.6423373E-1,1.6900371E-1,1.4041515E-1,-6.0139533E-2,1.1570577E-3,1.6720444E-1,2.2166433E-2,1.786553E0,2.9390743E-1,6.9260545E-2,-4.092063E-2,3.5713665E-4,9.306202E-2,-7.4075684E-2,-1.4792998E-2,5.4178345E-1,5.644418E-2,-6.2281866E-2,1.849691E-2,1.0085961E-1,-3.7182245E-2,7.5683407E-3,1.5385673E0,5.9274375E-1,1.563795E-1,1.5240018E0,3.6416212E-4,9.088631E-2,3.0473837E-1,5.71019E-1,-2.3477297E-2,5.6055002E-2,9.505299E-1,1.0785028E-2,-5.7668418E-2,4.290614E-1,-2.6534198E-2,6.861694E-2,-1.4281871E-2,-5.8654636E-2,-1.1903756E-2,5.5413383E-1,-2.7149219E-2,2.8174678E-2,7.234118E-1,1.8630011E-3,6.0276814E-2,3.1893194E-2,-5.813181E-2,-1.2547788E-2,1.1012563E-1,7.266735E-2,2.4445807E-3,4.0094224E-3,7.183994E-2,1.0577991E-4,1.2994616E0,8.003705E-2,1.1344542E-2,-1.7542971E-2,-7.986953E-2,-1.2682289E-3,7.150713E-2,-7.075182E-2,1.463757E-2,7.113756E-2,-0E0,-3.332647E-3,-5.5588692E-2,-9.201999E-3,6.423549E-2,-7.6243855E-2,-2.5425239E-2],"split_indices":[1928,978,975,137,1716,938,497,1711,583,1794,819,290,1684,298,9,1987,1116,0,0,1625,0,917,86,1839,0,1339,1719,0,0,1006,0,0,0,1654,0,0,962,344,1853,995,1173,1659,1054,317,0,1754,808,0,0,369,0,1997,0,0,0,1552,0,0,278,0,0,0,0,0,1971,0,0,1165,288,0,651,0,0,0,0,0,0,0,0,0,0,0,0,0,0,0,0],"split_type":[0,0,0,0,0,0,0,0,0,0,0,0,0,0,0,0,0,0,0,0,0,0,0,0,0,0,0,0,0,0,0,0,0,0,0,0,0,0,0,0,0,0,0,0,0,0,0,0,0,0,0,0,0,0,0,0,0,0,0,0,0,0,0,0,0,0,0,0,0,0,0,0,0,0,0,0,0,0,0,0,0,0,0,0,0,0,0],"sum_hessian":[3.9843338E2,1.9026042E2,2.0817297E2,4.839181E1,1.418686E2,1.7722986E2,3.094311E1,3.772307E1,1.0668743E1,6.1335903E1,8.053271E1,1.2046792E2,5.6761936E1,1.9182472E1,1.1760639E1,8.441597E0,2.9281473E1,7.5372996E0,3.1314437E0,5.729877E1,4.0371313E0,3.3167564E1,4.736514E1,1.1582727E2,4.640649E0,1.821656E1,3.8545376E1,1.5068689E1,4.1137824E0,7.0205984E0,4.7400403E0,5.3348765E0,3.1067202E0,2.6114222E1,3.167251E0,3.3601828E0,5.393859E1,7.0611763E0,2.610639E1,4.0015522E1,7.3496175E0,9.132799E0,1.0669447E2,1.3844076E1,4.3724833E0,1.647623E1,2.2069147E1,3.110419E0,3.9101794E0,2.3010319E1,3.1039033E0,4.9826984E1,4.111604E0,3.9310875E0,3.1300886E0,2.1737356E1,4.369033E0,3.077708E0,3.6937813E1,3.0983305E0,4.251287E0,5.2055554E0,3.927244E0,4.107997E0,1.0258647E2,1.0042266E1,3.80181E0,6.746838E0,9.729392E0,4.0508194E0,1.8018328E1,1.9907698E1,3.1026204E0,3.1387267E0,4.668826E1,7.95749E0,1.3779867E1,3.3351192E1,3.5866203E0,9.856379E1,4.0226855E0,3.0961568E0,3.6506813E0,3.111321E0,6.6180716E0,1.4371097E1,3.6472316E0],"tree_param":{"num_deleted":"0","num_feature":"1998","num_nodes":"87","size_leaf_vector":"1"}},{"base_weights":[-9.781402E-3,9.0881574E-1,-2.2794686E-1,-1.7002295E-1,1.1954402E0,-1.1087836E0,-7.19918E-2,7.3548543E-1,-5.8923285E-2,-1.964705E-2,1.2957773E0,-1.3911659E0,2.355586E-1,1.526554E-1,-7.179478E-1,5.9732825E-2,-2.4059182E-3,-1.5244464E-3,1.4273266E0,-1.4900821E0,-4.6897843E-3,-3.7388813E-2,4.5467347E-2,-3.5662627E-1,5.841037E-1,7.325906E-1,-9.099246E-1,1.5359187E0,-5.082775E-3,-7.745711E-2,-2.3760794E-2,2.6426947E-1,-7.296995E-1,1.06787115E-1,1.0724561E0,5.9151072E-2,-5.001522E-3,-1.1774105E0,-1.5544973E-1,7.901027E-2,2.4434874E-2,6.5504634E-1,-9.940272E-1,-1.3215091E0,-2.1733962E-1,-7.545128E-1,4.736201E-1,-2.565519E-2,1.1961834E0,-1.3116006E0,2.1301238E-2,-1.0651938E0,7.220994E-1,4.6442788E-2,-4.196737E-2,-1.6755933E-2,-5.9204806E-2,-1.2580837E-2,-7.21256E-2,2.869657E-2,-3.241469E-2,-6.289593E-2,1.3427295E-2,4.6437487E-2,-1.5713219E-2,-1.1974056E-2,6.53299E-2,2.3025612E-3,-7.091896E-2,-1.7121967E-2,-6.2922396E-2,6.461167E-2,-1.6456818E-2],"categories":[],"categories_nodes":[],"categories_segments":[],"categories_sizes":[],"default_left":[0,0,0,0,0,0,0,0,0,0,0,0,0,0,0,0,0,0,0,0,0,0,0,0,0,0,0,0,0,0,0,0,0,0,0,0,0,0,0,0,0,0,0,0,0,0,0,0,0,0,0,0,0,0,0,0,0,0,0,0,0,0,0,0,0,0,0,0,0,0,0,0,0],"id":7,"left_children":[1,3,5,7,9,11,13,15,-1,-1,17,19,21,23,25,-1,-1,-1,27,29,-1,-1,-1,31,33,35,37,39,-1,-1,-1,41,43,45,47,-1,-1,49,51,-1,-1,53,55,57,59,61,63,-1,65,67,-1,69,71,-1,-1,-1,-1,-1,-1,-1,-1,-1,-1,-1,-1,-1,-1,-1,-1,-1,-1,-1,-1],"loss_changes":[8.074339E1,2.4413448E1,4.4486782E1,1.8127663E1,1.0894188E1,1.928939E1,4.0774254E1,4.0483036E0,0E0,0E0,1.0394203E1,4.7806396E0,8.079184E0,4.6275833E1,2.1534271E1,0E0,0E0,0E0,9.276901E0,5.775604E-1,0E0,0E0,0E0,2.2856834E1,2.617886E1,3.9147625E0,1.2610516E1,5.578003E-1,0E0,0E0,0E0,1.9807606E1,1.7799877E1,1.9603765E1,1.2266716E1,0E0,0E0,1.1438522E1,1.70644E1,0E0,0E0,1.3857941E1,2.6528835E-1,2.7127E0,1.2766796E1,1.0340164E1,1.6172039E1,0E0,9.060165E0,6.709015E0,0E0,4.294815E-1,7.5476556E0,0E0,0E0,0E0,0E0,0E0,0E0,0E0,0E0,0E0,0E0,0E0,0E0,0E0,0E0,0E0,0E0,0E0,0E0,0E0,0E0],"parents":[2147483647,0,0,1,1,2,2,3,3,4,4,5,5,6,6,7,7,10,10,11,11,12,12,13,13,14,14,18,18,19,19,23,23,24,24,25,25,26,26,27,27,31,31,32,32,33,33,34,34,37,37,38,38,41,41,42,42,43,43,44,44,45,45,46,46,48,48,49,49,51,51,52,52],"right_children":[2,4,6,8,10,12,14,16,-1,-1,18,20,22,24,26,-1,-1,-1,28,30,-1,-1,-1,32,34,36,38,40,-1,-1,-1,42,44,46,48,-1,-1,50,52,-1,-1,54,56,58,60,62,64,-1,66,68,-1,70,72,-1,-1,-1,-1,-1,-1,-1,-1,-1,-1,-1,-1,-1,-1,-1,-1,-1,-1,-1,-1],"split_conditions":[8.404101E-2,1.2137235E0,1.07482485E-1,9.8313975E-1,7.9268925E-2,6.638845E-2,6.326906E-2,6.675705E-2,-5.8923285E-2,-1.964705E-2,8.004517E-3,1.0865339E-1,4.713977E-2,1.4912531E-1,7.666232E-1,5.9732825E-2,-2.4059182E-3,-1.5244464E-3,1.6596712E0,9.156108E-2,-4.6897843E-3,-3.7388813E-2,4.5467347E-2,2.6421692E0,1.1453814E-1,2.9941747E-1,1.5242495E-1,1.3431016E-1,-5.082775E-3,-7.745711E-2,-2.3760794E-2,8.932731E-2,9.7430707E-4,1.0681482E-1,1.19808994E-1,5.9151072E-2,-5.001522E-3,1.7221566E-1,5.527299E-1,7.901027E-2,2.4434874E-2,1.4769274E0,7.2736028E-3,4.136739E-3,1.1883858E-1,7.71152E-2,1.4844421E-2,-2.565519E-2,6.440075E-1,9.835336E-2,2.1301238E-2,1.335521E-1,2.2987962E0,4.6442788E-2,-4.196737E-2,-1.6755933E-2,-5.9204806E-2,-1.2580837E-2,-7.21256E-2,2.869657E-2,-3.241469E-2,-6.289593E-2,1.3427295E-2,4.6437487E-2,-1.5713219E-2,-1.1974056E-2,6.53299E-2,2.3025612E-3,-7.091896E-2,-1.7121967E-2,-6.2922396E-2,6.461167E-2,-1.6456818E-2],"split_indices":[1809,600,1954,605,1866,1514,463,247,0,0,69,1648,37,1928,826,0,0,0,682,1912,0,0,0,978,361,187,361,1711,0,0,0,1911,1248,1922,6,0,0,1949,155,0,0,632,1453,458,327,54,1493,0,570,251,0,1778,1505,0,0,0,0,0,0,0,0,0,0,0,0,0,0,0,0,0,0,0,0],"split_type":[0,0,0,0,0,0,0,0,0,0,0,0,0,0,0,0,0,0,0,0,0,0,0,0,0,0,0,0,0,0,0,0,0,0,0,0,0,0,0,0,0,0,0,0,0,0,0,0,0,0,0,0,0,0,0,0,0,0,0,0,0,0,0,0,0,0,0,0,0,0,0,0,0],"sum_hessian":[3.9917102E2,7.530511E1,3.2386594E2,1.5904851E1,5.9400257E1,4.6781693E1,2.7708423E2,8.613097E0,7.2917547E0,3.1235757E0,5.627668E1,3.8664787E1,8.116904E0,2.0660483E2,7.047941E1,4.849752E0,3.7633448E0,5.1483026E0,5.112838E1,3.5578026E1,3.0867612E0,3.1507008E0,4.966203E0,9.4808235E1,1.1179659E2,7.518462E0,6.2960945E1,4.7790504E1,3.3378751E0,3.253332E1,3.0447025E0,3.570335E1,5.9104885E1,5.7873264E1,5.392333E1,4.410756E0,3.1077058E0,4.5556133E1,1.7404814E1,4.478325E1,3.0072565E0,2.8035078E1,7.668271E0,2.5869827E1,3.3235058E1,1.6573502E1,4.1299763E1,3.389154E0,5.0534176E1,4.2431458E1,3.1246727E0,8.3916235E0,9.013191E0,2.4390026E1,3.645052E0,3.071784E0,4.5964866E0,3.3382957E0,2.253153E1,1.1402835E1,2.1832222E1,1.0865595E1,5.7079062E0,2.6031652E1,1.5268113E1,3.3773031E0,4.715687E1,3.1085298E0,3.932293E1,3.0492105E0,5.342413E0,5.608217E0,3.4049742E0],"tree_param":{"num_deleted":"0","num_feature":"1998","num_nodes":"73","size_leaf_vector":"1"}},{"base_weights":[7.552167E-3,7.390539E-1,-2.3993458E-1,9.624418E-1,-7.035252E-1,-1.1096531E-2,-8.130494E-1,-7.5522304E-1,1.1187055E0,1.9202076E-2,-5.8518108E-2,3.157914E-1,-4.312728E-1,6.502417E-1,-1.0242374E0,-5.5072762E-2,-3.2306984E-3,1.2083616E0,-3.2992255E-2,-5.6741893E-1,5.9564686E-1,4.0548488E-1,-6.8372035E-1,-3.297251E-2,6.319825E-2,2.910862E-2,-1.1373078E0,-5.38769E-3,1.3209442E0,-9.4186896E-1,4.427022E-2,-4.6323217E-2,7.1341205E-1,1.1227598E0,-5.4792804E-1,-1.2283914E0,-2.9090953E-1,-1.2288905E0,1.165172E-2,-3.7095342E-3,1.4505265E0,-1.213201E0,1.577378E-2,8.5097575E-1,-5.731378E-1,8.081827E-3,6.918184E-2,-5.707279E-2,2.664232E-2,-7.606954E-4,-1.3856226E0,-1.2257372E0,1.3333423E-1,-1.3274194E0,1.6711811E-3,7.477399E-2,1.4496641E-2,-5.583189E-3,-7.102474E-2,5.2519273E-2,-7.79553E-3,-5.709069E-2,1.5193336E-2,-1.997011E-2,-7.450162E-2,-6.985342E-2,-1.7028196E-2,-4.0005457E-2,2.535114E-2,-0E0,-7.039429E-2],"categories":[],"categories_nodes":[],"categories_segments":[],"categories_sizes":[],"default_left":[0,0,0,0,0,0,0,0,0,0,0,0,0,0,0,0,0,0,0,0,0,0,0,0,0,0,0,0,0,0,0,0,0,0,0,0,0,0,0,0,0,0,0,0,0,0,0,0,0,0,0,0,0,0,0,0,0,0,0,0,0,0,0,0,0,0,0,0,0,0,0],"id":8,"left_children":[1,3,5,7,9,11,13,15,17,-1,-1,19,21,23,25,-1,-1,27,-1,29,31,33,35,-1,-1,-1,37,-1,39,41,-1,-1,43,45,47,49,51,53,-1,-1,55,57,-1,59,61,-1,-1,-1,-1,-1,63,65,67,69,-1,-1,-1,-1,-1,-1,-1,-1,-1,-1,-1,-1,-1,-1,-1,-1,-1],"loss_changes":[7.1944855E1,3.3763638E1,3.880912E1,2.5324707E1,8.375026E0,2.9700802E1,2.7484028E1,1.7668371E0,1.46371E1,0E0,0E0,3.0705112E1,2.0585178E1,1.1229536E1,1.4945084E1,0E0,0E0,1.2007751E1,0E0,1.808554E1,1.8026783E1,1.7092562E1,1.4876598E1,0E0,0E0,0E0,9.521042E0,0E0,1.3432709E1,9.387672E0,0E0,0E0,1.6542507E1,2.8845444E0,8.465901E0,5.56015E0,1.8472609E1,8.4863205E0,0E0,0E0,2.4166565E0,4.3359585E0,0E0,1.651876E1,5.5685844E0,0E0,0E0,0E0,0E0,0E0,1.3552322E0,1.0685692E0,1.2297265E1,6.51709E0,0E0,0E0,0E0,0E0,0E0,0E0,0E0,0E0,0E0,0E0,0E0,0E0,0E0,0E0,0E0,0E0,0E0],"parents":[2147483647,0,0,1,1,2,2,3,3,4,4,5,5,6,6,7,7,8,8,11,11,12,12,13,13,14,14,17,17,19,19,20,20,21,21,22,22,26,26,28,28,29,29,32,32,33,33,34,34,35,35,36,36,37,37,40,40,41,41,43,43,44,44,50,50,51,51,52,52,53,53],"right_children":[2,4,6,8,10,12,14,16,18,-1,-1,20,22,24,26,-1,-1,28,-1,30,32,34,36,-1,-1,-1,38,-1,40,42,-1,-1,44,46,48,50,52,54,-1,-1,56,58,-1,60,62,-1,-1,-1,-1,-1,64,66,68,70,-1,-1,-1,-1,-1,-1,-1,-1,-1,-1,-1,-1,-1,-1,-1,-1,-1],"split_conditions":[3.945994E-2,9.541855E-2,7.200928E-2,6.6966556E-2,1.055479E-1,1.0050238E0,1.3186661E0,8.715091E-3,1.2856721E-2,1.9202076E-2,-5.8518108E-2,8.347844E-2,5.6595445E-1,2.0915952E0,1.1433623E-2,-5.5072762E-2,-3.2306984E-3,1.9507298E-2,-3.2992255E-2,1.873865E-3,2.5443965E-1,2.8041008E-1,1.2998166E0,-3.297251E-2,6.319825E-2,2.910862E-2,2.2725992E0,-5.38769E-3,1.9807684E-1,2.725317E-1,4.427022E-2,-4.6323217E-2,3.1755352E-1,2.592579E-2,3.2140632E-4,8.601155E-1,4.8138434E-3,1.20754614E-1,1.165172E-2,-3.7095342E-3,2.3065034E-1,5.8431566E-2,1.577378E-2,7.451734E-2,9.772719E-1,8.081827E-3,6.918184E-2,-5.707279E-2,2.664232E-2,-7.606954E-4,8.0969126E-4,5.9410506E-1,7.1077216E-1,3.1710652E-1,1.6711811E-3,7.477399E-2,1.4496641E-2,-5.583189E-3,-7.102474E-2,5.2519273E-2,-7.79553E-3,-5.709069E-2,1.5193336E-2,-1.997011E-2,-7.450162E-2,-6.985342E-2,-1.7028196E-2,-4.0005457E-2,2.535114E-2,-0E0,-7.039429E-2],"split_indices":[1648,463,1875,1914,1983,841,805,152,1128,0,0,1734,798,947,1632,0,0,1116,0,1269,150,362,497,0,0,0,529,0,1829,156,0,0,938,1990,1145,554,1300,1914,0,0,1668,1754,0,1526,117,0,0,0,0,0,1231,663,871,1606,0,0,0,0,0,0,0,0,0,0,0,0,0,0,0,0,0],"split_type":[0,0,0,0,0,0,0,0,0,0,0,0,0,0,0,0,0,0,0,0,0,0,0,0,0,0,0,0,0,0,0,0,0,0,0,0,0,0,0,0,0,0,0,0,0,0,0,0,0,0,0,0,0,0,0,0,0,0,0,0,0,0,0,0,0,0,0,0,0,0,0],"sum_hessian":[3.9316943E2,9.8490524E1,2.9467892E2,8.5920456E1,1.2570065E1,2.1217366E2,8.250526E1,6.4721417E0,7.944832E1,3.817387E0,8.752677E0,1.19479836E2,9.2693825E1,9.8215685E0,7.2683685E1,3.421958E0,3.0501835E0,7.629949E1,3.1488235E0,2.8168623E1,9.131121E1,2.111104E1,7.158279E1,3.0343277E0,6.7872405E0,4.175781E0,6.8507904E1,5.9492283E0,7.0350266E1,2.3010208E1,5.1584144E0,5.5101E0,8.580112E1,1.1904585E1,9.206455E0,2.8104366E1,4.3478416E1,6.447813E1,4.0297837E0,5.985983E0,6.436428E1,1.9049187E1,3.9610212E0,7.8195E1,7.6061153E0,3.3147771E0,8.5898075E0,5.930076E0,3.2763789E0,3.5491421E0,2.4555223E1,1.2466203E1,3.1012215E1,5.9787525E1,4.690597E0,6.13257E1,3.0385847E0,3.580822E0,1.5468365E1,6.5279564E1,1.2915437E1,4.3169837E0,3.2891316E0,3.3663366E0,2.1188887E1,9.380897E0,3.0853062E0,8.136951E0,2.2875263E1,3.5730743E0,5.621445E1],"tree_param":{"num_deleted":"0","num_feature":"1998","num_nodes":"71","size_leaf_vector":"1"}},{"base_weights":[6.8397014E-3,-2.474383E-1,7.4522656E-1,2.197069E-1,-5.210731E-1,1.0427084E0,2.966242E-2,8.626531E-1,-1.4767562E-1,-9.92918E-2,-7.954043E-1,1.2224858E0,-1.06841594E-1,3.2996017E-1,-5.760468E-2,1.0505029E0,-2.6243174E-2,3.080691E-1,-7.864995E-1,2.9398E-1,-8.375842E-1,-9.8106503E-1,2.3877924E-2,-1.8600887E-2,1.3204674E0,4.273115E-2,-4.673214E-2,1.0020003E0,-3.2759747E-1,2.4689138E-3,1.2300763E0,7.12728E-1,-7.028412E-1,-1.008842E0,1.8519709E-2,-4.4049552E-1,7.646448E-1,-1.0813252E0,2.9912764E-2,2.50439E-2,-1.0762496E0,-7.397804E-1,1.0403781E0,1.3989676E0,-0E0,6.7794725E-2,-5.559169E-3,4.224319E-2,-7.7299553E-1,7.134684E-2,4.6786946E-1,1.041413E0,-2.46463E-1,1.7506635E-2,-5.6650527E-2,-1.2073672E0,1.6441758E-3,3.7098527E-1,-9.6325314E-1,1.0266349E0,-2.4166834E-2,6.70472E-3,-1.2832892E0,2.7142858E-2,-1.1505731E0,8.897423E-3,-6.1304312E-2,6.484487E-2,1.144785E-2,1.8168751E-2,1.4473934E0,-5.7261743E-2,8.551705E-3,5.398321E-2,-1.7958313E-2,-5.2747945E-3,6.59167E-2,-5.1170778E-2,4.199886E-2,-7.2688507E-3,-6.873154E-2,5.0589796E-2,-2.7710795E-2,-6.44381E-2,2.4405806E-3,6.026275E-2,-9.4598085E-3,-1.161117E-2,-7.1914926E-2,-6.466826E-2,-1.0272795E-2,7.435505E-2,2.529647E-2],"categories":[],"categories_nodes":[],"categories_segments":[],"categories_sizes":[],"default_left":[0,0,0,0,0,0,0,0,0,0,0,0,0,0,0,0,0,0,0,0,0,0,0,0,0,0,0,0,0,0,0,0,0,0,0,0,0,0,0,0,0,0,0,0,0,0,0,0,0,0,0,0,0,0,0,0,0,0,0,0,0,0,0,0,0,0,0,0,0,0,0,0,0,0,0,0,0,0,0,0,0,0,0,0,0,0,0,0,0,0,0,0,0],"id":9,"left_children":[1,3,5,7,9,11,13,15,17,19,21,23,25,27,-1,29,-1,31,33,35,37,39,41,-1,43,-1,-1,45,47,-1,49,51,53,55,-1,57,59,61,-1,-1,63,65,67,69,-1,-1,-1,-1,71,-1,73,75,77,-1,-1,79,-1,81,83,85,-1,-1,87,-1,89,-1,-1,-1,-1,-1,91,-1,-1,-1,-1,-1,-1,-1,-1,-1,-1,-1,-1,-1,-1,-1,-1,-1,-1,-1,-1,-1,-1],"loss_changes":[7.304614E1,3.7218285E1,2.105077E1,2.5854206E1,2.0934002E1,1.4892052E1,1.1831955E1,1.1500296E1,2.1024158E1,2.2198479E1,1.6948845E1,1.0605965E1,1.0571663E1,1.2515681E1,0E0,6.1662407E0,0E0,1.8357473E1,8.517723E0,1.800658E1,1.0625122E1,1.3862396E1,1.8853144E1,0E0,6.0204544E0,0E0,0E0,5.848525E0,9.089985E0,0E0,2.9903984E0,1.0479854E1,6.789056E0,5.5200977E0,0E0,9.568344E0,1.1285366E1,6.2147713E0,0E0,0E0,1.1596024E1,6.711964E0,1.4263401E0,1.5108337E0,0E0,0E0,0E0,0E0,4.677288E0,0E0,5.5311832E0,7.963825E0,9.793192E0,0E0,0E0,3.3124352E0,0E0,6.7946033E0,4.6114817E0,6.331793E0,0E0,0E0,2.4831047E0,0E0,1.0442368E1,0E0,0E0,0E0,0E0,0E0,2.2140503E-1,0E0,0E0,0E0,0E0,0E0,0E0,0E0,0E0,0E0,0E0,0E0,0E0,0E0,0E0,0E0,0E0,0E0,0E0,0E0,0E0,0E0,0E0],"parents":[2147483647,0,0,1,1,2,2,3,3,4,4,5,5,6,6,7,7,8,8,9,9,10,10,11,11,12,12,13,13,15,15,17,17,18,18,19,19,20,20,21,21,22,22,24,24,27,27,28,28,30,30,31,31,32,32,33,33,35,35,36,36,37,37,40,40,41,41,42,42,43,43,48,48,50,50,51,51,52,52,55,55,57,57,58,58,59,59,62,62,64,64,70,70],"right_children":[2,4,6,8,10,12,14,16,18,20,22,24,26,28,-1,30,-1,32,34,36,38,40,42,-1,44,-1,-1,46,48,-1,50,52,54,56,-1,58,60,62,-1,-1,64,66,68,70,-1,-1,-1,-1,72,-1,74,76,78,-1,-1,80,-1,82,84,86,-1,-1,88,-1,90,-1,-1,-1,-1,-1,92,-1,-1,-1,-1,-1,-1,-1,-1,-1,-1,-1,-1,-1,-1,-1,-1,-1,-1,-1,-1,-1,-1],"split_conditions":[1.586083E-1,1.3072698E0,1.7067587E-1,4.8636708E-1,1.472953E-2,8.6826056E-2,1.433767E-1,1.452783E-1,1.3439508E-1,1.9402225E-1,2.2726533E-1,3.7874004E-1,6.329501E-4,4.8266563E-1,-5.760468E-2,9.841715E-2,-2.6243174E-2,1.2884054E-1,2.3657233E-1,2.6402384E-1,2.8310037E-1,3.158705E-1,1.2029514E0,-1.8600887E-2,5.354188E-2,4.273115E-2,-4.673214E-2,3.961285E-6,6.942287E-1,2.4689138E-3,5.990538E-2,4.0268034E-1,5.096143E-1,1.1045593E-1,1.8519709E-2,1.7011583E-2,9.07226E-2,1.09457046E-1,2.9912764E-2,2.50439E-2,9.395742E-2,9.445001E-1,1.2608944E0,5.2726185E-1,-0E0,6.7794725E-2,-5.559169E-3,4.224319E-2,4.3781805E-1,7.134684E-2,5.4398555E-1,8.1145716E-1,7.973883E-3,1.7506635E-2,-5.6650527E-2,5.4231836E-3,1.6441758E-3,6.501128E-2,1.1006417E0,1.4887384E0,-2.4166834E-2,6.70472E-3,3.7844453E-2,2.7142858E-2,1.4568831E-1,8.897423E-3,-6.1304312E-2,6.484487E-2,1.144785E-2,1.8168751E-2,5.2472014E-2,-5.7261743E-2,8.551705E-3,5.398321E-2,-1.7958313E-2,-5.2747945E-3,6.59167E-2,-5.1170778E-2,4.199886E-2,-7.2688507E-3,-6.873154E-2,5.0589796E-2,-2.7710795E-2,-6.44381E-2,2.4405806E-3,6.026275E-2,-9.4598085E-3,-1.161117E-2,-7.1914926E-2,-6.466826E-2,-1.0272795E-2,7.435505E-2,2.529647E-2],"split_indices":[1937,466,1762,973,1944,1763,463,1743,111,1735,1810,677,401,272,0,1869,0,1866,207,1642,1791,715,709,0,1302,0,0,1333,728,0,1860,369,653,1775,0,139,1893,1937,0,0,1659,773,799,352,0,0,0,0,1062,0,1095,924,1304,0,0,1451,0,1725,591,673,0,0,1613,0,1962,0,0,0,0,0,365,0,0,0,0,0,0,0,0,0,0,0,0,0,0,0,0,0,0,0,0,0,0],"split_type":[0,0,0,0,0,0,0,0,0,0,0,0,0,0,0,0,0,0,0,0,0,0,0,0,0,0,0,0,0,0,0,0,0,0,0,0,0,0,0,0,0,0,0,0,0,0,0,0,0,0,0,0,0,0,0,0,0,0,0,0,0,0,0,0,0,0,0,0,0,0,0,0,0,0,0,0,0,0,0,0,0,0,0,0,0,0,0,0,0,0,0,0,0],"sum_hessian":[3.8481985E2,2.8713397E2,9.768586E1,1.0607429E2,1.810597E2,6.8255745E1,2.9430113E1,3.7690006E1,6.838428E1,7.2570984E1,1.08488716E2,5.8990376E1,9.265371E0,2.4683859E1,4.7462544E0,3.3687107E1,4.0028987E0,4.0424164E1,2.7960115E1,4.804608E1,2.4524899E1,8.822323E1,2.0265488E1,3.0321667E0,5.595821E1,4.200741E0,5.064631E0,1.176459E1,1.2919269E1,5.5960236E0,2.8091084E1,2.9360321E1,1.1063841E1,2.3739939E1,4.2201767E0,1.8731377E1,2.9314705E1,2.1447525E1,3.077372E0,4.7466674E0,8.3476555E1,1.182665E1,8.438838E0,5.2712475E1,3.245735E0,8.663978E0,3.1006129E0,3.0010557E0,9.918213E0,2.083457E1,7.2565136E0,2.1817097E1,7.543226E0,3.249449E0,7.8143916E0,1.975344E1,3.986499E0,7.4915514E0,1.1239826E1,2.4587816E1,4.72689E0,3.081288E0,1.8366238E1,3.0513272E0,8.042523E1,4.4643364E0,7.3623133E0,5.4090085E0,3.0298295E0,3.206812E0,4.950566E1,6.8836055E0,3.0346074E0,3.8893661E0,3.3671472E0,4.413774E0,1.7403322E1,4.519344E0,3.0238817E0,3.2778525E0,1.6475588E1,4.379279E0,3.1122723E0,8.165561E0,3.074265E0,2.1525158E1,3.0626585E0,3.0855474E0,1.528069E1,6.9137E1,1.1288229E1,4.628806E1,3.2176046E0],"tree_param":{"num_deleted":"0","num_feature":"1998","num_nodes":"93","size_leaf_vector":"1"}},{"base_weights":[-3.0577093E-2,8.1097263E-1,-2.1723917E-1,-4.6462994E-2,9.613084E-1,-3.7801036E-1,4.8768872E-1,-4.4682637E-2,1.0973366E0,4.7346103E-1,-5.064478E-1,-8.2133573E-1,7.042839E-1,1.1930958E0,-2.1489272E-2,8.796083E-1,-6.306941E-1,2.973659E-1,-6.430777E-1,-5.7084423E-2,-3.532961E-3,1.0136701E0,-3.7693617E-1,-1.1436837E-2,1.2981293E0,-2.6702946E-2,1.1147867E0,-5.4023426E-2,1.0478131E-2,7.4745286E-1,-5.4677695E-2,-8.9153004E-1,-1.6065457E-1,1.314506E0,1.943037E-1,3.2389067E-2,-8.427722E-1,1.3928213E0,-8.975291E-3,4.076401E-3,1.2706116E0,1.0246493E0,-3.0476648E-2,-1.0095726E0,2.747086E-1,4.5181593E-1,-6.7035115E-1,7.049354E-2,1.43530015E-2,-3.731706E-2,5.0674867E-2,-6.1107557E-2,-0E0,7.2397344E-2,1.564398E-2,1.7868584E-2,6.972352E-2,-3.800918E-3,6.2629625E-2,-5.7533998E-2,-1.03459535E-2,-3.8765818E-2,5.864204E-2,3.7978884E-2,-2.2912994E-2,-5.024438E-2,1.2078711E-2],"categories":[],"categories_nodes":[],"categories_segments":[],"categories_sizes":[],"default_left":[0,0,0,0,0,0,0,0,0,0,0,0,0,0,0,0,0,0,0,0,0,0,0,0,0,0,0,0,0,0,0,0,0,0,0,0,0,0,0,0,0,0,0,0,0,0,0,0,0,0,0,0,0,0,0,0,0,0,0,0,0,0,0,0,0,0,0],"id":10,"left_children":[1,3,5,-1,7,9,11,-1,13,15,17,19,21,23,-1,25,27,29,31,-1,-1,33,35,-1,37,-1,39,-1,-1,41,-1,43,45,47,49,-1,51,53,-1,-1,55,57,-1,59,61,63,65,-1,-1,-1,-1,-1,-1,-1,-1,-1,-1,-1,-1,-1,-1,-1,-1,-1,-1,-1,-1],"loss_changes":[6.0818226E1,2.0174618E1,3.6287224E1,0E0,1.8564842E1,2.8850441E1,1.805312E1,0E0,1.0194649E1,1.6799051E1,2.5288414E1,1.9596896E0,1.832626E1,9.526962E0,0E0,1.00386715E1,4.50517E0,2.298705E1,2.2897118E1,0E0,0E0,9.515041E0,7.3283844E0,0E0,8.373047E0,0E0,3.421318E0,0E0,0E0,1.1466574E1,0E0,1.8204567E1,2.2051136E1,1.937027E0,1.1960506E1,0E0,3.12953E0,2.0347443E0,0E0,0E0,1.1007309E0,6.146595E0,0E0,1.2576645E1,1.43344555E1,9.766499E0,1.2261486E1,0E0,0E0,0E0,0E0,0E0,0E0,0E0,0E0,0E0,0E0,0E0,0E0,0E0,0E0,0E0,0E0,0E0,0E0,0E0,0E0],"parents":[2147483647,0,0,1,1,2,2,4,4,5,5,6,6,8,8,9,9,10,10,11,11,12,12,13,13,15,15,16,16,17,17,18,18,21,21,22,22,24,24,26,26,29,29,31,31,32,32,33,33,34,34,36,36,37,37,40,40,41,41,43,43,44,44,45,45,46,46],"right_children":[2,4,6,-1,8,10,12,-1,14,16,18,20,22,24,-1,26,28,30,32,-1,-1,34,36,-1,38,-1,40,-1,-1,42,-1,44,46,48,50,-1,52,54,-1,-1,56,58,-1,60,62,64,66,-1,-1,-1,-1,-1,-1,-1,-1,-1,-1,-1,-1,-1,-1,-1,-1,-1,-1,-1,-1],"split_conditions":[8.404101E-2,7.8531735E-2,1.6007833E-1,-4.6462994E-2,3.0473837E-1,8.7574744E-1,1.1044121E0,-4.4682637E-2,8.137061E-2,1.0153387E-1,8.477334E-2,5.1013404E-1,1.6901705E-1,9.503234E-1,-2.1489272E-2,1.2415465E0,3.2470605E0,6.623677E-1,1.3304609E-1,-5.7084423E-2,-3.532961E-3,6.2290066E-1,3.6778876E-1,-1.1436837E-2,1.2073573E-1,-2.6702946E-2,2.3222477E-3,-5.4023426E-2,1.0478131E-2,4.7454634E-1,-5.4677695E-2,5.68697E-3,1.213882E0,1.081958E-1,4.3258723E-4,3.2389067E-2,1.5217059E0,5.234859E0,-8.975291E-3,4.076401E-3,9.958013E-2,6.253775E-2,-3.0476648E-2,4.299301E-1,4.2778823E-1,1.0507784E-1,1.4957832E-1,7.049354E-2,1.43530015E-2,-3.731706E-2,5.0674867E-2,-6.1107557E-2,-0E0,7.2397344E-2,1.564398E-2,1.7868584E-2,6.972352E-2,-3.800918E-3,6.2629625E-2,-5.7533998E-2,-1.03459535E-2,-3.8765818E-2,5.864204E-2,3.7978884E-2,-2.2912994E-2,-5.024438E-2,1.2078711E-2],"split_indices":[1809,1866,1937,0,1054,722,667,0,1648,143,1660,787,1709,497,0,934,410,975,361,0,0,678,1060,0,463,0,496,0,0,180,0,1403,808,1728,1405,0,606,981,0,0,95,364,0,617,796,1892,1928,0,0,0,0,0,0,0,0,0,0,0,0,0,0,0,0,0,0,0,0],"split_type":[0,0,0,0,0,0,0,0,0,0,0,0,0,0,0,0,0,0,0,0,0,0,0,0,0,0,0,0,0,0,0,0,0,0,0,0,0,0,0,0,0,0,0,0,0,0,0,0,0,0,0,0,0,0,0,0,0,0,0,0,0,0,0,0,0,0,0],"sum_hessian":[3.833015E2,6.8273125E1,3.1502838E2,4.5520954E0,6.372103E1,2.5739444E2,5.763394E1,3.5422647E0,6.017877E1,3.2930645E1,2.2446379E2,7.324075E0,5.0309864E1,5.7101147E1,3.0776205E0,2.4438572E1,8.492073E0,3.216247E1,1.9230132E2,4.309861E0,3.0142138E0,3.9285843E1,1.1024023E1,3.7004738E0,5.3400673E1,3.0625455E0,2.1376026E1,5.236383E0,3.2556896E0,2.5052788E1,7.109683E0,1.2567446E2,6.662686E1,2.7762144E1,1.1523698E1,3.1340683E0,7.889955E0,5.0356148E1,3.0445273E0,3.284565E0,1.8091461E1,2.127116E1,3.7816281E0,1.1444514E2,1.1229319E1,3.0276457E1,3.6350403E1,2.4633942E1,3.128203E0,5.390179E0,6.1335187E0,4.7981086E0,3.0918465E0,4.7174026E1,3.182119E0,3.1850839E0,1.4906378E1,3.8028195E0,1.746834E1,9.649027E1,1.7954865E1,5.2516522E0,5.977666E0,2.2954514E1,7.3219433E0,2.6525425E1,9.824978E0],"tree_param":{"num_deleted":"0","num_feature":"1998","num_nodes":"67","size_leaf_vector":"1"}},{"base_weights":[1.6870834E-2,1.9780779E-1,-7.99191E-1,-1.1564331E-1,5.7341933E-1,1.2837052E-1,-1.1691519E0,1.17444284E-1,-8.6603487E-1,1.1989526E0,1.965146E-1,9.016135E-1,-8.484813E-1,7.1564624E-3,-1.2759928E0,-7.3213685E-1,4.0930364E-1,-1.0439016E0,2.4046874E-2,1.3225908E0,-2.1037448E-2,-6.4791936E-1,4.9099052E-1,6.3559785E-2,-2.999415E-3,-5.7644017E-2,-1.6083446E-3,-1.3578942E0,-7.27487E-3,-1.1469826E0,2.5829855E-1,5.9314364E-1,-5.3541064E-1,-5.0671224E-2,-1.3313879E0,7.2446354E-2,-1.4311378E-2,4.0775273E-2,-9.44345E-1,-5.1207036E-1,7.879222E-1,-7.083075E-2,-1.6700553E-2,2.8161297E-3,-1.3673954E0,-3.934157E-2,4.7686927E-2,-4.119249E-2,7.0414907E-1,-9.769602E-1,3.82869E-2,3.2169733E-2,-4.3933727E-2,-7.0909925E-2,-1.7059844E-2,2.4472803E-2,-6.664028E-2,1.9388983E-2,-9.8342896E-1,1.1287422E0,1.03252515E-1,-7.381257E-2,-2.248711E-2,4.000656E-2,-3.6336448E-2,-6.371656E-2,-0E0,-3.98204E-2,4.2945314E-2,-5.948619E-2,-1.0499198E-2,6.424277E-2,-9.414481E-3,-3.2544754E-2,4.8262425E-2],"categories":[],"categories_nodes":[],"categories_segments":[],"categories_sizes":[],"default_left":[0,0,0,0,0,0,0,0,0,0,0,0,0,0,0,0,0,0,0,0,0,0,0,0,0,0,0,0,0,0,0,0,0,0,0,0,0,0,0,0,0,0,0,0,0,0,0,0,0,0,0,0,0,0,0,0,0,0,0,0,0,0,0,0,0,0,0,0,0,0,0,0,0,0,0],"id":11,"left_children":[1,3,5,7,9,11,13,15,17,19,21,23,25,-1,27,29,31,33,-1,35,-1,37,39,-1,-1,-1,-1,41,-1,43,45,47,49,51,53,-1,-1,-1,55,57,59,-1,-1,-1,61,-1,-1,-1,63,65,-1,-1,-1,-1,-1,67,-1,-1,69,71,73,-1,-1,-1,-1,-1,-1,-1,-1,-1,-1,-1,-1,-1,-1],"loss_changes":[5.6715157E1,3.7227562E1,2.4319046E1,3.054647E1,3.3251717E1,1.78474E1,7.5019913E0,3.3718674E1,1.0968203E1,1.1918961E1,2.3526857E1,4.922431E0,2.4200926E0,0E0,3.7687073E0,1.4986288E1,1.8161907E1,1.0356709E1,0E0,1.1160233E1,0E0,1.2221097E1,2.1541843E1,0E0,0E0,0E0,0E0,1.4713974E0,0E0,6.9095078E0,1.0122371E1,1.45948105E1,1.1511837E1,7.196304E0,1.3244743E0,0E0,0E0,0E0,8.2625065E0,8.039414E0,1.2363426E1,0E0,0E0,0E0,6.031494E-1,0E0,0E0,0E0,1.2215088E1,4.0933285E0,0E0,0E0,0E0,0E0,0E0,6.870972E0,0E0,0E0,1.2439394E0,8.014729E0,1.4559209E1,0E0,0E0,0E0,0E0,0E0,0E0,0E0,0E0,0E0,0E0,0E0,0E0,0E0,0E0],"parents":[2147483647,0,0,1,1,2,2,3,3,4,4,5,5,6,6,7,7,8,8,9,9,10,10,11,11,12,12,14,14,15,15,16,16,17,17,19,19,21,21,22,22,27,27,29,29,30,30,31,31,32,32,33,33,34,34,38,38,39,39,40,40,44,44,48,48,49,49,55,55,58,58,59,59,60,60],"right_children":[2,4,6,8,10,12,14,16,18,20,22,24,26,-1,28,30,32,34,-1,36,-1,38,40,-1,-1,-1,-1,42,-1,44,46,48,50,52,54,-1,-1,-1,56,58,60,-1,-1,-1,62,-1,-1,-1,64,66,-1,-1,-1,-1,-1,68,-1,-1,70,72,74,-1,-1,-1,-1,-1,-1,-1,-1,-1,-1,-1,-1,-1,-1],"split_conditions":[7.542995E-2,2.8519627E-1,6.98276E-2,6.325692E-1,1.0987348E-2,1.6516885E-1,6.9897294E-2,1.1838293E-1,4.367352E-1,2.275429E-1,6.43031E-2,1.2860229E0,7.158674E-1,7.1564624E-3,6.0513884E-1,7.263154E-1,4.1456667E-1,1.02212E0,2.4046874E-2,4.464827E-2,-2.1037448E-2,1.9894128E-1,6.155097E-1,6.3559785E-2,-2.999415E-3,-5.7644017E-2,-1.6083446E-3,8.757849E-2,-7.27487E-3,3.217619E-2,8.1278306E-1,8.215994E-2,4.5475256E-1,1.0622861E0,2.055368E-1,7.2446354E-2,-1.4311378E-2,4.0775273E-2,8.353412E-2,1.0058301E-1,3.0361035E-1,-7.083075E-2,-1.6700553E-2,2.8161297E-3,1.7510814E-3,-3.934157E-2,4.7686927E-2,-4.119249E-2,6.3900214E-1,7.600561E-2,3.82869E-2,3.2169733E-2,-4.3933727E-2,-7.0909925E-2,-1.7059844E-2,4.5366585E-1,-6.664028E-2,1.9388983E-2,1.9015689E-1,9.330658E-2,3.6846852E-1,-7.381257E-2,-2.248711E-2,4.000656E-2,-3.6336448E-2,-6.371656E-2,-0E0,-3.98204E-2,4.2945314E-2,-5.948619E-2,-1.0499198E-2,6.424277E-2,-9.414481E-3,-3.2544754E-2,4.8262425E-2],"split_indices":[1678,1642,1816,975,1632,250,114,1603,359,1735,1740,711,768,0,248,387,1050,784,0,1544,0,212,677,0,0,0,0,454,0,365,963,1718,359,869,210,0,0,0,297,1660,159,0,0,0,1612,0,0,0,771,1616,0,0,0,0,0,230,0,0,1668,1961,118,0,0,0,0,0,0,0,0,0,0,0,0,0,0],"split_type":[0,0,0,0,0,0,0,0,0,0,0,0,0,0,0,0,0,0,0,0,0,0,0,0,0,0,0,0,0,0,0,0,0,0,0,0,0,0,0,0,0,0,0,0,0,0,0,0,0,0,0,0,0,0,0,0,0,0,0,0,0,0,0,0,0,0,0,0,0,0,0,0,0,0,0],"sum_hessian":[3.8036996E2,3.1268033E2,6.768963E1,1.7105307E2,1.4162727E2,1.9595575E1,4.8094055E1,1.3169844E2,3.9354626E1,5.1510315E1,9.011695E1,1.10808E1,8.514775E0,3.4992282E0,4.4594826E1,3.2815434E1,9.888301E1,3.522715E1,4.1274753E0,4.8255394E1,3.2549186E0,2.2592115E1,6.752483E1,7.614371E0,3.4664285E0,5.512205E0,3.0025702E0,4.112469E1,3.4701357E0,2.2976524E1,9.83891E0,8.3486755E1,1.5396255E1,8.5137005E0,2.671345E1,4.498386E1,3.2715366E0,3.158634E0,1.9433481E1,1.501546E1,5.2509377E1,3.807618E1,3.0485117E0,3.717382E0,1.9259144E1,3.768644E0,6.070266E0,5.0666237E0,7.842013E1,1.1924723E1,3.4715319E0,4.808316E0,3.7053847E0,2.3672575E1,3.0408752E0,6.024643E0,1.3408838E1,5.210603E0,9.804857E0,3.4094376E1,1.8415E1,1.603105E1,3.228093E0,7.438215E1,4.0379834E0,8.704835E0,3.2198882E0,3.0225165E0,3.0021262E0,6.7884955E0,3.0163612E0,3.059287E1,3.5015059E0,1.0021299E1,8.393702E0],"tree_param":{"num_deleted":"0","num_feature":"1998","num_nodes":"75","size_leaf_vector":"1"}},{"base_weights":[-1.5087883E-2,-2.3781945E-1,6.7211723E-1,1.5181324E-1,-5.1379704E-1,9.7805136E-1,-1.9939624E-1,5.035601E-1,-6.0227275E-1,-6.456385E-1,3.0897424E-1,1.1268026E0,-3.1102909E-2,-9.0488666E-1,6.2757474E-1,6.759184E-1,-7.304258E-1,5.717745E-1,-9.542832E-1,-8.238285E-1,5.6680422E-2,-5.182406E-1,1.0084673E0,1.2477727E0,-1.490479E-2,6.783823E-4,-5.8412235E-2,5.296986E-2,-1.3537397E-2,-2.3717467E-1,8.5504884E-1,1.4058962E-2,-6.152431E-2,-1.8658217E-2,5.4496493E-2,-5.0594895E-3,-1.2943351E0,-1.1601527E0,-3.053071E-1,8.344591E-1,-6.933877E-1,2.1997096E-2,-5.1236387E-2,6.3210824E-3,6.410775E-2,1.3504407E0,3.962712E-3,3.3996284E-2,-4.479247E-2,-7.394053E-2,1.0057722E0,3.1050378E-2,-3.9129477E-2,-7.098549E-2,-2.1745494E-2,1.7186276E-5,-1.2427237E0,-8.030072E-1,3.6339855E-1,1.2173866E0,-2.0750778E-2,1.7127525E-2,-5.729696E-2,1.2306898E-2,1.4057438E0,3.3622105E-2,-3.8927626E-2,5.5606883E-2,-7.929447E-3,-1.0579218E-4,-6.507848E-2,3.3760562E-3,-6.2108852E-2,4.726371E-2,-4.0639874E-2,6.914624E-2,1.9357082E-2,2.2068102E-2,7.2264485E-2],"categories":[],"categories_nodes":[],"categories_segments":[],"categories_sizes":[],"default_left":[0,0,0,0,0,0,0,0,0,0,0,0,0,0,0,0,0,0,0,0,0,0,0,0,0,0,0,0,0,0,0,0,0,0,0,0,0,0,0,0,0,0,0,0,0,0,0,0,0,0,0,0,0,0,0,0,0,0,0,0,0,0,0,0,0,0,0,0,0,0,0,0,0,0,0,0,0,0,0],"id":12,"left_children":[1,3,5,7,9,11,13,15,17,19,21,23,-1,25,27,29,31,33,35,37,39,41,43,45,-1,-1,-1,-1,-1,47,49,-1,-1,-1,-1,51,53,55,57,59,61,-1,-1,-1,-1,63,-1,-1,-1,65,67,-1,-1,-1,-1,-1,69,71,73,75,-1,-1,-1,-1,77,-1,-1,-1,-1,-1,-1,-1,-1,-1,-1,-1,-1,-1,-1],"loss_changes":[5.8129135E1,3.1057417E1,2.5245708E1,3.253419E1,1.872506E1,1.7925255E1,1.6170517E1,1.8696056E1,1.7296738E1,1.8453262E1,1.5292537E1,1.1886177E1,0E0,3.7185774E0,5.6789136E0,1.2601986E1,6.4007688E0,5.883559E0,9.834543E0,1.950895E1,1.9444769E1,7.02551E0,2.9241943E0,6.784218E0,0E0,0E0,0E0,0E0,0E0,9.480296E0,8.999878E0,0E0,0E0,0E0,0E0,5.972001E0,1.0226173E0,6.8325653E0,1.6859938E1,8.913775E0,8.822372E0,0E0,0E0,0E0,0E0,2.472084E0,0E0,0E0,0E0,6.5806866E0,7.141567E0,0E0,0E0,0E0,0E0,0E0,4.6408005E0,1.1246248E1,1.6676722E1,5.505562E-1,0E0,0E0,0E0,0E0,4.9595642E-1,0E0,0E0,0E0,0E0,0E0,0E0,0E0,0E0,0E0,0E0,0E0,0E0,0E0,0E0],"parents":[2147483647,0,0,1,1,2,2,3,3,4,4,5,5,6,6,7,7,8,8,9,9,10,10,11,11,13,13,14,14,15,15,16,16,17,17,18,18,19,19,20,20,21,21,22,22,23,23,29,29,30,30,35,35,36,36,37,37,38,38,39,39,40,40,45,45,49,49,50,50,56,56,57,57,58,58,59,59,64,64],"right_children":[2,4,6,8,10,12,14,16,18,20,22,24,-1,26,28,30,32,34,36,38,40,42,44,46,-1,-1,-1,-1,-1,48,50,-1,-1,-1,-1,52,54,56,58,60,62,-1,-1,-1,-1,64,-1,-1,-1,66,68,-1,-1,-1,-1,-1,70,72,74,76,-1,-1,-1,-1,78,-1,-1,-1,-1,-1,-1,-1,-1,-1,-1,-1,-1,-1,-1],"split_conditions":[1.6007833E-1,2.7476743E-2,1.9498688E-1,9.3909785E-2,3.4931025E-1,7.670807E-2,1.5322157E0,7.062623E-2,1.0827068E-1,3.180751E-2,5.24844E-2,4.240215E-3,-3.1102909E-2,1.6272229E-1,1.1123206E-2,2.0812705E-1,5.459037E-2,1.8855605E-2,4.2789263E-1,1.5940891E-1,1.8821637E-1,4.6897534E-2,3.1935352E-1,1.3752259E0,-1.490479E-2,6.783823E-4,-5.8412235E-2,5.296986E-2,-1.3537397E-2,2.642625E-1,3.0467453E0,1.4058962E-2,-6.152431E-2,-1.8658217E-2,5.4496493E-2,9.678442E-4,4.8215836E-2,3.6290225E-1,8.5973024E-2,2.7017045E-1,1.7849508E-1,2.1997096E-2,-5.1236387E-2,6.3210824E-3,6.410775E-2,3.562008E-1,3.962712E-3,3.3996284E-2,-4.479247E-2,6.7987233E-1,5.776536E-1,3.1050378E-2,-3.9129477E-2,-7.098549E-2,-2.1745494E-2,1.7186276E-5,6.839388E-2,1.2191282E-1,9.6759975E-2,1.8081223E0,-2.0750778E-2,1.7127525E-2,-5.729696E-2,1.2306898E-2,1.126545E-1,3.3622105E-2,-3.8927626E-2,5.5606883E-2,-7.929447E-3,-1.0579218E-4,-6.507848E-2,3.3760562E-3,-6.2108852E-2,4.726371E-2,-4.0639874E-2,6.914624E-2,1.9357082E-2,2.2068102E-2,7.2264485E-2],"split_indices":[1937,1636,306,1804,188,1689,497,1,406,1837,182,1413,0,1762,1632,1662,186,64,51,1902,943,1802,366,712,0,0,0,0,0,48,927,0,0,0,0,1200,445,1606,1707,342,1721,0,0,0,0,491,0,0,0,586,1032,0,0,0,0,0,1728,1727,1654,913,0,0,0,0,1603,0,0,0,0,0,0,0,0,0,0,0,0,0,0],"split_type":[0,0,0,0,0,0,0,0,0,0,0,0,0,0,0,0,0,0,0,0,0,0,0,0,0,0,0,0,0,0,0,0,0,0,0,0,0,0,0,0,0,0,0,0,0,0,0,0,0,0,0,0,0,0,0,0,0,0,0,0,0,0,0,0,0,0,0,0,0,0,0,0,0,0,0,0,0,0,0],"sum_hessian":[3.7596954E2,2.8503848E2,9.093106E1,1.1840646E2,1.6663202E2,6.720857E1,2.3722492E1,8.128688E1,3.7119583E1,1.4409435E2,2.2537668E1,6.2090534E1,5.118039E0,1.2765073E1,1.0957418E1,7.21893E1,9.097582E0,8.208701E0,2.8910881E1,1.1477131E2,2.9323036E1,1.0498045E1,1.2039623E1,5.7525555E1,4.564977E0,3.18271E0,9.582363E0,7.233157E0,3.7242618E0,1.16415825E1,6.0547718E1,3.2329266E0,5.8646555E0,3.036964E0,5.171737E0,8.238288E0,2.0672592E1,6.799839E1,4.677292E1,1.4350582E1,1.4972454E1,3.6528478E0,6.845197E0,3.630003E0,8.40962E0,5.2514587E1,5.010969E0,4.775754E0,6.865829E0,8.50182E0,5.20459E1,4.7154284E0,3.5228598E0,1.6801363E1,3.87123E0,4.5686617E0,6.342973E1,2.6670574E1,2.0102343E1,1.1084808E1,3.2657735E0,4.6327553E0,1.0339698E1,3.1106303E0,4.9403957E1,4.1039596E0,4.3978596E0,4.7850315E1,4.195582E0,3.0432012E0,6.0386528E1,9.434394E0,1.7236181E1,1.3768573E1,6.3337693E0,8.031616E0,3.0531929E0,3.0037396E0,4.6400215E1],"tree_param":{"num_deleted":"0","num_feature":"1998","num_nodes":"79","size_leaf_vector":"1"}},{"base_weights":[1.0444605E-2,6.752254E-1,-2.2367582E-1,-4.6201524E-1,8.736592E-1,-3.439896E-1,4.951362E-1,-5.2877612E-2,3.159782E-2,1.0612617E0,-2.9857248E-1,-5.562041E-1,1.7105001E-1,7.894277E-1,-3.9764803E-2,-8.193324E-3,1.1734899E0,-5.2094053E-2,3.40936E-2,-7.09784E-1,1.07175894E-1,8.371497E-1,-1.9673513E-1,1.1768134E0,-1.9892322E-2,1.2001314E-1,1.2908051E0,-9.3226993E-1,-1.9774722E-1,-9.037786E-1,6.0351276E-1,-2.9278046E-2,1.1140257E0,-9.1858524E-1,3.1272128E-1,6.8869136E-2,1.236664E-3,4.2665504E-2,-4.2951163E-2,-4.3978076E-2,4.9943265E-2,-6.08836E-3,6.866603E-2,3.0939588E-2,-1.0116104E0,-5.311605E-1,1.0416974E0,-0E0,-6.255353E-2,-6.612518E-2,1.1478997E0,-1.12545E-2,6.744449E-2,-1.2055042E0,1.8739657E-2,7.8233033E-1,-3.234138E-1,-5.4274924E-2,1.5012051E-2,-5.1106095E-2,9.6754385E-3,1.6595295E-2,6.208862E-2,-3.2999832E-2,4.4197243E-2,6.716151E-2,1.3169112E-2,-6.781017E-2,-1.4113687E-2,-3.2989164E-3,5.531929E-2,2.9749367E-2,-4.324815E-2],"categories":[],"categories_nodes":[],"categories_segments":[],"categories_sizes":[],"default_left":[0,0,0,0,0,0,0,0,0,0,0,0,0,0,0,0,0,0,0,0,0,0,0,0,0,0,0,0,0,0,0,0,0,0,0,0,0,0,0,0,0,0,0,0,0,0,0,0,0,0,0,0,0,0,0,0,0,0,0,0,0,0,0,0,0,0,0,0,0,0,0,0,0],"id":13,"left_children":[1,3,5,7,9,11,13,-1,-1,15,17,19,21,23,-1,-1,25,-1,-1,27,29,31,33,35,37,39,41,43,45,47,49,-1,51,53,55,-1,-1,-1,-1,-1,-1,-1,-1,-1,57,59,61,-1,-1,63,65,-1,-1,67,-1,69,71,-1,-1,-1,-1,-1,-1,-1,-1,-1,-1,-1,-1,-1,-1,-1,-1],"loss_changes":[5.8986618E1,2.3130432E1,2.454317E1,1.1739593E1,1.9366562E1,2.658913E1,1.6768803E1,0E0,0E0,1.0611267E1,1.1070309E1,1.7675827E1,1.7975279E1,1.0926123E1,0E0,0E0,7.926483E0,0E0,0E0,1.5418289E1,1.8040005E1,1.1602209E1,1.8199125E1,5.1837006E0,1.0989669E1,9.747858E0,7.5349655E0,1.3181503E1,1.9631144E1,3.6716557E0,8.994848E0,0E0,7.80192E0,8.53857E0,9.337821E0,0E0,0E0,0E0,0E0,0E0,0E0,0E0,0E0,0E0,9.719528E0,1.3574846E1,4.5837688E-1,0E0,0E0,8.227192E0,1.4483032E0,0E0,0E0,1.4625816E0,0E0,5.08694E0,7.9273796E0,0E0,0E0,0E0,0E0,0E0,0E0,0E0,0E0,0E0,0E0,0E0,0E0,0E0,0E0,0E0,0E0],"parents":[2147483647,0,0,1,1,2,2,3,3,4,4,5,5,6,6,9,9,10,10,11,11,12,12,13,13,16,16,19,19,20,20,21,21,22,22,23,23,24,24,25,25,26,26,27,27,28,28,29,29,30,30,32,32,33,33,34,34,44,44,45,45,46,46,49,49,50,50,53,53,55,55,56,56],"right_children":[2,4,6,8,10,12,14,-1,-1,16,18,20,22,24,-1,-1,26,-1,-1,28,30,32,34,36,38,40,42,44,46,48,50,-1,52,54,56,-1,-1,-1,-1,-1,-1,-1,-1,-1,58,60,62,-1,-1,64,66,-1,-1,68,-1,70,72,-1,-1,-1,-1,-1,-1,-1,-1,-1,-1,-1,-1,-1,-1,-1,-1],"split_conditions":[4.0326633E-2,8.686183E-1,3.6364943E-2,7.19607E-2,2.1172999E-1,1.4693104E-1,1.1505808E0,-5.2877612E-2,3.159782E-2,4.832536E-2,6.1972726E-2,3.979437E-2,2.6458392E-1,6.212021E-1,-3.9764803E-2,-8.193324E-3,5.256987E-1,-5.2094053E-2,3.40936E-2,1.6726093E-1,9.695199E-2,1.1191506E0,1.4452324E0,8.7171905E-2,3.1140737E-2,7.562377E-1,7.389648E-1,1.315167E0,2.3592055E0,1.4015665E0,4.4113198E-1,-2.9278046E-2,3.806762E-1,2.649173E-1,9.799284E-1,6.8869136E-2,1.236664E-3,4.2665504E-2,-4.2951163E-2,-4.3978076E-2,4.9943265E-2,-6.08836E-3,6.866603E-2,3.0939588E-2,4.3749472E-1,3.9052963E-3,3.5133764E-1,-0E0,-6.255353E-2,2.0467478E-1,5.311944E-1,-1.12545E-2,6.744449E-2,2.3991327E-1,1.8739657E-2,1.2248345E-2,1.361703E-1,-5.4274924E-2,1.5012051E-2,-5.1106095E-2,9.6754385E-3,1.6595295E-2,6.208862E-2,-3.2999832E-2,4.4197243E-2,6.716151E-2,1.3169112E-2,-6.781017E-2,-1.4113687E-2,-3.2989164E-3,5.531929E-2,2.9749367E-2,-4.324815E-2],"split_indices":[1648,623,1837,205,1693,1937,654,0,0,467,1654,1371,356,50,0,0,390,0,0,471,1622,684,497,1640,1276,9,517,805,937,541,249,0,403,200,962,0,0,0,0,0,0,0,0,0,337,1374,141,0,0,302,919,0,0,1623,0,1,1778,0,0,0,0,0,0,0,0,0,0,0,0,0,0,0,0],"split_type":[0,0,0,0,0,0,0,0,0,0,0,0,0,0,0,0,0,0,0,0,0,0,0,0,0,0,0,0,0,0,0,0,0,0,0,0,0,0,0,0,0,0,0,0,0,0,0,0,0,0,0,0,0,0,0,0,0,0,0,0,0,0,0,0,0,0,0,0,0,0,0,0,0],"sum_hessian":[3.7476605E2,9.6738304E1,2.7802774E2,1.3902335E1,8.283597E1,2.3917668E2,3.8851063E1,9.104185E0,4.79815E0,7.164469E1,1.1191282E1,1.6940866E2,6.976803E1,3.233161E1,6.51945E0,5.8602834E0,6.578441E1,6.3521614E0,4.839121E0,1.3757042E2,3.1838238E1,2.4007427E1,4.5760597E1,2.1334932E1,1.0996679E1,7.0825253E0,5.870188E1,9.462014E1,4.295028E1,9.877061E0,2.1961178E1,3.4889145E0,2.0518513E1,1.8350243E1,2.7410357E1,1.7764355E1,3.5705783E0,5.313975E0,5.682705E0,3.2596817E0,3.8228436E0,3.1204307E0,5.5581448E1,3.8814392E0,9.07387E1,3.480992E1,8.140357E0,3.3329663E0,6.5440946E0,1.0553246E1,1.1407932E1,3.01059E0,1.7507923E1,1.5193062E1,3.1571805E0,1.5595199E1,1.1815158E1,8.629933E1,4.4393616E0,2.0343987E1,1.4465935E1,3.0692902E0,5.071067E0,6.934504E0,3.618741E0,8.402194E0,3.0057383E0,1.2161647E1,3.031415E0,4.665671E0,1.0929528E1,4.2409754E0,7.5741825E0],"tree_param":{"num_deleted":"0","num_feature":"1998","num_nodes":"73","size_leaf_vector":"1"}},{"base_weights":[-1.4079733E-2,7.8136E-1,-1.986267E-1,-4.7582474E-2,9.272002E-1,-9.516297E-1,-7.69985E-2,-3.0575452E-2,1.0304468E0,-1.2089506E0,7.0160545E-2,5.1924016E-2,-8.5361594E-1,-1.0169397E-2,1.1565858E0,-4.827087E-3,-6.6923015E-2,4.4115882E-2,-3.11649E-2,2.579338E-1,-5.674964E-1,3.596745E-2,-1.077913E0,-2.6850782E-3,1.2306798E0,-1.940276E-1,5.6462276E-1,-1.1509612E-1,-1.1265858E0,1.45691605E-2,-1.2395664E0,1.3004485E0,1.5554476E-2,4.5638943E-1,-5.514744E-1,-1.0485124E-1,8.0762726E-1,-5.120777E-1,6.535755E-1,-6.382625E-2,-1.4020813E-3,-6.6520296E-2,-1.6325131E-2,6.7050084E-2,1.9887466E-2,-2.8076176E-2,5.7772513E-2,-7.262607E-3,-5.8288734E-2,3.293119E-2,-3.3808548E-2,4.8887733E-2,-8.560697E-3,2.1030195E-2,-4.8143677E-2,-1.6769646E-2,5.405395E-2],"categories":[],"categories_nodes":[],"categories_segments":[],"categories_sizes":[],"default_left":[0,0,0,0,0,0,0,0,0,0,0,0,0,0,0,0,0,0,0,0,0,0,0,0,0,0,0,0,0,0,0,0,0,0,0,0,0,0,0,0,0,0,0,0,0,0,0,0,0,0,0,0,0,0,0,0,0],"id":14,"left_children":[1,3,5,-1,7,9,11,-1,13,15,17,19,21,-1,23,-1,-1,-1,-1,25,27,-1,29,-1,31,33,35,37,39,-1,41,43,-1,45,47,49,51,53,55,-1,-1,-1,-1,-1,-1,-1,-1,-1,-1,-1,-1,-1,-1,-1,-1,-1,-1],"loss_changes":[5.4456383E1,1.9413517E1,2.735566E1,0E0,1.1705357E1,1.1227741E1,2.6379725E1,0E0,1.024192E1,4.415489E0,6.862391E0,2.9137918E1,1.4815592E1,0E0,5.3414536E0,0E0,0E0,0E0,0E0,2.4001583E1,1.4028826E1,0E0,8.270649E0,0E0,2.472763E0,1.6928825E1,1.6947357E1,1.0975953E1,3.942007E0,0E0,1.5005074E0,5.5859375E-1,0E0,1.9884716E1,1.1151952E1,1.3546616E1,1.30197525E1,1.0749204E1,6.0048676E0,0E0,0E0,0E0,0E0,0E0,0E0,0E0,0E0,0E0,0E0,0E0,0E0,0E0,0E0,0E0,0E0,0E0,0E0],"parents":[2147483647,0,0,1,1,2,2,4,4,5,5,6,6,8,8,9,9,10,10,11,11,12,12,14,14,19,19,20,20,22,22,24,24,25,25,26,26,27,27,28,28,30,30,31,31,33,33,34,34,35,35,36,36,37,37,38,38],"right_children":[2,4,6,-1,8,10,12,-1,14,16,18,20,22,-1,24,-1,-1,-1,-1,26,28,-1,30,-1,32,34,36,38,40,-1,42,44,-1,46,48,50,52,54,56,-1,-1,-1,-1,-1,-1,-1,-1,-1,-1,-1,-1,-1,-1,-1,-1,-1,-1],"split_conditions":[8.404101E-2,1.3671033E0,1.066486E-1,-4.7582474E-2,2.1118559E-2,6.3781045E-2,8.040514E-2,-3.0575452E-2,5.2402914E-2,2.3591502E-1,1.8322318E0,6.190741E-2,9.2964195E-2,-1.0169397E-2,7.272141E-2,-4.827087E-3,-6.6923015E-2,4.4115882E-2,-3.11649E-2,1.4514282E-1,1.6548468E-1,3.596745E-2,3.2607925E-1,-2.6850782E-3,1.523783E-1,8.717082E-1,8.21761E-1,5.886155E-1,7.334407E-2,1.45691605E-2,1.4235947E-1,3.546725E-1,1.5554476E-2,3.1042964E0,2.2148485E-1,1.519882E-2,2.1940303E-1,1.3868494E-2,8.810571E-2,-6.382625E-2,-1.4020813E-3,-6.6520296E-2,-1.6325131E-2,6.7050084E-2,1.9887466E-2,-2.8076176E-2,5.7772513E-2,-7.262607E-3,-5.8288734E-2,3.293119E-2,-3.3808548E-2,4.8887733E-2,-8.560697E-3,2.1030195E-2,-4.8143677E-2,-1.6769646E-2,5.405395E-2],"split_indices":[1809,764,1954,0,1910,1514,1875,0,489,305,417,463,1739,0,1895,0,0,0,0,1928,1709,0,1037,0,1664,554,436,131,1685,0,1801,35,0,410,226,457,328,1632,1812,0,0,0,0,0,0,0,0,0,0,0,0,0,0,0,0,0,0],"split_type":[0,0,0,0,0,0,0,0,0,0,0,0,0,0,0,0,0,0,0,0,0,0,0,0,0,0,0,0,0,0,0,0,0,0,0,0,0,0,0,0,0,0,0,0,0,0,0,0,0,0,0,0,0,0,0,0,0],"sum_hessian":[3.6724896E2,6.783874E1,2.9941022E2,4.3547926E0,6.348394E1,3.9624382E1,2.5978586E2,3.311889E0,6.017205E1,3.1438614E1,8.185766E0,2.2429005E2,3.5495792E1,5.393889E0,5.4778164E1,3.723032E0,2.7715582E1,3.5857565E0,4.6000094E0,1.6930907E2,5.4980988E1,3.8233147E0,3.1672478E1,3.1139617E0,5.16642E1,6.86094E1,1.0069967E2,3.1822031E1,2.3158957E1,3.1095104E0,2.8562967E1,4.71499E1,4.5143027E0,2.40373E1,4.4572098E1,2.7010809E1,7.368886E1,2.1510584E1,1.0311448E1,2.0012423E1,3.1465344E0,2.5047363E1,3.5156047E0,4.4087433E1,3.0624669E0,9.888682E0,1.4148618E1,2.8416576E1,1.6155521E1,1.13554535E1,1.56553545E1,6.2866703E1,1.0822159E1,6.9804287E0,1.4530155E1,3.1715431E0,7.1399045E0],"tree_param":{"num_deleted":"0","num_feature":"1998","num_nodes":"57","size_leaf_vector":"1"}},{"base_weights":[-2.6569268E-2,-2.2957906E-1,5.854643E-1,-7.839733E-2,-9.117427E-1,-5.273106E-1,7.6940405E-1,2.6268327E-1,-3.2563758E-1,1.1646386E-1,-1.266324E0,2.0936279E-2,-5.8852684E-2,9.333589E-1,-1.476724E-1,7.006496E-1,-1.3259976E-1,-1.9358687E-1,-1.1533098E0,4.894844E-2,-4.4653952E-2,-6.7387156E-2,-1.2796852E-2,1.1328754E0,1.5114449E-1,-7.888566E-1,4.3588288E-2,-2.670585E-1,9.2868304E-1,-5.6681055E-1,4.999929E-1,5.026755E-1,-4.26479E-1,-6.9175735E-2,-2.7559785E-4,1.2398002E0,-9.753428E-3,-3.661377E-2,8.060094E-1,-5.572111E-2,-3.2317415E-3,3.2180212E-2,-4.2103108E-2,1.0941453E0,-1.656514E-2,-1.082557E0,3.5083604E-1,9.0883E-1,-3.2864604E-2,-1.10894874E-1,1.072813E0,1.5722124E-1,-7.3330915E-1,1.0292503E-2,1.3027377E0,1.2217488E-3,5.5657335E-2,6.1928052E-2,-3.5369233E-3,-6.399881E-2,5.786055E-4,4.5717787E-2,-3.5006262E-2,-0E0,5.5450566E-2,2.8041458E-2,-3.8886826E-2,-2.0343938E-3,6.720091E-2,-1.7772082E-2,4.530492E-2,-4.7005806E-2,2.2333426E-2,6.7777336E-2,2.2620602E-2],"categories":[],"categories_nodes":[],"categories_segments":[],"categories_sizes":[],"default_left":[0,0,0,0,0,0,0,0,0,0,0,0,0,0,0,0,0,0,0,0,0,0,0,0,0,0,0,0,0,0,0,0,0,0,0,0,0,0,0,0,0,0,0,0,0,0,0,0,0,0,0,0,0,0,0,0,0,0,0,0,0,0,0,0,0,0,0,0,0,0,0,0,0,0,0],"id":15,"left_children":[1,3,5,7,9,11,13,15,17,19,21,-1,-1,23,25,27,29,31,33,-1,-1,-1,-1,35,37,39,-1,41,43,45,47,49,51,-1,-1,53,-1,-1,55,-1,-1,-1,-1,57,-1,59,61,63,-1,65,67,69,71,-1,73,-1,-1,-1,-1,-1,-1,-1,-1,-1,-1,-1,-1,-1,-1,-1,-1,-1,-1,-1,-1],"loss_changes":[4.6083813E1,2.8497055E1,1.9739428E1,1.9608421E1,1.8728844E1,9.79639E0,1.2404892E1,1.716869E1,1.4135257E1,1.4507896E1,2.243122E0,0E0,0E0,1.0197128E1,1.0380661E1,1.0893793E1,1.5118004E1,1.9657536E1,4.6070213E0,0E0,0E0,0E0,0E0,8.263367E0,1.0618719E1,1.9957485E0,0E0,6.548686E0,8.811287E0,1.6181015E1,1.1875523E1,1.1019374E1,1.6422197E1,0E0,0E0,2.5904617E0,0E0,0E0,2.323327E0,0E0,0E0,0E0,0E0,6.095211E0,0E0,4.7617855E0,9.065563E0,3.2919273E0,0E0,8.258198E0,5.1031246E0,1.3204791E1,1.541177E1,0E0,7.0370483E-1,0E0,0E0,0E0,0E0,0E0,0E0,0E0,0E0,0E0,0E0,0E0,0E0,0E0,0E0,0E0,0E0,0E0,0E0,0E0,0E0],"parents":[2147483647,0,0,1,1,2,2,3,3,4,4,5,5,6,6,7,7,8,8,9,9,10,10,13,13,14,14,15,15,16,16,17,17,18,18,23,23,24,24,25,25,27,27,28,28,29,29,30,30,31,31,32,32,35,35,38,38,43,43,45,45,46,46,47,47,49,49,50,50,51,51,52,52,54,54],"right_children":[2,4,6,8,10,12,14,16,18,20,22,-1,-1,24,26,28,30,32,34,-1,-1,-1,-1,36,38,40,-1,42,44,46,48,50,52,-1,-1,54,-1,-1,56,-1,-1,-1,-1,58,-1,60,62,64,-1,66,68,70,72,-1,74,-1,-1,-1,-1,-1,-1,-1,-1,-1,-1,-1,-1,-1,-1,-1,-1,-1,-1,-1,-1],"split_conditions":[1.586083E-1,7.835543E-2,2.9771873E-1,1.3923788E-1,8.483772E-1,3.3444818E-2,4.234286E-1,4.455969E-1,2.8461772E-1,6.18062E-1,7.692353E-1,2.0936279E-2,-5.8852684E-2,3.8108725E-2,1.197689E0,1.3177415E0,2.0430604E-1,9.113474E-2,4.8300445E-2,4.894844E-2,-4.4653952E-2,-6.7387156E-2,-1.2796852E-2,1.3974457E0,1.2325772E0,2.8766093E-1,4.3588288E-2,9.9655E-1,1.8475418E-1,1.6052835E-1,1.6259897E-1,3.483193E-2,5.050439E-2,-6.9175735E-2,-2.7559785E-4,1.6190061E-2,-9.753428E-3,-3.661377E-2,1.5267187E-1,-5.572111E-2,-3.2317415E-3,3.2180212E-2,-4.2103108E-2,9.5169383E-1,-1.656514E-2,1.0636166E-1,5.5150247E-1,1.3115887E-1,-3.2864604E-2,1.2174358E-1,5.805313E-2,6.947082E-1,1.4123815E-2,1.0292503E-2,6.2278748E-2,1.2217488E-3,5.5657335E-2,6.1928052E-2,-3.5369233E-3,-6.399881E-2,5.786055E-4,4.5717787E-2,-3.5006262E-2,-0E0,5.5450566E-2,2.8041458E-2,-3.8886826E-2,-2.0343938E-3,6.720091E-2,-1.7772082E-2,4.530492E-2,-4.7005806E-2,2.2333426E-2,6.7777336E-2,2.2620602E-2],"split_indices":[1937,1678,598,970,554,1689,202,839,1810,701,540,0,0,444,891,437,1810,1657,103,0,0,0,0,856,548,57,0,516,1762,1928,231,154,1891,0,0,1117,0,0,228,0,0,0,0,918,0,1692,1552,1985,0,327,1950,656,1509,0,481,0,0,0,0,0,0,0,0,0,0,0,0,0,0,0,0,0,0,0,0],"split_type":[0,0,0,0,0,0,0,0,0,0,0,0,0,0,0,0,0,0,0,0,0,0,0,0,0,0,0,0,0,0,0,0,0,0,0,0,0,0,0,0,0,0,0,0,0,0,0,0,0,0,0,0,0,0,0,0,0,0,0,0,0,0,0,0,0,0,0,0,0,0,0,0,0,0,0],"sum_hessian":[3.6702228E2,2.766661E2,9.0356186E1,2.284199E2,4.8246185E1,1.22103615E1,7.814583E1,9.577038E1,1.3264954E2,1.264361E1,3.5602573E1,5.1984844E0,7.011877E0,6.63562E1,1.1789625E1,4.4819317E1,5.0951057E1,1.1663039E2,1.601915E1,6.9044256E0,5.7391844E0,3.223802E1,3.3645525E0,5.2054443E1,1.4301759E1,7.575447E0,4.2141786E0,8.398346E0,3.642097E1,3.043E1,2.0521057E1,2.854502E1,8.808537E1,1.2928358E1,3.090791E0,4.8367954E1,3.686487E0,5.922765E0,8.378994E0,4.387462E0,3.1879847E0,3.090787E0,5.307559E0,3.249616E1,3.9248126E0,1.9320705E1,1.1109294E1,1.5545161E1,4.9758954E0,1.444028E1,1.410474E1,3.0573313E1,5.751206E1,3.356524E0,4.501143E1,3.0647657E0,5.314228E0,2.8875666E1,3.620493E0,1.615708E1,3.1636252E0,7.4628625E0,3.646432E0,3.0857334E0,1.2459428E1,7.2774944E0,7.162785E0,3.0232494E0,1.1081491E1,1.8693443E1,1.1879869E1,4.9353493E1,8.158565E0,4.1149937E1,3.8614948E0],"tree_param":{"num_deleted":"0","num_feature":"1998","num_nodes":"75","size_leaf_vector":"1"}},{"base_weights":[-1.326383E-2,5.5695E-1,-2.424884E-1,-5.7052277E-2,9.172039E-1,-4.7575924E-1,1.8212862E-1,-6.414273E-1,4.2823142E-1,1.0115722E0,-2.4960173E-2,2.6789874E-1,-6.3294166E-1,4.8607177E-1,-4.4936666E-1,2.347969E-2,-9.8472303E-1,-3.6614227E-1,9.074554E-1,1.1086411E0,-6.0069934E-3,7.418517E-1,-4.3658555E-2,-8.6549205E-1,-7.184776E-3,-4.7242444E-2,6.397002E-1,-9.9120796E-1,3.647522E-1,-0E0,-6.1173227E-2,-4.9597476E-2,2.9560452E-2,6.027732E-2,-6.515208E-3,-6.136757E-3,1.1947602E0,-2.9016146E-2,1.0592546E0,-9.623085E-1,2.487611E-1,8.6118495E-1,-4.499193E-1,-4.3375578E-2,7.783169E-1,-5.7907443E-2,-4.4280817E-3,-3.2000355E-2,8.8996106E-1,1.3881788E-3,1.2686987E0,6.489746E-2,2.2249012E-3,1.5141109E-2,-1.0407209E0,4.324047E-2,-3.0895159E-2,-0E0,6.490048E-2,5.1189834E-1,-8.8291913E-1,-3.3317965E-1,9.3200153E-1,5.641076E-2,1.1598808E-2,2.1424325E-2,6.60091E-2,-5.7064522E-2,-9.692344E-3,-1.5086079E-2,5.461361E-2,-5.5741806E-2,8.035541E-3,9.83488E-3,-3.7519973E-2,5.441143E-2,-3.5197258E-3],"categories":[],"categories_nodes":[],"categories_segments":[],"categories_sizes":[],"default_left":[0,0,0,0,0,0,0,0,0,0,0,0,0,0,0,0,0,0,0,0,0,0,0,0,0,0,0,0,0,0,0,0,0,0,0,0,0,0,0,0,0,0,0,0,0,0,0,0,0,0,0,0,0,0,0,0,0,0,0,0,0,0,0,0,0,0,0,0,0,0,0,0,0,0,0,0,0],"id":16,"left_children":[1,3,5,7,9,11,13,15,17,19,-1,21,23,25,27,-1,29,31,33,35,-1,37,-1,39,41,-1,43,45,47,-1,-1,-1,-1,-1,-1,-1,49,-1,51,53,55,57,59,-1,61,-1,-1,-1,63,-1,65,-1,-1,-1,67,-1,-1,-1,-1,69,71,73,75,-1,-1,-1,-1,-1,-1,-1,-1,-1,-1,-1,-1,-1,-1],"loss_changes":[4.677511E1,2.2878502E1,2.5506943E1,1.1831196E1,9.730812E0,1.973154E1,1.8075249E1,8.188278E0,9.397728E0,7.1253014E0,0E0,1.7608044E1,1.9895275E1,1.5047815E1,1.4365727E1,0E0,3.4863386E0,7.1592817E0,5.0228004E0,6.4400177E0,0E0,1.0707769E1,0E0,1.1342476E1,1.5866614E1,0E0,1.350729E1,2.5476055E0,8.388457E0,0E0,0E0,0E0,0E0,0E0,0E0,0E0,4.415512E0,0E0,4.3257675E0,9.884041E0,6.1678324E0,5.226012E0,1.237714E1,0E0,9.980553E0,0E0,0E0,0E0,8.91356E-1,0E0,8.643875E-1,0E0,0E0,0E0,6.89019E0,0E0,0E0,0E0,0E0,5.327428E0,5.231779E0,2.1208043E0,7.839798E0,0E0,0E0,0E0,0E0,0E0,0E0,0E0,0E0,0E0,0E0,0E0,0E0,0E0,0E0],"parents":[2147483647,0,0,1,1,2,2,3,3,4,4,5,5,6,6,7,7,8,8,9,9,11,11,12,12,13,13,14,14,16,16,17,17,18,18,19,19,21,21,23,23,24,24,26,26,27,27,28,28,36,36,38,38,39,39,40,40,41,41,42,42,44,44,48,48,50,50,54,54,59,59,60,60,61,61,62,62],"right_children":[2,4,6,8,10,12,14,16,18,20,-1,22,24,26,28,-1,30,32,34,36,-1,38,-1,40,42,-1,44,46,48,-1,-1,-1,-1,-1,-1,-1,50,-1,52,54,56,58,60,-1,62,-1,-1,-1,64,-1,66,-1,-1,-1,68,-1,-1,-1,-1,70,72,74,76,-1,-1,-1,-1,-1,-1,-1,-1,-1,-1,-1,-1,-1,-1],"split_conditions":[4.235658E-2,1.3814403E0,1.4089358E-1,8.044256E-3,6.074328E-3,8.063709E-2,1.4284954E0,8.921469E-4,1.0401465E0,2.158382E-1,-2.4960173E-2,1.0883462E0,2.2042534E-1,1.5695876E-1,4.7579902E-1,2.347969E-2,1.0444583E-1,4.0002268E-2,8.056742E-1,1.5672375E-1,-6.0069934E-3,1.2017284E-1,-4.3658555E-2,1.304143E0,3.3585957E-1,-4.7242444E-2,1.5789147E-1,1.9260523E-3,8.71862E-2,-0E0,-6.1173227E-2,-4.9597476E-2,2.9560452E-2,6.027732E-2,-6.515208E-3,-6.136757E-3,5.817174E-1,-2.9016146E-2,1.3953929E-1,2.7494165E-1,4.8493448E-1,2.688497E-1,2.549887E-1,-4.3375578E-2,3.0212434E-2,-5.7907443E-2,-4.4280817E-3,-3.2000355E-2,7.351146E-1,1.3881788E-3,1.0018009E0,6.489746E-2,2.2249012E-3,1.5141109E-2,2.815664E-1,4.324047E-2,-3.0895159E-2,-0E0,6.490048E-2,1.8274517E0,4.670555E-2,1.0807176E0,6.86443E-1,5.641076E-2,1.1598808E-2,2.1424325E-2,6.60091E-2,-5.7064522E-2,-9.692344E-3,-1.5086079E-2,5.461361E-2,-5.5741806E-2,8.035541E-3,9.83488E-3,-3.7519973E-2,5.441143E-2,-3.5197258E-3],"split_indices":[1648,739,361,273,1269,1959,642,1396,558,1693,0,808,1810,1679,229,0,1573,1910,795,1713,0,91,0,698,28,0,1625,505,1799,0,0,0,0,0,0,0,747,0,1718,599,459,443,268,0,88,0,0,0,877,0,935,0,0,0,487,0,0,0,0,941,1932,792,528,0,0,0,0,0,0,0,0,0,0,0,0,0,0],"split_type":[0,0,0,0,0,0,0,0,0,0,0,0,0,0,0,0,0,0,0,0,0,0,0,0,0,0,0,0,0,0,0,0,0,0,0,0,0,0,0,0,0,0,0,0,0,0,0,0,0,0,0,0,0,0,0,0,0,0,0,0,0,0,0,0,0,0,0,0,0,0,0,0,0,0,0,0,0],"sum_hessian":[3.5403638E2,1.0056858E2,2.5346779E2,3.7707363E1,6.2861217E1,1.6359088E2,8.987691E1,1.6908648E1,2.0798716E1,5.9536808E1,3.3244112E0,2.8187208E1,1.3540367E2,6.109188E1,2.8785028E1,3.7488885E0,1.31597595E1,7.925114E0,1.2873602E1,5.4952564E1,4.5842447E0,2.0471544E1,7.7156653E0,9.804217E1,3.7361496E1,4.861325E0,5.6230556E1,1.7095087E1,1.1689942E1,3.0100718E0,1.0149687E1,4.8118505E0,3.1132636E0,9.82455E0,3.049052E0,3.4605272E0,5.1492035E1,3.581343E0,1.6890202E1,9.053789E1,7.504285E0,1.1901666E1,2.5459831E1,3.789404E0,5.244115E1,1.3855638E1,3.2394495E0,3.797507E0,7.892435E0,3.3125393E0,4.8179497E1,1.3142163E1,3.7480378E0,4.875524E0,8.566236E1,4.456296E0,3.0479891E0,4.6805296E0,7.221136E0,7.7187915E0,1.7741041E1,6.007365E0,4.643379E1,4.6334105E0,3.259025E0,3.9703906E0,4.4209106E1,7.5842415E1,9.819948E0,3.5416865E0,4.177105E0,1.4482156E1,3.2588854E0,3.0064883E0,3.0008771E0,4.0110867E1,6.322919E0],"tree_param":{"num_deleted":"0","num_feature":"1998","num_nodes":"77","size_leaf_vector":"1"}},{"base_weights":[-8.345187E-3,7.151493E-1,-1.7707744E-1,-4.408905E-2,8.383417E-1,-9.223219E-1,-5.005236E-2,9.630957E-1,-2.7777925E-2,2.3819502E-2,-1.0741031E0,-7.393866E-1,6.120902E-2,1.0636634E0,-2.1447672E-2,-1.2649451E0,1.663345E-2,3.9646823E-2,-9.999954E-1,3.0093488E-1,-4.7331557E-1,1.1578847E0,-9.72062E-3,-1.7505653E-2,-6.668168E-2,3.3254926E-3,-1.2055038E0,-7.763455E-2,6.919681E-1,-9.0072376E-1,3.2210028E-1,1.2400932E0,-4.2284187E-3,-9.5504485E-3,-6.61968E-2,-6.894667E-1,3.480987E-1,9.9179626E-1,1.12691924E-1,1.4320162E-2,-1.0917994E0,-3.7473783E-1,1.0145394E0,1.6403075E-2,6.456822E-2,7.783444E-3,-5.2803703E-2,-1.3138145E-2,4.412612E-2,5.670516E-2,-0E0,4.6862762E-2,-1.698417E-2,-6.2088933E-2,-4.010138E-3,-4.3202598E-2,2.760469E-2,5.7962774E-3,6.28747E-2],"categories":[],"categories_nodes":[],"categories_segments":[],"categories_sizes":[],"default_left":[0,0,0,0,0,0,0,0,0,0,0,0,0,0,0,0,0,0,0,0,0,0,0,0,0,0,0,0,0,0,0,0,0,0,0,0,0,0,0,0,0,0,0,0,0,0,0,0,0,0,0,0,0,0,0,0,0,0,0],"id":17,"left_children":[1,3,5,-1,7,9,11,13,-1,-1,15,17,19,21,-1,23,-1,-1,25,27,29,31,-1,-1,-1,-1,33,35,37,39,41,43,-1,-1,-1,45,47,49,51,-1,53,55,57,-1,-1,-1,-1,-1,-1,-1,-1,-1,-1,-1,-1,-1,-1,-1,-1],"loss_changes":[4.3263668E1,1.4654457E1,2.7051716E1,0E0,1.2115326E1,9.931057E0,1.9185844E1,9.219082E0,0E0,0E0,1.12108345E1,1.5485748E1,2.7860342E1,7.132023E0,0E0,1.0457687E0,0E0,0E0,6.990679E0,2.2375797E1,2.352486E1,5.6413345E0,0E0,0E0,0E0,0E0,2.451748E0,2.0802612E1,1.2540031E1,1.0776951E1,1.2849483E1,1.2829742E0,0E0,0E0,0E0,1.0558733E1,1.5922419E1,6.850937E0,1.1010565E1,0E0,5.544903E0,7.248225E0,2.4336882E0,0E0,0E0,0E0,0E0,0E0,0E0,0E0,0E0,0E0,0E0,0E0,0E0,0E0,0E0,0E0,0E0],"parents":[2147483647,0,0,1,1,2,2,4,4,5,5,6,6,7,7,10,10,11,11,12,12,13,13,15,15,18,18,19,19,20,20,21,21,26,26,27,27,28,28,29,29,30,30,31,31,35,35,36,36,37,37,38,38,40,40,41,41,42,42],"right_children":[2,4,6,-1,8,10,12,14,-1,-1,16,18,20,22,-1,24,-1,-1,26,28,30,32,-1,-1,-1,-1,34,36,38,40,42,44,-1,-1,-1,46,48,50,52,-1,54,56,58,-1,-1,-1,-1,-1,-1,-1,-1,-1,-1,-1,-1,-1,-1,-1,-1],"split_conditions":[8.404101E-2,7.8531735E-2,1.07482485E-1,-4.408905E-2,4.551361E-2,2.1874766E-1,8.585367E-2,2.0571582E-2,-2.7777925E-2,2.3819502E-2,3.0159194E-3,1.072817E0,2.6385104E-2,1.6184052E0,-2.1447672E-2,6.4163655E-2,1.663345E-2,3.9646823E-2,8.9038724E-1,7.714281E-2,7.5944496E-4,9.3684006E-1,-9.72062E-3,-1.7505653E-2,-6.668168E-2,3.3254926E-3,1.4503524E-1,3.2410097E-1,9.281493E-2,2.4284711E-1,2.7071225E-2,3.38016E-3,-4.2284187E-3,-9.5504485E-3,-6.61968E-2,4.9215022E-2,5.376877E-2,1.2423589E-1,1.1747752E-1,1.4320162E-2,1.3952139E-1,1.5443519E-3,7.103874E-2,1.6403075E-2,6.456822E-2,7.783444E-3,-5.2803703E-2,-1.3138145E-2,4.412612E-2,5.670516E-2,-0E0,4.6862762E-2,-1.698417E-2,-6.2088933E-2,-4.010138E-3,-4.3202598E-2,2.760469E-2,5.7962774E-3,6.28747E-2],"split_indices":[1809,1866,1954,0,1442,753,1622,1944,0,0,1403,695,1887,682,0,1816,0,0,722,136,1295,793,0,0,0,0,192,249,461,62,1843,273,0,0,0,1860,1830,1914,1874,0,361,1432,1754,0,0,0,0,0,0,0,0,0,0,0,0,0,0,0,0],"split_type":[0,0,0,0,0,0,0,0,0,0,0,0,0,0,0,0,0,0,0,0,0,0,0,0,0,0,0,0,0,0,0,0,0,0,0,0,0,0,0,0,0,0,0,0,0,0,0,0,0,0,0,0,0,0,0,0,0,0,0],"sum_hessian":[3.5076303E2,6.499716E1,2.8576587E2,3.7148402E0,6.1282322E1,3.9676773E1,2.4608911E2,5.6881313E1,4.4010067E0,3.4008355E0,3.6275936E1,3.2755566E1,2.1333354E2,5.355585E1,3.3254642E0,3.218276E1,4.093177E0,4.1115522E0,2.8644012E1,1.4801309E2,6.532045E1,5.004647E1,3.5093784E0,3.200939E0,2.8981821E1,4.767701E0,2.3876312E1,7.5889595E1,7.21235E1,4.2398827E1,2.2921623E1,4.7019638E1,3.026832E0,3.1304803E0,2.0745832E1,3.0726986E1,4.5162613E1,4.6472736E1,2.565076E1,5.667327E0,3.6731503E1,1.1809904E1,1.1111719E1,3.3939703E0,4.3625668E1,9.56194E0,2.1165045E1,2.1461285E1,2.3701328E1,4.03978E1,6.074939E0,8.406052E0,1.7244709E1,3.150642E1,5.225081E0,7.888561E0,3.9213433E0,3.0812025E0,8.030517E0],"tree_param":{"num_deleted":"0","num_feature":"1998","num_nodes":"59","size_leaf_vector":"1"}},{"base_weights":[9.13542E-3,6.8355584E-1,-1.4054668E-1,9.038725E-1,-2.326368E-1,-4.933238E-2,-1.0445448E0,1.0477322E0,6.4049545E-3,-8.228975E-1,3.7252616E-2,-7.942665E-1,6.3857876E-2,1.2810542E-2,-6.1877366E-2,1.1881291E0,7.731904E-5,3.3749323E-2,-3.8569365E-2,-5.286095E-3,-5.4870613E-2,-1.0997996E0,1.346578E-1,-3.5815355E-1,3.0633238E-1,1.15662515E-2,6.3059025E-2,-2.4940942E-3,-6.162382E-2,3.9011836E-2,-3.175447E-2,-5.0058776E-1,6.214938E-1,4.2424586E-1,-5.214579E-1,-6.3733083E-1,7.47141E-1,-1.5409812E-2,5.274445E-2,7.724378E-1,1.306039E-1,-9.526603E-1,1.9067962E-2,2.7498791E-2,-3.8655877E-2,4.920406E-2,9.3723005E-3,4.6192717E-2,-2.7745044E-2,-2.7842317E-2,2.0204145E-2,-6.770578E-3,-6.1788537E-2],"categories":[],"categories_nodes":[],"categories_segments":[],"categories_sizes":[],"default_left":[0,0,0,0,0,0,0,0,0,0,0,0,0,0,0,0,0,0,0,0,0,0,0,0,0,0,0,0,0,0,0,0,0,0,0,0,0,0,0,0,0,0,0,0,0,0,0,0,0,0,0,0,0],"id":18,"left_children":[1,3,5,7,9,11,13,15,17,19,-1,21,23,-1,-1,25,-1,-1,-1,-1,-1,27,29,31,33,-1,-1,-1,-1,-1,-1,35,37,39,41,43,45,-1,-1,47,49,51,-1,-1,-1,-1,-1,-1,-1,-1,-1,-1,-1],"loss_changes":[3.6031124E1,1.3577299E1,2.3835182E1,6.694786E0,9.35572E0,2.2696726E1,7.392555E0,6.5420723E0,5.9193945E0,1.5749836E0,0E0,1.0467611E1,2.4118736E1,0E0,0E0,2.0574608E0,0E0,0E0,0E0,0E0,0E0,3.5114555E0,6.216734E0,1.2612488E1,1.5034076E1,0E0,0E0,0E0,0E0,0E0,0E0,1.3958656E1,5.4479046E0,1.3219347E1,8.352886E0,1.2143751E1,6.257634E-1,0E0,0E0,1.3100159E1,1.4394556E1,2.7223186E0,0E0,0E0,0E0,0E0,0E0,0E0,0E0,0E0,0E0,0E0,0E0],"parents":[2147483647,0,0,1,1,2,2,3,3,4,4,5,5,6,6,7,7,8,8,9,9,11,11,12,12,15,15,21,21,22,22,23,23,24,24,31,31,32,32,33,33,34,34,35,35,36,36,39,39,40,40,41,41],"right_children":[2,4,6,8,10,12,14,16,18,20,-1,22,24,-1,-1,26,-1,-1,-1,-1,-1,28,30,32,34,-1,-1,-1,-1,-1,-1,36,38,40,42,44,46,-1,-1,48,50,52,-1,-1,-1,-1,-1,-1,-1,-1,-1,-1,-1],"split_conditions":[8.404101E-2,1.618723E-1,9.377933E-2,7.980203E-2,1.835138E0,1.066486E-1,2.1250103E-2,1.9465469E-1,6.905616E-2,1.3876247E-1,3.7252616E-2,6.3781045E-2,5.1383615E-2,1.2810542E-2,-6.1877366E-2,3.7184787E-1,7.731904E-5,3.3749323E-2,-3.8569365E-2,-5.286095E-3,-5.4870613E-2,8.935068E-2,3.9620736E0,9.3362343E-1,6.2958115E-1,1.15662515E-2,6.3059025E-2,-2.4940942E-3,-6.162382E-2,3.9011836E-2,-3.175447E-2,1.47172E-1,1.860747E0,6.471148E-2,4.908434E-2,6.495253E-2,7.698658E-2,-1.5409812E-2,5.274445E-2,4.202232E-1,5.9580086E-3,1.6683562E-1,1.9067962E-2,2.7498791E-2,-3.8655877E-2,4.920406E-2,9.3723005E-3,4.6192717E-2,-2.7745044E-2,-2.7842317E-2,2.0204145E-2,-6.770578E-3,-6.1788537E-2],"split_indices":[1809,231,1875,1860,950,1954,1843,1985,1776,901,0,1514,205,0,0,229,0,0,0,0,0,1797,981,730,771,0,0,0,0,0,0,232,619,1925,1286,1768,1830,0,0,305,1371,343,0,0,0,0,0,0,0,0,0,0,0],"split_type":[0,0,0,0,0,0,0,0,0,0,0,0,0,0,0,0,0,0,0,0,0,0,0,0,0,0,0,0,0,0,0,0,0,0,0,0,0,0,0,0,0,0,0,0,0,0,0,0,0,0,0,0,0],"sum_hessian":[3.5248398E2,6.284751E1,2.8963644E2,5.0773952E1,1.2073561E1,2.651067E2,2.4529762E1,4.3374878E1,7.399074E0,7.7896447E0,4.283916E0,3.349787E1,2.3160881E2,3.017817E0,2.1511946E1,3.7919228E1,5.4556503E0,4.1901712E0,3.2089026E0,3.023973E0,4.7656717E0,2.5011179E1,8.486692E0,8.401664E1,1.4759218E2,3.3779602E0,3.4541267E1,3.1993365E0,2.1811842E1,4.671452E0,3.81524E0,7.429478E1,9.721864E0,1.3014906E2,1.7443117E1,6.791075E1,6.384024E0,3.2014184E0,6.5204453E0,5.7896034E1,7.225303E1,1.18051195E1,5.6379986E0,6.267885E0,6.1642864E1,3.2942734E0,3.089751E0,5.2581123E1,5.3149095E0,1.9869259E1,5.238377E1,3.8889084E0,7.9162107E0],"tree_param":{"num_deleted":"0","num_feature":"1998","num_nodes":"53","size_leaf_vector":"1"}},{"base_weights":[-1.9274358E-2,6.0386586E-1,-1.86662E-1,5.8442675E-2,9.7221917E-1,-1.0998699E-1,-1.1557838E0,4.4505417E-1,-7.189556E-1,-1.3139479E-2,1.093443E0,-4.5683226E-1,1.1758397E-1,-1.9776713E-2,-6.225687E-2,7.6734257E-1,-2.991954E-2,7.458416E-3,-5.5040654E-2,3.9619023E-1,6.221363E-2,1.53152E-1,-6.9267136E-1,-4.1471776E-1,3.7948012E-1,-1.2050365E-2,1.0830829E0,-1.2940275E-2,4.2713586E-2,9.4164705E-1,-3.3800957E-1,6.640616E-2,-8.963483E-1,5.6161654E-1,-7.1151143E-1,-6.997818E-1,5.405001E-1,6.0536034E-2,1.732435E-2,4.9475394E-3,6.249655E-2,-7.4309564E-1,3.380127E-2,-5.3660136E-1,4.3197524E-2,1.0215642E-2,-9.8455596E-1,-4.1153256E-2,5.767068E-2,1.6752744E-2,-9.584912E-1,1.6225046E-2,-5.2971244E-2,-8.300076E-1,7.0195884E-1,-5.2762855E-2,1.1064442E-2,-5.0398566E-2,1.4908391E-2,-5.3605676E-2,1.3831617E-2,-3.246105E-2,4.479171E-2,-0E0,-5.6993127E-2,-5.289308E-2,-6.235152E-3,4.7436982E-2,3.8146896E-3],"categories":[],"categories_nodes":[],"categories_segments":[],"categories_sizes":[],"default_left":[0,0,0,0,0,0,0,0,0,0,0,0,0,0,0,0,0,0,0,0,0,0,0,0,0,0,0,0,0,0,0,0,0,0,0,0,0,0,0,0,0,0,0,0,0,0,0,0,0,0,0,0,0,0,0,0,0,0,0,0,0,0,0,0,0,0,0,0,0],"id":19,"left_children":[1,3,5,7,9,11,13,15,17,-1,19,21,23,-1,-1,25,-1,-1,-1,27,-1,29,31,33,35,-1,37,-1,-1,39,41,43,45,47,49,51,53,-1,-1,-1,-1,55,-1,57,-1,-1,59,-1,-1,61,63,-1,-1,65,67,-1,-1,-1,-1,-1,-1,-1,-1,-1,-1,-1,-1,-1,-1],"loss_changes":[3.6553078E1,1.4685823E1,2.0165466E1,1.027179E1,7.250698E0,2.0548199E1,2.0729446E-1,8.597691E0,4.187143E0,0E0,3.1158142E0,1.5084982E1,2.2271729E1,0E0,0E0,6.45098E0,0E0,0E0,0E0,3.5820026E0,0E0,1.2408916E1,1.1761734E1,1.6107113E1,1.9292004E1,0E0,3.6099625E-1,0E0,0E0,2.7907944E0,9.238277E0,9.412639E0,6.2271576E0,1.2865179E1,7.578821E0,6.1577425E0,2.1975168E1,0E0,0E0,0E0,0E0,5.1666718E0,0E0,5.0676703E0,0E0,0E0,6.771412E0,0E0,0E0,8.4217005E0,5.442501E0,0E0,0E0,1.3485126E0,1.2928215E1,0E0,0E0,0E0,0E0,0E0,0E0,0E0,0E0,0E0,0E0,0E0,0E0,0E0,0E0],"parents":[2147483647,0,0,1,1,2,2,3,3,4,4,5,5,6,6,7,7,8,8,10,10,11,11,12,12,15,15,19,19,21,21,22,22,23,23,24,24,26,26,29,29,30,30,31,31,32,32,33,33,34,34,35,35,36,36,41,41,43,43,46,46,49,49,50,50,53,53,54,54],"right_children":[2,4,6,8,10,12,14,16,18,-1,20,22,24,-1,-1,26,-1,-1,-1,28,-1,30,32,34,36,-1,38,-1,-1,40,42,44,46,48,50,52,54,-1,-1,-1,-1,56,-1,58,-1,-1,60,-1,-1,62,64,-1,-1,66,68,-1,-1,-1,-1,-1,-1,-1,-1,-1,-1,-1,-1,-1,-1],"split_conditions":[8.676276E-2,2.7967948E-1,8.149801E-2,1.0514835E0,1.0120951E0,1.0269574E-1,4.862037E-2,1.7983583E-1,8.506268E-2,-1.3139479E-2,1.3767469E-1,8.0892396E-1,1.2723579E-1,-1.9776713E-2,-6.225687E-2,1.3456872E-1,-2.991954E-2,7.458416E-3,-5.5040654E-2,1.0091468E-1,6.221363E-2,1.11851946E-1,5.3473968E-2,1.2201021E0,8.186581E-2,-1.2050365E-2,3.4915796E-1,-1.2940275E-2,4.2713586E-2,5.149301E-1,1.1566562E-1,8.267437E-1,7.3170304E-2,1.7877644E-1,8.529503E-1,4.1755268E-1,1.0606808E-1,6.0536034E-2,1.732435E-2,4.9475394E-3,6.249655E-2,9.0948775E-2,3.380127E-2,1.3302875E-1,4.3197524E-2,1.0215642E-2,1.5287738E0,-4.1153256E-2,5.767068E-2,1.2363859E-2,5.83697E-2,1.6225046E-2,-5.2971244E-2,1.3493589E0,1.2794489E-1,-5.2762855E-2,1.1064442E-2,-5.0398566E-2,1.4908391E-2,-5.3605676E-2,1.3831617E-2,-3.246105E-2,4.479171E-2,-0E0,-5.6993127E-2,-5.289308E-2,-6.235152E-3,4.7436982E-2,3.8146896E-3],"split_indices":[1809,1642,1653,515,670,361,413,367,1768,0,1954,605,1928,0,0,336,0,0,0,1946,0,1803,168,392,1622,0,649,0,0,973,1883,923,1660,46,554,158,1954,0,0,0,0,1892,0,1922,0,0,976,0,0,102,1626,0,0,820,1756,0,0,0,0,0,0,0,0,0,0,0,0,0,0],"split_type":[0,0,0,0,0,0,0,0,0,0,0,0,0,0,0,0,0,0,0,0,0,0,0,0,0,0,0,0,0,0,0,0,0,0,0,0,0,0,0,0,0,0,0,0,0,0,0,0,0,0,0,0,0,0,0,0,0,0,0,0,0,0,0,0,0,0,0,0,0],"sum_hessian":[3.4667957E2,7.217572E1,2.7450385E2,3.0138395E1,4.2037327E1,2.565373E2,1.7966557E1,2.0785242E1,9.353154E0,3.474917E0,3.856241E1,1.0101023E2,1.5552705E2,3.148708E0,1.4817848E1,1.635785E1,4.427392E0,3.149607E0,6.2035475E0,8.266168E0,3.029624E1,2.8241755E1,7.276847E1,5.0776134E1,1.0475093E2,3.938024E0,1.2419826E1,3.6701233E0,4.5960445E0,1.0213906E1,1.8027847E1,1.5575934E1,5.719254E1,1.134245E1,3.9433685E1,1.264992E1,9.2101006E1,9.372631E0,3.0471942E0,3.530254E0,6.6836524E0,1.3334131E1,4.693716E0,9.170945E0,6.4049892E0,3.963946E0,5.3228592E1,3.1115398E0,8.23091E0,1.03561535E1,2.907753E1,3.265884E0,9.384037E0,8.768739E0,8.333227E1,1.000942E1,3.324711E0,5.67261E0,3.4983351E0,5.012763E1,3.1009662E0,6.1251035E0,4.23105E0,4.9142556E0,2.4163275E1,5.764848E0,3.0038903E0,5.890559E1,2.4426678E1],"tree_param":{"num_deleted":"0","num_feature":"1998","num_nodes":"69","size_leaf_vector":"1"}},{"base_weights":[-1.7996933E-2,-3.7436542E-1,2.694692E-1,2.9289275E-1,-6.173728E-1,4.1184893E-1,-5.9734946E-1,8.0748695E-1,-5.206729E-1,-8.7235683E-1,-2.7072936E-1,7.749455E-1,-1.2784672E-1,2.3753276E-2,-8.524381E-1,1.0451728E0,-3.0241786E-2,-9.599733E-1,3.9132044E-2,-0E0,-1.0462344E0,6.0176045E-2,-9.950607E-1,-3.2243576E-2,8.539603E-1,3.5633013E-1,-4.9726102E-1,-1.0420172E0,1.1571889E-2,1.1973358E0,7.430913E-4,-5.932167E-2,-4.5551304E-3,-5.527877E-1,4.343548E-2,-3.4869292E-3,-1.1476955E0,5.4418206E-1,-6.3963383E-1,-1.2787351E-2,-5.8537837E-2,6.613376E-2,1.0160953E0,8.42101E-1,-2.792916E-1,-8.183788E-1,4.944505E-1,-8.484603E-3,-5.8647584E-2,6.4952455E-2,1.6872354E-2,2.4067415E-3,-4.4429034E-2,-1.2162411E0,-6.6288756E-3,-2.2073332E-2,8.778483E-1,1.3245101E-2,-9.169201E-1,6.758939E-1,-4.8514962E-1,7.208263E-2,1.0927879E0,