{"learner":{"attributes":{"best_iteration":"199","best_score":"0.18624007187096314","scikit_learn":"{\"_estimator_type\": \"classifier\"}"},"feature_names":[],"feature_types":[],"gradient_booster":{"model":{"cats":{"enc":[],"feature_segments":[],"sorted_idx":[]},"gbtree_model_param":{"num_parallel_tree":"1","num_trees":"200"},"iteration_indptr":[0,1,2,3,4,5,6,7,8,9,10,11,12,13,14,15,16,17,18,19,20,21,22,23,24,25,26,27,28,29,30,31,32,33,34,35,36,37,38,39,40,41,42,43,44,45,46,47,48,49,50,51,52,53,54,55,56,57,58,59,60,61,62,63,64,65,66,67,68,69,70,71,72,73,74,75,76,77,78,79,80,81,82,83,84,85,86,87,88,89,90,91,92,93,94,95,96,97,98,99,100,101,102,103,104,105,106,107,108,109,110,111,112,113,114,115,116,117,118,119,120,121,122,123,124,125,126,127,128,129,130,131,132,133,134,135,136,137,138,139,140,141,142,143,144,145,146,147,148,149,150,151,152,153,154,155,156,157,158,159,160,161,162,163,164,165,166,167,168,169,170,171,172,173,174,175,176,177,178,179,180,181,182,183,184,185,186,187,188,189,190,191,192,193,194,195,196,197,198,199,200],"tree_info":[0,0,0,0,0,0,0,0,0,0,0,0,0,0,0,0,0,0,0,0,0,0,0,0,0,0,0,0,0,0,0,0,0,0,0,0,0,0,0,0,0,0,0,0,0,0,0,0,0,0,0,0,0,0,0,0,0,0,0,0,0,0,0,0,0,0,0,0,0,0,0,0,0,0,0,0,0,0,0,0,0,0,0,0,0,0,0,0,0,0,0,0,0,0,0,0,0,0,0,0,0,0,0,0,0,0,0,0,0,0,0,0,0,0,0,0,0,0,0,0,0,0,0,0,0,0,0,0,0,0,0,0,0,0,0,0,0,0,0,0,0,0,0,0,0,0,0,0,0,0,0,0,0,0,0,0,0,0,0,0,0,0,0,0,0,0,0,0,0,0,0,0,0,0,0,0,0,0,0,0,0,0,0,0,0,0,0,0,0,0,0,0,0,0,0,0,0,0,0,0],"trees":[{"base_weights":[-1.2636773E-3,-3.2904303E-1,1.1905521E0,-7.770081E-1,1.7507792E-1,1.3530004E0,-4.678335E-2,-2.6435676E-1,-1.1770908E0,4.1933483E-1,-1.0403978E0,-1.4889941E-2,1.465061E0,-1.0176488E0,3.7319362E-1,-2.991244E-1,-1.5941758E0,8.833204E-1,-3.4971413E-1,4.4088773E-2,-1.5065496E0,1.5469303E0,-9.38016E-3,3.1158065E-2,-1.297714E0,6.723469E-1,-5.6209356E-2,-8.6813414E-1,7.014545E-1,2.2743395E-2,-1.7422651E0,1.1755273E0,-1.8473381E-1,-8.389068E-1,8.381293E-1,-1.4427437E-2,-8.3923295E-2,2.1098086E-3,1.6215034E0,1.2533038E-3,-1.5582353E0,1.1151828E0,-5.418897E-1,2.8564492E-2,-1.2886547E0,6.9089286E-2,-1.4889941E-2,-1.8449398E0,2.503331E-3,-2.321221E-2,1.3513528E0,-1.0515559E0,5.376267E-2,-1.1872733E0,3.9888084E-2,7.262059E-2,-2.3451349E-2,1.7206707E0,5.1290405E-1,-8.717382E-2,-5.0150207E-3,6.968995E-2,-2.7292067E-2,-6.7307964E-2,3.6938652E-2,-5.130117E-4,-8.190915E-2,-9.4441585E-2,-3.3143103E-2,-2.3803394E-2,7.379823E-2,6.819881E-3,-7.721526E-2,-7.222249E-2,8.878258E-3,8.933198E-2,1.5889581E-2,-2.3803394E-2,6.3389815E-2],"categories":[],"categories_nodes":[],"categories_segments":[],"categories_sizes":[],"default_left":[0,0,0,0,0,0,0,0,0,0,0,0,0,0,0,0,0,0,0,0,0,0,0,0,0,0,0,0,0,0,0,0,0,0,0,0,0,0,0,0,0,0,0,0,0,0,0,0,0,0,0,0,0,0,0,0,0,0,0,0,0,0,0,0,0,0,0,0,0,0,0,0,0,0,0,0,0,0,0],"id":0,"left_children":[1,3,5,7,9,11,-1,13,15,17,19,-1,21,23,25,27,29,31,33,-1,35,37,-1,-1,39,41,-1,43,45,-1,47,49,51,53,55,-1,-1,-1,57,-1,59,61,63,-1,65,-1,-1,67,-1,-1,69,71,-1,73,-1,-1,-1,75,77,-1,-1,-1,-1,-1,-1,-1,-1,-1,-1,-1,-1,-1,-1,-1,-1,-1,-1,-1,-1],"loss_changes":[1.6131557E2,7.352327E1,3.33329E1,3.4527756E1,4.6536907E1,1.6453339E1,0E0,3.8340942E1,3.399733E1,4.696636E1,2.6265114E1,0E0,1.1361267E1,1.8419693E1,2.104206E1,2.0276165E1,2.1291153E1,2.5990314E1,3.056084E1,0E0,3.4265404E0,8.13916E0,0E0,0E0,1.1192963E1,2.1554155E1,0E0,1.5029182E1,9.8826475E0,0E0,1.1521606E1,1.9908295E1,2.3203976E1,2.2799103E1,1.3967925E1,0E0,0E0,0E0,5.879303E0,0E0,6.668442E0,1.4732029E1,1.3759629E1,0E0,7.8039913E0,0E0,0E0,2.214508E-1,0E0,0E0,1.4877388E1,7.8318615E0,0E0,1.1530632E1,0E0,0E0,0E0,4.64711E0,7.8622723E0,0E0,0E0,0E0,0E0,0E0,0E0,0E0,0E0,0E0,0E0,0E0,0E0,0E0,0E0,0E0,0E0,0E0,0E0,0E0,0E0],"parents":[2147483647,0,0,1,1,2,2,3,3,4,4,5,5,7,7,8,8,9,9,10,10,12,12,13,13,14,14,15,15,16,16,17,17,18,18,20,20,21,21,24,24,25,25,27,27,28,28,30,30,31,31,32,32,33,33,34,34,38,38,40,40,41,41,42,42,44,44,47,47,50,50,51,51,53,53,57,57,58,58],"right_children":[2,4,6,8,10,12,-1,14,16,18,20,-1,22,24,26,28,30,32,34,-1,36,38,-1,-1,40,42,-1,44,46,-1,48,50,52,54,56,-1,-1,-1,58,-1,60,62,64,-1,66,-1,-1,68,-1,-1,70,72,-1,74,-1,-1,-1,76,78,-1,-1,-1,-1,-1,-1,-1,-1,-1,-1,-1,-1,-1,-1,-1,-1,-1,-1,-1,-1],"split_conditions":[1.610841E-1,2.066767E-1,2.3596103E-1,1.9239026E-1,1.805101E-1,1.0323632E-1,-4.678335E-2,1.2706359E-1,2.1337593E-2,7.1485025E-1,6.87137E-2,-1.4889941E-2,6.8939644E-1,1.8834913E-2,1.4913654E-1,1.7257394E-1,4.2881165E-2,8.086999E-2,9.5216256E-1,4.4088773E-2,1.5510614E-1,3.6386526E-1,-9.38016E-3,3.1158065E-2,4.635739E-1,1.3900717E-1,-5.6209356E-2,2.4954677E-2,3.3670235E-1,2.2743395E-2,5.8902383E-2,9.964515E-1,7.899529E-2,1.1080185E0,1.4038153E0,-1.4427437E-2,-8.3923295E-2,2.1098086E-3,1.0631297E0,1.2533038E-3,1.3221294E-1,2.1983819E-1,2.3815279E-1,2.8564492E-2,8.572076E-2,6.9089286E-2,-1.4889941E-2,7.4893713E-1,2.503331E-3,-2.321221E-2,3.0499306E-2,1.3339964E-2,5.376267E-2,1.6442527E0,3.9888084E-2,7.262059E-2,-2.3451349E-2,1.7441097E0,7.0550886E-6,-8.717382E-2,-5.0150207E-3,6.968995E-2,-2.7292067E-2,-6.7307964E-2,3.6938652E-2,-5.130117E-4,-8.190915E-2,-9.4441585E-2,-3.3143103E-2,-2.3803394E-2,7.379823E-2,6.819881E-3,-7.721526E-2,-7.222249E-2,8.878258E-3,8.933198E-2,1.5889581E-2,-2.3803394E-2,6.3389815E-2],"split_indices":[1934,1585,1759,1622,1777,111,0,240,1814,587,1801,0,1088,1881,54,1730,1904,1694,701,0,305,837,0,0,172,1943,0,462,1792,0,157,561,1812,503,847,0,0,0,607,0,1959,1710,69,0,162,0,0,11,0,0,1673,1941,0,975,0,0,0,763,1447,0,0,0,0,0,0,0,0,0,0,0,0,0,0,0,0,0,0,0,0],"split_type":[0,0,0,0,0,0,0,0,0,0,0,0,0,0,0,0,0,0,0,0,0,0,0,0,0,0,0,0,0,0,0,0,0,0,0,0,0,0,0,0,0,0,0,0,0,0,0,0,0,0,0,0,0,0,0,0,0,0,0,0,0,0,0,0,0,0,0,0,0,0,0,0,0,0,0,0,0,0,0],"sum_hessian":[4.091536E2,3.220998E2,8.705381E1,1.7008072E2,1.5201906E2,8.159417E1,5.4596415E0,7.6117714E1,9.3963005E1,1.27741035E2,2.4278027E1,4.9192824E0,7.667489E1,3.441704E1,4.1700672E1,3.1445068E1,6.2517937E1,7.956839E1,4.8172646E1,4.3486547E0,1.9929373E1,7.323543E1,3.439462E0,4.6087446E0,2.9808296E1,3.573094E1,5.969731E0,2.0278027E1,1.1167041E1,3.8890135E0,5.8628925E1,6.239126E1,1.717713E1,3.4596413E1,1.3576234E1,3.1995516E0,1.672982E1,3.6692824E0,6.956615E1,5.1390133E0,2.4669283E1,2.6362108E1,9.3688345E0,4.368834E0,1.5909193E1,6.247758E0,4.9192824E0,5.544955E1,3.1793723E0,5.6692824E0,5.6721973E1,1.0419283E1,6.757848E0,2.9028027E1,5.5683856E0,9.136771E0,4.4394617E0,6.275785E1,6.808296E0,2.147982E1,3.189462E0,2.2902468E1,3.4596412E0,5.73991E0,3.628924E0,3.9192824E0,1.198991E1,5.222982E1,3.2197309E0,3.2096412E0,5.3512333E1,3.4192824E0,7E0,2.4389013E1,4.6390133E0,5.9348656E1,3.4091928E0,3.2096412E0,3.5986547E0],"tree_param":{"num_deleted":"0","num_feature":"1995","num_nodes":"79","size_leaf_vector":"1"}},{"base_weights":[-0E0,-6.361401E-1,5.291048E-1,5.124311E-1,-9.019429E-1,-1.1413593E0,7.299782E-1,-2.3597574E-1,7.799777E-2,-1.0844086E0,3.379499E-1,-1.4118828E0,2.0879252E-2,1.5570924E-1,1.2309391E0,-1.1006263E0,7.69266E-1,-6.540529E-1,-1.494514E0,-4.4007146E-1,6.735965E-2,-8.585086E-2,-1.5832849E-4,-9.507531E-1,5.20523E-1,-5.234896E-2,1.3514827E0,-7.816712E-2,5.9910333E-3,6.2423855E-2,-1.4521355E-2,4.855571E-1,-1.0213708E0,1.8679088E-2,-1.6553359E0,3.0714035E-2,-5.7506222E-2,3.1024426E-2,-1.2449931E0,8.7522066E-1,-7.1029586E-1,-3.2384235E-2,1.4455968E0,-6.016623E-2,1.0253172E0,-1.4839168E0,-2.427648E-1,-1.7361172E0,-4.265468E-3,-1.5272381E0,1.0579875E-2,1.0751308E0,-3.5278488E-2,3.540844E-2,-1.1889317E0,6.991573E-1,1.6653208E0,-1.3896629E-2,7.202787E-2,-5.297324E-4,-8.548992E-2,3.3667367E-2,-4.3233152E-2,-2.7686635E-2,-9.111733E-2,-2.2554088E-2,-8.452813E-2,6.1804164E-2,-4.174396E-2,-8.966903E-3,-7.698459E-2,-4.316459E-2,5.7673424E-2,8.665549E-2,1.6263992E-2],"categories":[],"categories_nodes":[],"categories_segments":[],"categories_sizes":[],"default_left":[0,0,0,0,0,0,0,0,0,0,0,0,0,0,0,0,0,0,0,0,0,0,0,0,0,0,0,0,0,0,0,0,0,0,0,0,0,0,0,0,0,0,0,0,0,0,0,0,0,0,0,0,0,0,0,0,0,0,0,0,0,0,0,0,0,0,0,0,0,0,0,0,0,0,0],"id":1,"left_children":[1,3,5,7,9,11,13,15,-1,17,19,21,-1,23,25,27,29,31,33,35,-1,-1,-1,37,39,-1,41,-1,-1,-1,-1,43,45,-1,47,-1,-1,-1,49,51,53,-1,55,-1,57,59,61,63,-1,65,-1,67,-1,-1,69,71,73,-1,-1,-1,-1,-1,-1,-1,-1,-1,-1,-1,-1,-1,-1,-1,-1,-1,-1],"loss_changes":[1.3831741E2,5.7950394E1,7.687314E1,2.9314547E1,3.52815E1,1.1736824E1,5.7433273E1,2.1583212E1,0E0,2.136998E1,1.7767685E1,9.120129E0,0E0,3.979497E1,3.2299377E1,7.949439E0,6.7561154E0,2.9827053E1,2.1379608E1,1.1432022E1,0E0,0E0,0E0,1.29359455E1,3.3451626E1,0E0,2.128247E1,0E0,0E0,0E0,0E0,1.8903E1,1.8089176E1,0E0,7.3541565E0,0E0,0E0,0E0,9.558239E0,1.9946644E1,1.3638374E1,0E0,1.3636749E1,0E0,8.927478E0,1.0638687E1,1.3782957E1,3.7158813E0,0E0,1.4580727E0,0E0,1.8248554E1,0E0,0E0,4.202345E0,2.0488028E1,5.458679E0,0E0,0E0,0E0,0E0,0E0,0E0,0E0,0E0,0E0,0E0,0E0,0E0,0E0,0E0,0E0,0E0,0E0,0E0],"parents":[2147483647,0,0,1,1,2,2,3,3,4,4,5,5,6,6,7,7,9,9,10,10,11,11,13,13,14,14,15,15,16,16,17,17,18,18,19,19,23,23,24,24,26,26,31,31,32,32,34,34,38,38,39,39,40,40,42,42,44,44,45,45,46,46,47,47,49,49,51,51,54,54,55,55,56,56],"right_children":[2,4,6,8,10,12,14,16,-1,18,20,22,-1,24,26,28,30,32,34,36,-1,-1,-1,38,40,-1,42,-1,-1,-1,-1,44,46,-1,48,-1,-1,-1,50,52,54,-1,56,-1,58,60,62,64,-1,66,-1,68,-1,-1,70,72,74,-1,-1,-1,-1,-1,-1,-1,-1,-1,-1,-1,-1,-1,-1,-1,-1,-1,-1],"split_conditions":[1.5034528E-1,4.214723E-1,1.129108E-1,7.13185E-2,3.5697605E-2,1.0537488E-1,6.1908353E-2,1.0260393E-1,7.799777E-2,2.5499798E-2,5.576616E-5,2.2718361E-1,2.0879252E-2,4.582294E-1,7.245089E-2,2.63478E-1,7.213128E-2,9.762328E-3,1.7442675E-1,4.102153E-2,6.735965E-2,-8.585086E-2,-1.5832849E-4,9.7651735E-2,1.4133642E0,-5.234896E-2,3.286914E-1,-7.816712E-2,5.9910333E-3,6.2423855E-2,-1.4521355E-2,5.504378E-1,5.60685E-2,1.8679088E-2,1.7069612E-1,3.0714035E-2,-5.7506222E-2,3.1024426E-2,8.046365E-2,2.294277E-1,7.536838E-2,-3.2384235E-2,2.8128958E-1,-6.016623E-2,1.9295785E-1,8.5578907E-1,6.349516E-1,1.6465412E-1,-4.265468E-3,6.821011E-1,1.0579875E-2,1.4910601E-1,-3.5278488E-2,3.540844E-2,4.7372898E-1,1.1482525E-1,1.8425614E-2,-1.3896629E-2,7.202787E-2,-5.297324E-4,-8.548992E-2,3.3667367E-2,-4.3233152E-2,-2.7686635E-2,-9.111733E-2,-2.2554088E-2,-8.452813E-2,6.1804164E-2,-4.174396E-2,-8.966903E-3,-7.698459E-2,-4.316459E-2,5.7673424E-2,8.665549E-2,1.6263992E-2],"split_indices":[1925,820,1951,1649,1834,1949,1964,255,0,1814,1349,362,0,715,1959,239,1704,1237,426,1786,0,0,0,1930,600,0,222,0,0,0,0,569,1949,0,77,0,0,0,1827,1951,77,0,1639,0,386,768,672,1622,0,583,0,1980,0,0,814,193,1389,0,0,0,0,0,0,0,0,0,0,0,0,0,0,0,0,0,0],"split_type":[0,0,0,0,0,0,0,0,0,0,0,0,0,0,0,0,0,0,0,0,0,0,0,0,0,0,0,0,0,0,0,0,0,0,0,0,0,0,0,0,0,0,0,0,0,0,0,0,0,0,0,0,0,0,0,0,0,0,0,0,0,0,0,0,0,0,0,0,0,0,0,0,0,0,0],"sum_hessian":[4.069146E2,1.8466328E2,2.2225134E2,3.4284256E1,1.5037903E2,2.279835E1,1.9945299E2,2.084528E1,1.3438976E1,1.3137675E2,1.9002275E1,1.9642588E1,3.1557617E0,9.424171E1,1.0521128E2,1.11577425E1,9.687538E0,6.6756966E1,6.461979E1,1.1311285E1,7.690991E0,1.5727291E1,3.9152963E0,2.2503452E1,7.173825E1,4.4735622E0,1.00737724E2,7.742353E0,3.4153893E0,6.4904943E0,3.197044E0,1.6048908E1,5.0708057E1,4.8630652E0,5.9756725E1,4.6039066E0,6.7073784E0,3.1460607E0,1.9357391E1,5.6201237E1,1.5537015E1,3.9525044E0,9.678522E1,3.2465653E0,1.2802342E1,3.0593334E1,2.0114723E1,5.6570766E1,3.18596E0,1.6191582E1,3.16581E0,5.05159E1,5.685336E0,3.625272E0,1.1911743E1,2.4016422E1,7.276879E1,3.1950498E0,9.607292E0,4.40408E0,2.6189253E1,8.001514E0,1.2113209E1,4.9329276E0,5.1637836E1,3.2056117E0,1.298597E1,4.7288994E1,3.2269068E0,3.9242449E0,7.987498E0,4.9549613E0,1.906146E1,6.863544E1,4.133356E0],"tree_param":{"num_deleted":"0","num_feature":"1995","num_nodes":"75","size_leaf_vector":"1"}},{"base_weights":[1.0505494E-2,-3.3113602E-1,9.339901E-1,-5.533066E-1,6.228918E-1,4.55363E-1,1.4718634E0,-6.946216E-1,5.615243E-1,1.0387126E0,-7.472443E-1,6.33365E-1,-6.46883E-2,-6.0912264E-3,1.6218439E0,-4.2120665E-1,-1.296861E0,1.4121355E0,-7.0907617E-1,-3.2580882E-2,1.2733576E0,-1.2474315E0,3.0649794E-2,9.403918E-1,-1.6315301E-1,8.5658975E-2,1.0343738E-2,6.5045685E-1,-6.08115E-1,-1.4580452E0,2.9162882E-2,8.145231E-2,1.1915005E-2,2.0312326E-2,-5.8918595E-2,1.4272945E0,-1.41197955E-2,-7.2444044E-2,-2.1933291E-2,1.1986026E0,-3.0565712E-1,4.8597686E-2,-1.0254722E0,1.1446141E0,-4.5117397E-2,-1.4633746E0,-3.719233E-1,-1.5941114E0,-7.914266E-3,1.6730399E-3,1.5546042E0,-3.037653E-2,1.4565492E0,-5.9287734E-2,3.2341722E-2,-7.324787E-2,5.140707E-4,-1.2289613E-2,7.632419E-2,-2.7647463E-3,-8.534945E-2,-5.7860296E-2,-4.291306E-4,-8.3941594E-2,-5.2888547E-3,8.378514E-2,1.4352383E-2,1.8576642E-2,8.1848346E-2],"categories":[],"categories_nodes":[],"categories_segments":[],"categories_sizes":[],"default_left":[0,0,0,0,0,0,0,0,0,0,0,0,0,0,0,0,0,0,0,0,0,0,0,0,0,0,0,0,0,0,0,0,0,0,0,0,0,0,0,0,0,0,0,0,0,0,0,0,0,0,0,0,0,0,0,0,0,0,0,0,0,0,0,0,0,0,0,0,0],"id":2,"left_children":[1,3,5,7,9,11,13,15,17,19,21,23,-1,-1,25,27,29,31,33,-1,35,37,-1,39,41,-1,-1,43,45,47,-1,-1,-1,-1,-1,49,-1,-1,-1,51,53,-1,55,57,-1,59,61,63,-1,-1,65,-1,67,-1,-1,-1,-1,-1,-1,-1,-1,-1,-1,-1,-1,-1,-1,-1,-1],"loss_changes":[1.2800711E2,6.341927E1,2.667875E1,3.879644E1,3.3922173E1,2.0559147E1,1.2640923E1,3.4147842E1,3.2512016E1,1.9348244E1,1.1338232E1,1.4261211E1,0E0,0E0,5.1021576E0,3.102981E1,2.1811844E1,3.5145035E0,7.6181912E0,0E0,1.0440971E1,3.6248016E-1,0E0,1.4123634E1,1.9030954E1,0E0,0E0,1.9976044E1,2.4923267E1,1.0192612E1,0E0,0E0,0E0,0E0,0E0,6.225128E0,0E0,0E0,0E0,1.8029629E1,8.816962E0,0E0,5.142625E0,1.076107E1,0E0,8.995918E0,2.9647919E1,6.4470367E0,0E0,0E0,3.967476E0,0E0,4.6545486E0,0E0,0E0,0E0,0E0,0E0,0E0,0E0,0E0,0E0,0E0,0E0,0E0,0E0,0E0,0E0,0E0],"parents":[2147483647,0,0,1,1,2,2,3,3,4,4,5,5,6,6,7,7,8,8,9,9,10,10,11,11,14,14,15,15,16,16,17,17,18,18,20,20,21,21,23,23,24,24,27,27,28,28,29,29,35,35,39,39,40,40,42,42,43,43,45,45,46,46,47,47,50,50,52,52],"right_children":[2,4,6,8,10,12,14,16,18,20,22,24,-1,-1,26,28,30,32,34,-1,36,38,-1,40,42,-1,-1,44,46,48,-1,-1,-1,-1,-1,50,-1,-1,-1,52,54,-1,56,58,-1,60,62,64,-1,-1,66,-1,68,-1,-1,-1,-1,-1,-1,-1,-1,-1,-1,-1,-1,-1,-1,-1,-1],"split_conditions":[1.5579666E-1,4.3427983E-1,1.3411222E-1,1.2727841E0,5.501067E-1,1.4147216E0,3.7333656E-2,1.7136961E-1,9.1518916E-2,6.1821345E-2,9.2838246E-1,2.7787653E-1,-6.46883E-2,-6.0912264E-3,1.378185E-1,8.099548E-2,1.8966293E-2,4.2636156E0,2.5313234E-1,-3.2580882E-2,2.122795E-1,1.2108151E-1,3.0649794E-2,6.5081406E-1,4.852997E-3,8.5658975E-2,1.0343738E-2,1.6187772E0,1.0297447E-1,1.9345841E-1,2.9162882E-2,8.145231E-2,1.1915005E-2,2.0312326E-2,-5.8918595E-2,1.694145E-1,-1.41197955E-2,-7.2444044E-2,-2.1933291E-2,7.771782E-2,5.6824394E-2,4.8597686E-2,3.971431E-2,7.314551E-2,-4.5117397E-2,1.6353077E-1,1.0476159E-1,1.3347075E-4,-7.914266E-3,1.6730399E-3,5.6509346E-1,-3.037653E-2,3.328366E-5,-5.9287734E-2,3.2341722E-2,-7.324787E-2,5.140707E-4,-1.2289613E-2,7.632419E-2,-2.7647463E-3,-8.534945E-2,-5.7860296E-2,-4.291306E-4,-8.3941594E-2,-5.2888547E-3,8.378514E-2,1.4352383E-2,1.8576642E-2,8.1848346E-2],"split_indices":[1934,1585,1762,756,337,535,327,219,1698,1748,516,280,0,0,1806,1657,1134,953,1747,0,465,1778,0,692,1389,0,0,898,1951,1619,0,0,0,0,0,1788,0,0,0,171,82,0,1907,913,0,62,1680,1262,0,0,1031,0,1317,0,0,0,0,0,0,0,0,0,0,0,0,0,0,0,0],"split_type":[0,0,0,0,0,0,0,0,0,0,0,0,0,0,0,0,0,0,0,0,0,0,0,0,0,0,0,0,0,0,0,0,0,0,0,0,0,0,0,0,0,0,0,0,0,0,0,0,0,0,0,0,0,0,0,0,0,0,0,0,0,0,0,0,0,0,0,0,0],"sum_hessian":[4.0157526E2,2.9398907E2,1.07586174E2,2.3922427E2,5.476481E1,5.8980995E1,4.8605183E1,2.1306046E2,2.6163818E1,4.2441162E1,1.23236475E1,5.474298E1,4.238013E0,4.1556897E0,4.4449493E1,1.4898607E2,6.4074394E1,1.5585756E1,1.0578062E1,4.688195E0,3.7752964E1,9.185383E0,3.1382647E0,3.934233E1,1.5400652E1,4.129194E1,3.1575553E0,2.1309584E1,1.27676476E2,5.947751E1,4.5968847E0,1.2428359E1,3.1573977E0,3.1492362E0,7.428826E0,3.456253E1,3.1904347E0,5.98743E0,3.1979527E0,3.271866E1,6.6236696E0,6.488856E0,8.911797E0,1.6612915E1,4.6966696E0,2.5289045E1,1.02387436E2,5.3361465E1,6.1160464E0,3.1697764E0,3.1392754E1,3.7016504E0,2.901701E1,3.24266E0,3.3810098E0,5.7428102E0,3.1689858E0,3.6766973E0,1.2936217E1,4.152461E0,2.1136585E1,3.0918568E1,7.1468864E1,5.018179E1,3.179673E0,2.7995285E1,3.3974698E0,5.0884366E0,2.3928572E1],"tree_param":{"num_deleted":"0","num_feature":"1995","num_nodes":"69","size_leaf_vector":"1"}},{"base_weights":[1.3119934E-2,-2.8854877E-1,1.0613097E0,-6.1451477E-1,2.7254605E-1,1.2119583E0,-6.221522E-1,-8.7454814E-1,-6.553576E-2,-6.3837653E-1,5.783532E-1,-1.9224508E-2,1.2989694E0,1.3149934E-2,-6.0916353E-2,-1.003768E0,4.484688E-1,-2.9595888E-1,6.501215E-2,3.02666E-1,-1.1513771E0,-8.4885776E-1,8.5727876E-1,1.530868E0,6.13886E-1,-5.956479E-1,-1.4692675E0,6.899675E-2,-5.0044667E-2,1.9849785E-1,-9.988166E-1,4.7625884E-2,-2.9271161E-2,1.2366495E-2,-1.4392183E0,2.5586996E-2,-7.321663E-2,1.1675088E0,-4.9261236E-1,1.6133441E0,7.1446126E-4,-4.0231716E-2,1.0196981E0,8.443673E-1,-7.621594E-1,7.6706987E-4,-1.6085031E0,7.752072E-1,-6.855421E-1,1.0312775E-2,-1.2599088E0,-2.1499155E-2,-7.994679E-2,-1.7714955E-2,1.3161622E0,4.326897E-2,-1.212343E0,8.4425054E-2,1.265088E-2,1.3193724E0,-1.5590216E-2,5.7237107E-2,9.899991E-3,-7.3888013E-3,-5.7999384E-2,-8.345968E-2,-1.92751E-2,-5.2675693E-3,6.538669E-2,1.8187296E-2,-5.6852203E-2,-7.268716E-2,-4.2922995E-3,7.3088355E-2,-1.844952E-2,-7.0973E-2,-2.0366026E-2,8.5526435E-3,7.7800296E-2],"categories":[],"categories_nodes":[],"categories_segments":[],"categories_sizes":[],"default_left":[0,0,0,0,0,0,0,0,0,0,0,0,0,0,0,0,0,0,0,0,0,0,0,0,0,0,0,0,0,0,0,0,0,0,0,0,0,0,0,0,0,0,0,0,0,0,0,0,0,0,0,0,0,0,0,0,0,0,0,0,0,0,0,0,0,0,0,0,0,0,0,0,0,0,0,0,0,0,0],"id":3,"left_children":[1,3,5,7,9,11,13,15,17,19,21,-1,23,-1,-1,25,27,29,-1,31,33,35,37,39,41,43,45,-1,-1,47,49,-1,-1,-1,51,-1,-1,53,55,57,-1,-1,59,61,63,-1,65,67,69,-1,71,-1,-1,-1,73,-1,75,-1,-1,77,-1,-1,-1,-1,-1,-1,-1,-1,-1,-1,-1,-1,-1,-1,-1,-1,-1,-1,-1],"loss_changes":[1.3125378E2,5.9285873E1,2.5096825E1,2.8982086E1,3.4061447E1,1.30214E1,5.426427E0,2.4629227E1,2.2072786E1,1.5718011E1,3.7564728E1,0E0,1.0928223E1,0E0,0E0,2.2139885E1,2.1207703E1,2.1288576E1,0E0,8.3260145E0,9.088058E0,1.4804311E1,3.343431E1,7.269882E0,1.5580139E1,1.8318203E1,1.215152E1,0E0,0E0,1.9802711E1,8.536873E0,0E0,0E0,0E0,1.2205696E0,0E0,0E0,1.5327782E1,1.749984E1,4.740799E0,0E0,0E0,8.798542E0,1.0145564E0,1.5367348E1,0E0,2.4342346E0,1.1294189E1,8.246632E0,0E0,4.3794823E0,0E0,0E0,0E0,1.5435722E1,0E0,5.212593E-1,0E0,0E0,3.7931576E0,0E0,0E0,0E0,0E0,0E0,0E0,0E0,0E0,0E0,0E0,0E0,0E0,0E0,0E0,0E0,0E0,0E0,0E0,0E0],"parents":[2147483647,0,0,1,1,2,2,3,3,4,4,5,5,6,6,7,7,8,8,9,9,10,10,12,12,15,15,16,16,17,17,19,19,20,20,21,21,22,22,23,23,24,24,25,25,26,26,29,29,30,30,34,34,37,37,38,38,39,39,42,42,43,43,44,44,46,46,47,47,48,48,50,50,54,54,56,56,59,59],"right_children":[2,4,6,8,10,12,14,16,18,20,22,-1,24,-1,-1,26,28,30,-1,32,34,36,38,40,42,44,46,-1,-1,48,50,-1,-1,-1,52,-1,-1,54,56,58,-1,-1,60,62,64,-1,66,68,70,-1,72,-1,-1,-1,74,-1,76,-1,-1,78,-1,-1,-1,-1,-1,-1,-1,-1,-1,-1,-1,-1,-1,-1,-1,-1,-1,-1,-1],"split_conditions":[1.610841E-1,4.7031026E-3,2.2617364E-1,2.4928828E-1,4.705566E-2,1.4494902E-1,1.578496E-1,9.128168E-1,1.9680339E-1,7.755463E-2,1.8930342E-2,-1.9224508E-2,1.2411769E-1,1.3149934E-2,-6.0916353E-2,2.671471E-2,2.0786018E0,3.4812834E-2,6.501215E-2,9.813441E-2,3.1163314E-1,1.4076528E-1,6.8037525E-2,1.9687411E-1,3.8597584E-3,1.1478882E-1,1.888262E-1,6.899675E-2,-5.0044667E-2,1.0378209E-1,5.5202264E-2,4.7625884E-2,-2.9271161E-2,1.2366495E-2,7.7581066E-1,2.5586996E-2,-7.321663E-2,1.16578706E-1,4.6464196E-1,1.0474832E0,7.1446126E-4,-4.0231716E-2,9.553846E-2,3.3517164E-1,1.0983753E-1,7.6706987E-4,2.0756005E-1,3.8498513E-2,1.3257416E-1,1.0312775E-2,1.306517E-1,-2.1499155E-2,-7.994679E-2,-1.7714955E-2,2.0040221E0,4.326897E-2,1.3042568E-3,8.4425054E-2,1.265088E-2,3.1051895E-2,-1.5590216E-2,5.7237107E-2,9.899991E-3,-7.3888013E-3,-5.7999384E-2,-8.345968E-2,-1.92751E-2,-5.2675693E-3,6.538669E-2,1.8187296E-2,-5.6852203E-2,-7.268716E-2,-4.2922995E-3,7.3088355E-2,-1.844952E-2,-7.0973E-2,-2.0366026E-2,8.5526435E-3,7.7800296E-2],"split_indices":[1934,1416,1759,105,1752,271,1873,491,1925,289,500,0,1654,0,0,1814,948,86,0,1889,223,1749,1987,439,1202,1541,1826,0,0,1809,1989,0,0,0,537,0,0,1706,11,773,0,0,1700,321,1657,0,230,117,1844,0,1804,0,0,0,591,0,1366,0,0,71,0,0,0,0,0,0,0,0,0,0,0,0,0,0,0,0,0,0,0],"split_type":[0,0,0,0,0,0,0,0,0,0,0,0,0,0,0,0,0,0,0,0,0,0,0,0,0,0,0,0,0,0,0,0,0,0,0,0,0,0,0,0,0,0,0,0,0,0,0,0,0,0,0,0,0,0,0,0,0,0,0,0,0,0,0,0,0,0,0,0,0,0,0,0,0,0,0,0,0,0,0],"sum_hessian":[4.1090808E2,3.2012906E2,9.0779015E1,2.0248433E2,1.1764473E2,8.389136E1,6.887655E0,1.3647319E2,6.601113E1,2.893943E1,8.87053E1,3.9231868E0,7.996817E1,3.154336E0,3.7333188E0,1.24838356E2,1.1634838E1,5.788506E1,8.126072E0,1.0430648E1,1.8508781E1,1.3775163E1,7.493014E1,5.779099E1,2.2177183E1,6.906265E1,5.5775703E1,7.1831923E0,4.4516454E0,3.4739147E1,2.3145914E1,6.00445E0,4.426198E0,3.1476202E0,1.5361161E1,4.344848E0,9.430314E0,6.1207752E1,1.3722384E1,5.4626682E1,3.1643066E0,4.441146E0,1.7736038E1,6.2520075E0,6.2810642E1,4.8734694E0,5.0902233E1,2.1241467E1,1.349768E1,4.1283846E0,1.9017529E1,3.193327E0,1.2167834E1,5.1407614E0,5.6066994E1,4.565154E0,9.15723E0,5.1239723E1,3.3869574E0,1.4553812E1,3.1822262E0,3.1099749E0,3.1420326E0,2.5863224E1,3.694742E1,4.7722603E1,3.1796322E0,8.53876E0,1.2702706E1,4.1109953E0,9.386684E0,1.5840673E1,3.1768546E0,5.1906498E1,4.1604934E0,5.9704237E0,3.1868064E0,3.1476097E0,1.1406202E1],"tree_param":{"num_deleted":"0","num_feature":"1995","num_nodes":"79","size_leaf_vector":"1"}},{"base_weights":[-1.9833539E-2,7.7055836E-1,-3.5095376E-1,-2.2196953E-1,1.2578744E0,5.787427E-1,-5.365164E-1,-8.180612E-1,6.8983877E-1,1.377826E0,-4.9887907E-2,-2.4251385E-2,1.3093314E0,-8.3442646E-1,-4.5132056E-2,-1.3912085E0,8.4239796E-2,-3.8451307E-2,1.2043338E0,-1.1878509E-2,1.4874176E0,8.188769E-1,-9.057499E-1,1.1044769E-2,7.721875E-2,-1.0327684E0,4.059702E-1,-6.5569705E-1,5.4617155E-1,-7.832233E-2,-1.9793384E-2,4.899877E-2,-4.864088E-2,1.8493129E-2,7.229248E-2,1.5924538E0,4.6361345E-3,6.398653E-2,-2.1289317E-2,-7.224443E-2,2.4731925E-2,-2.393727E-1,-1.2520834E0,-6.95322E-1,1.2903705E0,4.2746183E-1,-9.985697E-1,-7.0548755E-1,9.541762E-1,1.6120799E-2,1.666935E0,5.0034034E-1,-1.0374985E0,1.2898861E-1,-1.4266748E0,1.4519225E-2,-6.0973793E-2,1.9541247E-2,7.427372E-2,-3.7945893E-2,5.512483E-2,3.1226112E-2,-1.2045118E0,3.1783313E-2,-6.34033E-2,-2.4106078E-2,1.2543776E0,8.526601E-2,2.9528847E-2,-3.7151556E-2,5.4487474E-2,8.651691E-3,-7.219323E-2,6.5085486E-2,-3.8888626E-2,-7.7178575E-2,-1.3233856E-3,-7.125292E-2,2.2156116E-2,-2.2796726E-2,7.658011E-2],"categories":[],"categories_nodes":[],"categories_segments":[],"categories_sizes":[],"default_left":[0,0,0,0,0,0,0,0,0,0,0,0,0,0,0,0,0,0,0,0,0,0,0,0,0,0,0,0,0,0,0,0,0,0,0,0,0,0,0,0,0,0,0,0,0,0,0,0,0,0,0,0,0,0,0,0,0,0,0,0,0,0,0,0,0,0,0,0,0,0,0,0,0,0,0,0,0,0,0,0,0],"id":4,"left_children":[1,3,5,7,9,11,13,15,17,19,-1,21,23,25,27,29,31,-1,33,-1,35,37,39,-1,-1,41,43,45,47,-1,-1,-1,-1,-1,-1,49,-1,-1,-1,-1,-1,51,53,55,57,59,61,63,65,-1,67,69,71,73,75,-1,-1,-1,-1,-1,-1,-1,77,-1,-1,-1,79,-1,-1,-1,-1,-1,-1,-1,-1,-1,-1,-1,-1,-1,-1],"loss_changes":[1.0702949E2,5.904904E1,5.035911E1,2.3634747E1,2.4793E1,2.171103E1,3.51875E1,1.3814058E1,1.4939757E1,1.4659225E1,0E0,2.278437E1,4.8200874E0,3.782895E1,3.444272E1,1.3692493E0,1.319394E1,0E0,1.5054607E0,0E0,1.0300186E1,1.0143827E1,1.2859542E1,0E0,0E0,2.1878937E1,2.3338581E1,1.8342665E1,2.611369E1,0E0,0E0,0E0,0E0,0E0,0E0,5.171921E0,0E0,0E0,0E0,0E0,0E0,1.9236397E1,2.4925323E1,6.52259E0,9.3011665E-1,1.1811181E1,1.3703407E1,1.1484153E1,1.7434208E1,0E0,3.9263916E-1,1.4284576E1,8.250879E0,1.604955E1,1.4519852E1,0E0,0E0,0E0,0E0,0E0,0E0,0E0,1.3341553E1,0E0,0E0,0E0,1.6481457E1,0E0,0E0,0E0,0E0,0E0,0E0,0E0,0E0,0E0,0E0,0E0,0E0,0E0,0E0],"parents":[2147483647,0,0,1,1,2,2,3,3,4,4,5,5,6,6,7,7,8,8,9,9,11,11,12,12,13,13,14,14,15,15,16,16,18,18,20,20,21,21,22,22,25,25,26,26,27,27,28,28,35,35,41,41,42,42,43,43,44,44,45,45,46,46,47,47,48,48,50,50,51,51,52,52,53,53,54,54,62,62,66,66],"right_children":[2,4,6,8,10,12,14,16,18,20,-1,22,24,26,28,30,32,-1,34,-1,36,38,40,-1,-1,42,44,46,48,-1,-1,-1,-1,-1,-1,50,-1,-1,-1,-1,-1,52,54,56,58,60,62,64,66,-1,68,70,72,74,76,-1,-1,-1,-1,-1,-1,-1,78,-1,-1,-1,80,-1,-1,-1,-1,-1,-1,-1,-1,-1,-1,-1,-1,-1,-1],"split_conditions":[4.2963974E-2,4.9872676E-1,4.214723E-1,4.9674142E-2,1.960093E-1,4.0145454E-1,1.5034528E-1,8.020455E-1,4.821532E-2,2.4108474E-1,-4.9887907E-2,3.0392075E-1,1.1685049E-1,3.5697605E-2,1.2570226E-1,7.506912E-1,3.636675E-1,-3.8451307E-2,9.3689E-2,-1.1878509E-2,2.6472836E0,8.8779144E-2,8.3713216E-1,1.1044769E-2,7.721875E-2,1.7816745E-1,3.0004498E-1,5.3197414E-1,1.4714466E0,-7.832233E-2,-1.9793384E-2,4.899877E-2,-4.864088E-2,1.8493129E-2,7.229248E-2,2.728279E-4,4.6361345E-3,6.398653E-2,-2.1289317E-2,-7.224443E-2,2.4731925E-2,8.920601E-1,5.360707E-2,1.1738943E0,2.0927528E-2,9.269245E-1,5.381745E-1,3.2804172E-2,4.9278058E-2,1.6120799E-2,1.8295568E-1,7.6092964E-1,6.9342054E-2,1.34938E-3,1.7683741E0,1.4519225E-2,-6.0973793E-2,1.9541247E-2,7.427372E-2,-3.7945893E-2,5.512483E-2,3.1226112E-2,1.8793592E0,3.1783313E-2,-6.34033E-2,-2.4106078E-2,1.5237914E-1,8.526601E-2,2.9528847E-2,-3.7151556E-2,5.4487474E-2,8.651691E-3,-7.219323E-2,6.5085486E-2,-3.8888626E-2,-7.7178575E-2,-1.3233856E-3,-7.125292E-2,2.2156116E-2,-2.2796726E-2,7.658011E-2],"split_indices":[1645,1012,820,1904,1901,428,1925,963,159,28,0,89,1951,1834,240,519,218,0,1966,0,981,340,87,0,0,1622,140,1074,492,0,0,0,0,0,0,1380,0,0,0,0,0,616,1920,881,402,954,587,221,1935,0,1849,994,1704,1325,808,0,0,0,0,0,0,0,938,0,0,0,461,0,0,0,0,0,0,0,0,0,0,0,0,0,0],"split_type":[0,0,0,0,0,0,0,0,0,0,0,0,0,0,0,0,0,0,0,0,0,0,0,0,0,0,0,0,0,0,0,0,0,0,0,0,0,0,0,0,0,0,0,0,0,0,0,0,0,0,0,0,0,0,0,0,0,0,0,0,0,0,0,0,0,0,0,0,0,0,0,0,0,0,0,0,0,0,0,0,0],"sum_hessian":[4.050485E2,1.1871549E2,2.8633298E2,3.9384323E1,7.933117E1,4.6846825E1,2.3948616E2,2.4005869E1,1.5378456E1,7.6106575E1,3.2245936E0,2.6648844E1,2.0197983E1,1.4809894E2,9.1387215E1,1.4085687E1,9.920181E0,3.700834E0,1.1677622E1,4.6288357E0,7.1477745E1,1.3635506E1,1.3013337E1,4.3516207E0,1.5846362E1,1.2804042E2,2.0058525E1,4.493736E1,4.6449856E1,1.0915837E1,3.1698496E0,5.500002E0,4.4201794E0,3.8504977E0,7.827124E0,6.614127E1,5.336468E0,9.968518E0,3.666987E0,9.401635E0,3.611702E0,2.8733343E1,9.9307076E1,9.0738735E0,1.0984652E1,1.0615903E1,3.4321457E1,1.1000296E1,3.5449562E1,4.328742E0,6.181253E1,1.5234622E1,1.3498722E1,1.1139532E1,8.816754E1,3.3934557E0,5.6804175E0,3.1197252E0,7.8649263E0,3.7059658E0,6.909937E0,3.352082E0,3.0969374E1,3.1214232E0,7.8788724E0,5.8613157E0,2.9588245E1,5.8465927E1,3.3466053E0,4.677146E0,1.0557476E1,3.619329E0,9.879393E0,4.525645E0,6.613888E0,8.1119095E1,7.0484447E0,2.7605118E1,3.364256E0,3.8968678E0,2.5691378E1],"tree_param":{"num_deleted":"0","num_feature":"1995","num_nodes":"81","size_leaf_vector":"1"}},{"base_weights":[5.151728E-3,7.5394684E-1,-3.1074902E-1,-3.723269E-1,1.0214841E0,-1.0041369E-1,-1.0585912E0,-1.0079178E0,8.790066E-1,-4.7087856E-2,1.1287818E0,-4.8195484E-1,2.9854134E-1,3.473566E-2,-1.2361484E0,-6.781476E-2,6.228929E-3,5.9851497E-2,6.353941E-3,-5.2192356E-2,1.2469687E0,-7.0578855E-1,6.7391783E-1,-7.7022046E-2,9.0375817E-1,1.446031E-2,-1.3423654E0,1.357325E0,-5.385313E-2,3.823279E-1,-9.543294E-1,6.81908E-2,-3.156763E-1,-8.1515217E-1,4.943734E-1,-3.135045E-1,1.1298462E0,1.195987E-2,-1.4657283E0,1.4254352E0,-9.868566E-3,1.0751439E0,-4.950964E-1,-1.0945864E0,4.1502595E-1,-5.6153037E-2,3.8135942E-2,-1.232474E0,6.764355E-1,8.0918396E-1,-4.6525653E-2,1.9901915E-2,-4.5673132E-2,1.3119332E0,-2.042212E-2,-1.5638667E0,-7.971441E-3,2.6433691E-2,7.5919E-2,7.044062E-2,3.7114795E-3,-5.241206E-2,2.126619E-2,-1.3170925E-2,-6.5568395E-2,-2.8603083E-2,5.8455713E-2,9.803568E-4,-7.069015E-2,5.347986E-2,1.6898527E-4,6.315209E-2,-4.0103435E-3,7.451864E-2,-4.247096E-3,-2.5756462E-2,-8.065816E-2],"categories":[],"categories_nodes":[],"categories_segments":[],"categories_sizes":[],"default_left":[0,0,0,0,0,0,0,0,0,0,0,0,0,0,0,0,0,0,0,0,0,0,0,0,0,0,0,0,0,0,0,0,0,0,0,0,0,0,0,0,0,0,0,0,0,0,0,0,0,0,0,0,0,0,0,0,0,0,0,0,0,0,0,0,0,0,0,0,0,0,0,0,0,0,0,0,0],"id":5,"left_children":[1,3,5,7,9,11,13,15,17,-1,19,21,23,-1,25,-1,-1,-1,-1,-1,27,29,31,33,35,-1,37,39,-1,41,43,-1,45,47,49,51,53,-1,55,57,-1,59,61,63,65,-1,-1,67,69,71,-1,-1,-1,73,-1,75,-1,-1,-1,-1,-1,-1,-1,-1,-1,-1,-1,-1,-1,-1,-1,-1,-1,-1,-1,-1,-1],"loss_changes":[9.709819E1,3.7534615E1,4.5050213E1,2.149194E1,2.3009575E1,3.4931896E1,2.138871E1,7.332615E0,1.802012E0,0E0,2.6985039E1,3.1268671E1,2.5748947E1,0E0,1.0277359E1,0E0,0E0,0E0,0E0,0E0,2.6273972E1,2.7617222E1,1.45923815E1,3.0801445E1,1.2696659E1,0E0,1.1482765E1,9.976135E0,0E0,1.3159075E1,1.6612053E1,0E0,1.0249925E1,2.1536358E1,1.9980593E1,4.310529E0,1.15232315E1,0E0,5.8693924E0,5.221222E0,0E0,3.5695257E0,6.06658E0,1.2568237E1,8.057444E0,0E0,0E0,6.014454E0,2.0547035E0,1.4401379E1,0E0,0E0,0E0,8.770931E0,0E0,5.630493E-1,0E0,0E0,0E0,0E0,0E0,0E0,0E0,0E0,0E0,0E0,0E0,0E0,0E0,0E0,0E0,0E0,0E0,0E0,0E0,0E0,0E0],"parents":[2147483647,0,0,1,1,2,2,3,3,4,4,5,5,6,6,7,7,8,8,10,10,11,11,12,12,14,14,20,20,21,21,22,22,23,23,24,24,26,26,27,27,29,29,30,30,32,32,33,33,34,34,35,35,36,36,38,38,39,39,41,41,42,42,43,43,44,44,47,47,48,48,49,49,53,53,55,55],"right_children":[2,4,6,8,10,12,14,16,18,-1,20,22,24,-1,26,-1,-1,-1,-1,-1,28,30,32,34,36,-1,38,40,-1,42,44,-1,46,48,50,52,54,-1,56,58,-1,60,62,64,66,-1,-1,68,70,72,-1,-1,-1,74,-1,76,-1,-1,-1,-1,-1,-1,-1,-1,-1,-1,-1,-1,-1,-1,-1,-1,-1,-1,-1,-1,-1],"split_conditions":[4.315925E-2,1.0442827E-1,7.7420756E-2,6.8802916E-2,6.2420268E-2,7.3455624E-2,1.376214E0,2.63177E0,4.7931778E-1,-4.7087856E-2,8.839158E-1,1.5830298E-1,8.378786E-1,3.473566E-2,9.149221E-2,-6.781476E-2,6.228929E-3,5.9851497E-2,6.353941E-3,-5.2192356E-2,1.6317946E-1,8.708118E-1,1.0192834E-1,1.1078758E0,2.3815744E-3,1.446031E-2,6.39365E-2,1.0425843E-1,-5.385313E-2,2.5532842E-1,6.0260803E-3,6.81908E-2,1.1416902E-1,4.3251994E-3,6.8385735E-2,1.23229876E-1,7.3917486E-2,1.195987E-2,2.4532592E-3,7.8378475E-1,-9.868566E-3,1.9040132E0,8.7334174E-1,4.0750735E-2,7.716525E-1,-5.6153037E-2,3.8135942E-2,5.6225806E-1,8.244293E-2,1.8268755E-1,-4.6525653E-2,1.9901915E-2,-4.5673132E-2,1.5474768E-1,-2.042212E-2,7.395855E-3,-7.971441E-3,2.6433691E-2,7.5919E-2,7.044062E-2,3.7114795E-3,-5.241206E-2,2.126619E-2,-1.3170925E-2,-6.5568395E-2,-2.8603083E-2,5.8455713E-2,9.803568E-4,-7.069015E-2,5.347986E-2,1.6898527E-4,6.315209E-2,-4.0103435E-3,7.451864E-2,-4.247096E-3,-2.5756462E-2,-8.065816E-2],"split_indices":[1645,111,1872,1764,1911,1860,899,447,506,0,561,1582,510,0,1736,0,0,0,0,0,1980,628,9,401,1341,0,1850,1803,0,192,1320,0,1256,1352,1987,1847,1872,0,1144,153,0,948,385,76,765,0,0,564,1841,348,0,0,0,1797,0,117,0,0,0,0,0,0,0,0,0,0,0,0,0,0,0,0,0,0,0,0,0],"split_type":[0,0,0,0,0,0,0,0,0,0,0,0,0,0,0,0,0,0,0,0,0,0,0,0,0,0,0,0,0,0,0,0,0,0,0,0,0,0,0,0,0,0,0,0,0,0,0,0,0,0,0,0,0,0,0,0,0,0,0,0,0,0,0,0,0,0,0,0,0,0,0,0,0,0,0,0,0],"sum_hessian":[4.0631683E2,1.1982736E2,2.8648944E2,2.2778345E1,9.704902E1,2.2547536E2,6.1014103E1,1.5416695E1,7.3616495E0,4.174863E0,9.287416E1,1.15168434E2,1.10306915E2,5.0232363E0,5.5990864E1,1.1555174E1,3.8615212E0,4.248068E0,3.113582E0,3.9397268E0,8.893443E1,9.720924E1,1.795919E1,6.9042984E1,4.126393E1,3.3594632E0,5.26314E1,8.573812E1,3.196313E0,1.7800291E1,7.940895E1,1.0195859E1,7.763331E0,2.9830143E1,3.9212845E1,6.273213E0,3.499072E1,3.6137006E0,4.90177E1,8.2360565E1,3.3775506E0,9.758359E0,8.041932E0,7.2461395E1,6.9475603E0,4.445168E0,3.3181627E0,2.3632603E1,6.19754E0,3.288231E1,6.330534E0,3.1014123E0,3.1718006E0,3.1608526E1,3.3821933E0,4.515448E1,3.863222E0,9.091822E0,7.3268745E1,6.6323986E0,3.1259606E0,4.91754E0,3.124392E0,1.6001432E1,5.645996E1,3.1605809E0,3.7869794E0,3.1454494E0,2.0487154E1,3.0746136E0,3.122926E0,2.129012E1,1.159219E1,2.7972925E1,3.6356003E0,3.1463625E0,4.2008118E1],"tree_param":{"num_deleted":"0","num_feature":"1995","num_nodes":"77","size_leaf_vector":"1"}},{"base_weights":[9.238887E-3,-2.8894952E-1,7.887011E-1,-4.8213485E-1,5.3914076E-1,9.107476E-1,-3.5051394E-1,4.7793776E-2,-7.022126E-1,9.0860534E-1,-5.767788E-1,1.216532E0,3.1109682E-1,-6.622785E-2,4.0754482E-2,-7.223682E-1,6.5172184E-1,-9.483308E-1,1.5954147E-1,-2.8964639E-2,1.1321975E0,-1.0619812E0,2.3875946E-2,-2.4948163E-2,1.3198897E0,7.666369E-1,-6.2019986E-1,4.4753322E-1,-1.22549E0,-3.3394405E-1,1.2617383E0,-1.1255339E0,-2.8416447E-2,-6.5636116E-1,7.1446544E-1,-2.0698564E-2,1.2986369E0,-6.546285E-2,-1.2349222E-2,3.8123223E-1,1.4450651E0,1.1279097E0,-4.937441E-2,-1.095892E0,2.7336046E-2,6.3227504E-2,-2.6948392E-2,-7.4131325E-2,7.916548E-3,3.8928427E-2,-1.0321355E0,1.4593748E0,-4.428735E-3,-1.2112375E0,1.7491577E-2,-1.0464633E0,8.7055427E-1,-1.0319474E0,2.9338315E-2,1.0330886E0,-3.808979E-2,1.450652E0,1.6509822E-3,5.1797044E-2,-2.8387854E-2,1.5076107E-2,1.5153347E0,-5.8007534E-3,1.4013246E0,-1.4884054E-2,-6.774218E-2,-6.6835634E-2,-5.9384382E-3,7.938644E-2,2.1503253E-2,-6.712437E-2,-9.158919E-3,-7.890898E-3,-6.562986E-2,6.34116E-2,-1.2418409E-2,-6.957231E-2,4.545495E-3,-1.5851542E-2,6.5736175E-2,1.7127773E-2,7.723532E-2,1.5076614E-2,7.891625E-2,2.4195753E-2,7.55657E-2],"categories":[],"categories_nodes":[],"categories_segments":[],"categories_sizes":[],"default_left":[0,0,0,0,0,0,0,0,0,0,0,0,0,0,0,0,0,0,0,0,0,0,0,0,0,0,0,0,0,0,0,0,0,0,0,0,0,0,0,0,0,0,0,0,0,0,0,0,0,0,0,0,0,0,0,0,0,0,0,0,0,0,0,0,0,0,0,0,0,0,0,0,0,0,0,0,0,0,0,0,0,0,0,0,0,0,0,0,0,0,0],"id":6,"left_children":[1,3,5,7,9,11,13,15,17,19,21,23,25,-1,-1,27,29,31,33,-1,35,37,-1,-1,39,41,43,45,47,49,51,53,55,57,59,-1,61,-1,-1,63,65,67,-1,69,-1,-1,-1,-1,-1,-1,71,73,-1,75,-1,77,79,81,-1,83,-1,85,-1,-1,-1,-1,87,-1,89,-1,-1,-1,-1,-1,-1,-1,-1,-1,-1,-1,-1,-1,-1,-1,-1,-1,-1,-1,-1,-1,-1],"loss_changes":[9.3663414E1,4.7110374E1,1.6201675E1,2.781112E1,2.4146418E1,1.7678864E1,1.601309E1,3.4134743E1,3.600232E1,1.5629932E1,8.782261E0,1.316214E1,1.6677055E1,0E0,0E0,2.0155924E1,2.5666801E1,2.117788E1,1.8570812E1,0E0,1.0944481E1,1.4157658E0,0E0,0E0,6.138405E0,1.8614307E1,8.579491E0,1.0384567E1,8.837589E0,1.5026025E1,7.304516E0,1.4806076E1,2.3167627E1,9.06661E0,1.298536E1,0E0,6.461689E0,0E0,0E0,7.5879545E0,3.3185272E0,8.073614E0,0E0,1.1163225E0,0E0,0E0,0E0,0E0,0E0,0E0,2.7387629E0,1.4398308E0,0E0,1.3415741E1,0E0,2.2503443E0,6.701494E0,5.8868732E0,0E0,8.846506E0,0E0,1.9838715E0,0E0,0E0,0E0,0E0,2.772644E0,0E0,2.132225E-1,0E0,0E0,0E0,0E0,0E0,0E0,0E0,0E0,0E0,0E0,0E0,0E0,0E0,0E0,0E0,0E0,0E0,0E0,0E0,0E0,0E0,0E0],"parents":[2147483647,0,0,1,1,2,2,3,3,4,4,5,5,6,6,7,7,8,8,9,9,10,10,11,11,12,12,15,15,16,16,17,17,18,18,20,20,21,21,24,24,25,25,26,26,27,27,28,28,29,29,30,30,31,31,32,32,33,33,34,34,36,36,39,39,40,40,41,41,43,43,50,50,51,51,53,53,55,55,56,56,57,57,59,59,61,61,66,66,68,68],"right_children":[2,4,6,8,10,12,14,16,18,20,22,24,26,-1,-1,28,30,32,34,-1,36,38,-1,-1,40,42,44,46,48,50,52,54,56,58,60,-1,62,-1,-1,64,66,68,-1,70,-1,-1,-1,-1,-1,-1,72,74,-1,76,-1,78,80,82,-1,84,-1,86,-1,-1,-1,-1,88,-1,90,-1,-1,-1,-1,-1,-1,-1,-1,-1,-1,-1,-1,-1,-1,-1,-1,-1,-1,-1,-1,-1,-1],"split_conditions":[1.5485461E-1,4.3427983E-1,1.8504147E-1,1.7975135E-1,5.448578E-1,1.1836072E-1,2.6849557E-3,4.165942E-2,1.0781887E0,2.2295384E0,2.0300946E0,3.011151E-1,2.4469607E-1,-6.622785E-2,4.0754482E-2,1.1297568E-2,1.4350523E-1,2.0348285E-1,6.759723E-2,-2.8964639E-2,4.118173E-2,7.9204655E-1,2.3875946E-2,-2.4948163E-2,1.3475308E-5,1.1357605E-1,1.2151974E0,1.1196457E-1,3.9716862E-2,4.289934E-2,1.5313781E0,2.4186037E-3,1.21972464E-1,6.9199723E-1,1.1054712E-1,-2.0698564E-2,1.6255851E-1,-6.546285E-2,-1.2349222E-2,5.07995E-1,7.447674E-2,1.9120863E-1,-4.937441E-2,4.8734922E-2,2.7336046E-2,6.3227504E-2,-2.6948392E-2,-7.4131325E-2,7.916548E-3,3.8928427E-2,3.5504925E-1,2.200851E0,-4.428735E-3,1.2727841E0,1.7491577E-2,3.7208652E-1,1.3675086E0,3.168157E-1,2.9338315E-2,9.7587444E-2,-3.808979E-2,3.9210495E-2,1.6509822E-3,5.1797044E-2,-2.8387854E-2,1.5076107E-2,9.7881876E-2,-5.8007534E-3,1.7622378E-1,-1.4884054E-2,-6.774218E-2,-6.6835634E-2,-5.9384382E-3,7.938644E-2,2.1503253E-2,-6.712437E-2,-9.158919E-3,-7.890898E-3,-6.562986E-2,6.34116E-2,-1.2418409E-2,-6.957231E-2,4.545495E-3,-1.5851542E-2,6.5736175E-2,1.7127773E-2,7.723532E-2,1.5076614E-2,7.891625E-2,2.4195753E-2,7.55657E-2],"split_indices":[1934,1585,1849,1622,337,1654,1288,1929,449,933,915,1039,137,0,0,1941,240,1821,494,0,1745,883,0,0,1367,1858,615,37,1830,1190,721,1231,1810,1093,1855,0,465,0,0,559,60,487,0,304,0,0,0,0,0,0,36,960,0,756,0,356,925,336,0,1619,0,1875,0,0,0,0,195,0,387,0,0,0,0,0,0,0,0,0,0,0,0,0,0,0,0,0,0,0,0,0,0],"split_type":[0,0,0,0,0,0,0,0,0,0,0,0,0,0,0,0,0,0,0,0,0,0,0,0,0,0,0,0,0,0,0,0,0,0,0,0,0,0,0,0,0,0,0,0,0,0,0,0,0,0,0,0,0,0,0,0,0,0,0,0,0,0,0,0,0,0,0,0,0,0,0,0,0,0,0,0,0,0,0,0,0,0,0,0,0,0,0,0,0,0,0],"sum_hessian":[3.9880457E2,2.8927197E2,1.095326E2,2.3532846E2,5.394351E1,9.93752E1,1.0157397E1,6.937958E1,1.6594888E2,4.0872417E1,1.3071088E1,6.434106E1,3.5034145E1,5.431547E0,4.72585E0,3.024794E1,3.9131638E1,1.2901665E2,3.6932228E1,4.8655562E0,3.6006863E1,9.006463E0,4.064625E0,3.1662424E0,6.1174812E1,2.3835901E1,1.1198245E1,9.103026E0,2.1144913E1,1.5243064E1,2.3888573E1,1.0771228E2,2.1304375E1,1.4729584E1,2.2202646E1,3.151858E0,3.2855003E1,5.885229E0,3.1212337E0,8.244153E0,5.293066E1,2.0404474E1,3.4314265E0,8.1026535E0,3.0955915E0,4.7263446E0,4.376682E0,1.7772041E1,3.372872E0,5.7335835E0,9.50948E0,2.0762259E1,3.1263142E0,1.0220126E2,5.5110126E0,9.888811E0,1.1415564E1,1.1634615E1,3.094969E0,1.8810822E1,3.3918242E0,2.9000322E1,3.8546827E0,4.8324003E0,3.4117532E0,3.759228E0,4.9171432E1,3.8183193E0,1.6586155E1,3.1324048E0,4.970249E0,6.354111E0,3.1553693E0,1.740916E1,3.353098E0,9.0001976E1,1.2199289E1,3.0998588E0,6.788953E0,8.29125E0,3.1243136E0,8.518085E0,3.11653E0,3.1420126E0,1.566881E1,3.078504E0,2.5921818E1,3.0751827E0,4.609625E1,3.0291162E0,1.3557039E1],"tree_param":{"num_deleted":"0","num_feature":"1995","num_nodes":"91","size_leaf_vector":"1"}},{"base_weights":[-1.1909386E-2,-3.047989E-1,6.879207E-1,7.0145255E-1,-4.601592E-1,3.0268434E-1,1.2166995E0,5.989997E-2,1.3127378E0,-2.4891047E-1,-1.2120082E0,7.666882E-1,-2.732079E-1,-2.1197395E-3,1.3846027E0,9.3669236E-1,-6.7412615E-1,1.7212678E-2,7.466978E-2,-5.463724E-1,3.201914E-1,-1.3437033E0,2.7426893E-2,-2.709697E-1,1.1306524E0,5.3951044E-2,-6.685527E-1,1.375404E-2,1.4512649E0,6.450346E-2,1.85523E-3,-6.1428536E-2,1.9176826E-2,1.5428524E-2,-9.707951E-1,5.546663E-1,-1.0734409E0,3.0363647E-3,-1.4385371E0,4.369247E-2,-4.7438018E-2,7.563627E-2,1.5107189E-1,-1.067366E0,3.6354557E-2,7.633774E-2,1.7449027E-2,-4.6839437E-1,9.058673E-1,-1.0506488E0,2.1976922E-2,8.027779E-1,-8.338664E-1,-6.3276365E-2,-1.782792E-2,-7.644154E-2,-6.6898647E-3,-4.081292E-2,3.9403412E-2,7.3932094E-4,-7.282516E-2,-4.2114846E-2,2.2595625E-2,6.360858E-2,-1.13207195E-2,-1.9126652E-2,-6.633292E-2,-5.3066995E-2,4.844223E-2,-6.282469E-2,2.2384382E-3],"categories":[],"categories_nodes":[],"categories_segments":[],"categories_sizes":[],"default_left":[0,0,0,0,0,0,0,0,0,0,0,0,0,0,0,0,0,0,0,0,0,0,0,0,0,0,0,0,0,0,0,0,0,0,0,0,0,0,0,0,0,0,0,0,0,0,0,0,0,0,0,0,0,0,0,0,0,0,0,0,0,0,0,0,0,0,0,0,0,0,0],"id":7,"left_children":[1,3,5,7,9,11,13,15,17,19,21,23,25,-1,27,29,31,-1,-1,33,35,37,-1,39,41,-1,43,-1,45,-1,-1,-1,-1,47,49,51,53,-1,55,-1,-1,-1,57,59,-1,-1,-1,61,63,65,-1,67,69,-1,-1,-1,-1,-1,-1,-1,-1,-1,-1,-1,-1,-1,-1,-1,-1,-1,-1],"loss_changes":[8.270324E1,4.511605E1,2.3353954E1,1.4910921E1,3.861501E1,1.9606419E1,1.0692398E1,1.4864564E1,2.2311592E0,3.3569923E1,1.4014076E1,1.5913107E1,1.92228E1,0E0,2.2615356E0,3.1129208E0,8.405373E0,0E0,0E0,3.1037342E1,2.351001E1,7.056389E0,0E0,1.097927E1,1.07102165E1,0E0,1.666246E1,0E0,2.1315155E0,0E0,0E0,0E0,0E0,2.5732567E1,9.316689E0,2.1999975E1,3.7838173E-1,0E0,5.0299454E0,0E0,0E0,0E0,7.933773E0,9.423178E0,0E0,0E0,0E0,1.4084481E1,9.412901E0,1.1847076E1,0E0,1.813507E1,3.95184E0,0E0,0E0,0E0,0E0,0E0,0E0,0E0,0E0,0E0,0E0,0E0,0E0,0E0,0E0,0E0,0E0,0E0,0E0],"parents":[2147483647,0,0,1,1,2,2,3,3,4,4,5,5,6,6,7,7,8,8,9,9,10,10,11,11,12,12,14,14,15,15,16,16,19,19,20,20,21,21,23,23,24,24,26,26,28,28,33,33,34,34,35,35,36,36,38,38,42,42,43,43,47,47,48,48,49,49,51,51,52,52],"right_children":[2,4,6,8,10,12,14,16,18,20,22,24,26,-1,28,30,32,-1,-1,34,36,38,-1,40,42,-1,44,-1,46,-1,-1,-1,-1,48,50,52,54,-1,56,-1,-1,-1,58,60,-1,-1,-1,62,64,66,-1,68,70,-1,-1,-1,-1,-1,-1,-1,-1,-1,-1,-1,-1,-1,-1,-1,-1,-1,-1],"split_conditions":[1.5250725E-1,3.9743334E-1,2.956169E-1,1.5151195E-1,7.533554E-2,1.036992E0,1.704515E-1,1.0872151E0,8.026315E-2,2.8015512E-1,2.0097384E-1,6.938413E-2,7.9407796E-2,-2.1197395E-3,5.7536346E-1,6.522453E-2,9.685366E-1,1.7212678E-2,7.466978E-2,1.4604242E-1,5.7629965E-2,1.5961578E-1,2.7426893E-2,1.4852734E-1,7.932275E-1,5.3951044E-2,4.7164956E-1,1.375404E-2,1.0559593E-1,6.450346E-2,1.85523E-3,-6.1428536E-2,1.9176826E-2,3.191971E-2,1.4849178E-1,1.5035562E-1,1.3523803E0,3.0363647E-3,3.068715E-1,4.369247E-2,-4.7438018E-2,7.563627E-2,1.446702E-1,1.3679257E-1,3.6354557E-2,7.633774E-2,1.7449027E-2,1.2932153E-1,2.443566E-1,9.847088E-2,2.1976922E-2,3.5963413E-1,1.1599252E0,-6.3276365E-2,-1.782792E-2,-7.644154E-2,-6.6898647E-3,-4.081292E-2,3.9403412E-2,7.3932094E-4,-7.282516E-2,-4.2114846E-2,2.2595625E-2,6.360858E-2,-1.13207195E-2,-1.9126652E-2,-6.633292E-2,-5.3066995E-2,4.844223E-2,-6.282469E-2,2.2384382E-3],"split_indices":[1934,820,1639,1706,1675,851,383,920,1628,246,1943,1861,359,0,700,70,554,0,0,106,1784,249,0,348,259,0,320,0,1771,0,0,0,0,1834,1914,1867,881,0,258,0,0,0,267,1775,0,0,0,200,382,1654,0,1058,776,0,0,0,0,0,0,0,0,0,0,0,0,0,0,0,0,0,0],"split_type":[0,0,0,0,0,0,0,0,0,0,0,0,0,0,0,0,0,0,0,0,0,0,0,0,0,0,0,0,0,0,0,0,0,0,0,0,0,0,0,0,0,0,0,0,0,0,0,0,0,0,0,0,0,0,0,0,0,0,0,0,0,0,0,0,0,0,0,0,0,0,0],"sum_hessian":[3.9962476E2,2.8261707E2,1.17007706E2,3.677243E1,2.4584464E2,6.9620415E1,4.7387287E1,1.9093306E1,1.7679123E1,1.9410237E2,5.1742252E1,3.8284847E1,3.133557E1,5.681505E0,4.170578E1,8.510985E0,1.0582321E1,3.7799437E0,1.3899179E1,1.2764148E2,6.64609E1,4.8634556E1,3.1076963E0,1.0002911E1,2.8281937E1,6.249237E0,2.5086332E1,3.0298686E0,3.8675915E1,5.407508E0,3.1034775E0,6.792793E0,3.7895284E0,5.56587E1,7.198278E1,5.7981434E1,8.4794655E0,3.0551076E0,4.557945E1,3.4498677E0,6.5530434E0,1.9489647E1,8.792292E0,1.993257E1,5.153763E0,3.539126E1,3.284654E0,3.660493E1,1.9053768E1,6.867532E1,3.3074539E0,4.996848E1,8.012955E0,5.3703604E0,3.1091049E0,4.2236362E1,3.3430862E0,3.205166E0,5.5871253E0,5.7128158E0,1.4219753E1,2.622743E1,1.03775E1,1.4276427E1,4.7773414E0,2.157778E1,4.709754E1,3.1561449E0,4.6812336E1,4.9065785E0,3.106376E0],"tree_param":{"num_deleted":"0","num_feature":"1995","num_nodes":"71","size_leaf_vector":"1"}},{"base_weights":[9.062466E-3,-4.7585472E-1,4.3331972E-1,4.812356E-1,-7.055095E-1,-6.0539052E-2,7.970201E-1,-7.7591884E-1,8.1192774E-1,-2.7134662E-2,-9.220044E-1,2.9289442E-1,-7.5882906E-1,1.23796955E-1,1.1611531E0,-5.5514015E-2,-3.5782554E-3,1.1801571E0,5.103635E-2,6.29701E-1,-9.154955E-1,-1.6240228E-2,-1.1354258E0,6.2259233E-1,-6.32755E-1,1.6152456E-1,-1.2905239E0,-3.8588405E-1,9.0066963E-1,-1.5625109E-1,1.3367832E0,6.939977E-2,-0E0,-4.3650694E-2,4.633409E-2,-4.1671973E-2,1.111409E0,-6.2839374E-2,1.5418673E-2,7.42645E-1,-6.254832E-2,-1.3303226E0,-3.4702963E-1,-4.534878E-1,1.0107423E0,-1.017981E0,2.4269396E-2,5.2278638E-2,-3.938116E-2,-7.280819E-2,-9.921144E-3,-7.7231765E-1,6.237573E-1,-2.108936E-2,1.2221026E0,-4.9557116E-2,3.692917E-2,2.4372195E-3,1.3980278E0,-1.1532093E-2,7.2362736E-2,-3.1626627E-2,6.808937E-2,4.705569E-3,-1.3973992E0,-1.0370466E0,6.029271E-1,-9.071655E-1,2.9647721E-2,1.2747556E-1,1.4398476E0,-7.419821E-3,-6.590306E-2,-1.238486E0,1.746866E-2,5.460162E-2,-7.2973794E-3,6.970425E-2,1.4485234E-2,1.4780596E0,1.1718393E-3,-7.287155E-2,-8.368979E-3,-1.729027E-3,-6.679996E-2,5.800512E-2,-1.8522738E-2,-0E0,-6.4759344E-2,5.953439E-2,-3.067186E-2,2.223475E-2,7.690168E-2,-7.4252896E-2,-5.960072E-3,7.632928E-2,2.1744344E-2],"categories":[],"categories_nodes":[],"categories_segments":[],"categories_sizes":[],"default_left":[0,0,0,0,0,0,0,0,0,0,0,0,0,0,0,0,0,0,0,0,0,0,0,0,0,0,0,0,0,0,0,0,0,0,0,0,0,0,0,0,0,0,0,0,0,0,0,0,0,0,0,0,0,0,0,0,0,0,0,0,0,0,0,0,0,0,0,0,0,0,0,0,0,0,0,0,0,0,0,0,0,0,0,0,0,0,0,0,0,0,0,0,0,0,0,0,0],"id":8,"left_children":[1,3,5,7,9,11,13,15,17,19,21,23,25,27,29,-1,-1,31,33,35,37,39,41,43,45,47,49,51,53,55,57,-1,-1,-1,-1,-1,59,-1,-1,61,-1,63,65,67,69,71,-1,-1,-1,-1,-1,73,75,-1,77,-1,-1,-1,79,-1,-1,-1,-1,-1,81,83,85,87,-1,89,91,-1,-1,93,-1,-1,-1,-1,-1,95,-1,-1,-1,-1,-1,-1,-1,-1,-1,-1,-1,-1,-1,-1,-1,-1,-1],"loss_changes":[8.1836784E1,4.1483498E1,3.829607E1,1.6649796E1,2.1962784E1,2.3138674E1,2.961341E1,1.7641902E0,8.257843E0,2.3699255E1,2.1873817E1,1.9792347E1,1.5939312E1,1.8696995E1,1.8852295E1,0E0,0E0,4.8649406E0,1.13931465E1,1.8306927E1,8.089347E0,2.4253122E1,1.3059837E1,2.0606516E1,8.479428E0,1.2781809E1,2.9199219E0,1.2174742E1,9.033293E0,9.734177E0,5.2510757E0,0E0,0E0,0E0,0E0,0E0,9.101618E0,0E0,0E0,1.539621E1,0E0,7.371414E0,1.5099466E1,7.6461163E0,1.2830372E1,2.9993782E0,0E0,0E0,0E0,0E0,0E0,1.2311038E1,3.6493828E0,0E0,1.5201359E0,0E0,0E0,0E0,7.1290894E0,0E0,0E0,0E0,0E0,0E0,4.5141754E0,3.6653633E0,6.397374E0,3.7817192E0,0E0,1.2382297E1,7.2444534E-1,0E0,0E0,3.858675E0,0E0,0E0,0E0,0E0,0E0,1.6662903E0,0E0,0E0,0E0,0E0,0E0,0E0,0E0,0E0,0E0,0E0,0E0,0E0,0E0,0E0,0E0,0E0,0E0],"parents":[2147483647,0,0,1,1,2,2,3,3,4,4,5,5,6,6,7,7,8,8,9,9,10,10,11,11,12,12,13,13,14,14,17,17,18,18,19,19,20,20,21,21,22,22,23,23,24,24,25,25,26,26,27,27,28,28,29,29,30,30,36,36,39,39,41,41,42,42,43,43,44,44,45,45,51,51,52,52,54,54,58,58,64,64,65,65,66,66,67,67,69,69,70,70,73,73,79,79],"right_children":[2,4,6,8,10,12,14,16,18,20,22,24,26,28,30,-1,-1,32,34,36,38,40,42,44,46,48,50,52,54,56,58,-1,-1,-1,-1,-1,60,-1,-1,62,-1,64,66,68,70,72,-1,-1,-1,-1,-1,74,76,-1,78,-1,-1,-1,80,-1,-1,-1,-1,-1,82,84,86,88,-1,90,92,-1,-1,94,-1,-1,-1,-1,-1,96,-1,-1,-1,-1,-1,-1,-1,-1,-1,-1,-1,-1,-1,-1,-1,-1,-1],"split_conditions":[1.5034528E-1,4.214723E-1,1.8623087E-1,1.0905518E-1,1.790628E-1,9.417845E-1,2.2876275E-1,1.5872889E0,3.468454E-1,8.920601E-1,2.9588237E-1,2.7234575E-1,6.721349E-1,7.2462467E-4,9.3480736E-2,-5.5514015E-2,-3.5782554E-3,5.5517477E-1,2.2635424E-1,8.425824E-2,2.1609104E-1,1.1639912E-1,1.5201523E0,4.494016E-2,1.772444E-1,1.0524504E-1,6.0508674E-1,1.7946656E-1,1.2626216E-1,7.894977E-2,5.143453E-1,6.939977E-2,-0E0,-4.3650694E-2,4.633409E-2,-4.1671973E-2,1.9465512E-2,-6.2839374E-2,1.5418673E-2,1.8423516E-1,-6.254832E-2,1.9537922E-2,9.2841715E-2,1.511933E0,1.6319197E-4,1.16811685E-1,2.4269396E-2,5.2278638E-2,-3.938116E-2,-7.280819E-2,-9.921144E-3,9.743233E-3,6.5983063E-1,-2.108936E-2,4.8566616E-1,-4.9557116E-2,3.692917E-2,2.4372195E-3,1.9792713E-1,-1.1532093E-2,7.2362736E-2,-3.1626627E-2,6.808937E-2,4.705569E-3,2.4975155E-2,2.598267E0,2.4865457E-1,6.846885E-2,2.9647721E-2,8.858826E-2,1.3873161E0,-7.419821E-3,-6.590306E-2,6.157264E-1,1.746866E-2,5.460162E-2,-7.2973794E-3,6.970425E-2,1.4485234E-2,2.9919145E0,1.1718393E-3,-7.287155E-2,-8.368979E-3,-1.729027E-3,-6.679996E-2,5.800512E-2,-1.8522738E-2,-0E0,-6.4759344E-2,5.953439E-2,-3.067186E-2,2.223475E-2,7.690168E-2,-7.4252896E-2,-5.960072E-3,7.632928E-2,2.1744344E-2],"split_indices":[1925,820,1886,1161,1622,616,258,788,260,616,225,450,655,1364,1691,0,0,75,1655,482,1886,1625,998,500,34,1913,8,326,179,1880,516,0,0,0,0,0,1653,0,0,1701,0,304,1771,411,1292,970,0,0,0,0,0,1571,1085,0,346,0,0,0,1759,0,0,0,0,0,66,990,283,408,0,359,1001,0,0,81,0,0,0,0,0,960,0,0,0,0,0,0,0,0,0,0,0,0,0,0,0,0,0],"split_type":[0,0,0,0,0,0,0,0,0,0,0,0,0,0,0,0,0,0,0,0,0,0,0,0,0,0,0,0,0,0,0,0,0,0,0,0,0,0,0,0,0,0,0,0,0,0,0,0,0,0,0,0,0,0,0,0,0,0,0,0,0,0,0,0,0,0,0,0,0,0,0,0,0,0,0,0,0,0,0,0,0,0,0,0,0,0,0,0,0,0,0,0,0,0,0,0,0],"sum_hessian":[3.938041E2,1.8354129E2,2.102628E2,3.5010017E1,1.4853128E2,8.976521E1,1.204976E2,6.6675735E0,2.8342443E1,3.659027E1,1.11941E2,6.0275295E1,2.948992E1,4.333421E1,7.716338E1,3.6434212E0,3.024152E0,1.8268188E1,1.0074255E1,2.130647E1,1.5283802E1,2.184618E1,9.0094826E1,4.500739E1,1.5267905E1,1.123928E1,1.8250639E1,2.6697014E1,1.6637197E1,9.035945E0,6.812744E1,1.5177967E1,3.0902221E0,4.849008E0,5.225247E0,4.8641486E0,1.6442322E1,1.1972912E1,3.31089E0,1.39737425E1,7.872438E0,7.103332E1,1.9061508E1,1.1773384E1,3.3234005E1,1.1555396E1,3.7125087E0,5.768553E0,5.470727E0,1.5188673E1,3.0619655E0,1.9718895E1,6.978118E0,3.0701792E0,1.3567018E1,4.6209984E0,4.414946E0,3.3294802E0,6.479796E1,3.3568764E0,1.3085445E1,4.274618E0,9.699124E0,3.09123E0,6.7942085E1,1.0996169E1,8.065338E0,8.465136E0,3.3082478E0,1.1790899E1,2.1443106E1,3.8169053E0,7.738491E0,1.3845632E1,5.8732634E0,3.8986382E0,3.0794797E0,1.0527612E1,3.0394056E0,6.102183E1,3.776126E0,6.4350365E1,3.5917194E0,3.1153705E0,7.880799E0,4.950624E0,3.1147146E0,3.0768027E0,5.3883333E0,4.399073E0,7.3918266E0,3.0102072E0,1.8432898E1,1.0737332E1,3.1082993E0,5.7332203E1,3.6896315E0],"tree_param":{"num_deleted":"0","num_feature":"1995","num_nodes":"97","size_leaf_vector":"1"}},{"base_weights":[1.1798672E-2,-2.5237754E-1,7.2847766E-1,-6.1441207E-1,1.6892205E-1,-2.1186666E-1,9.5103115E-1,7.050482E-1,-7.268341E-1,4.6328577E-1,-6.724273E-1,-8.028211E-1,6.237329E-1,1.0330018E0,-2.8663684E-2,5.9833672E-2,-2.5253111E-2,8.044446E-1,-8.134637E-1,6.4109796E-1,-7.662233E-1,-1.1939825E0,3.3071664E-1,1.722275E-2,-6.0723484E-2,-1.598228E-2,5.7270415E-2,1.1137836E0,-2.56488E-2,5.7829153E-2,3.577558E-3,8.143551E-2,-9.424828E-1,8.2143795E-1,-3.4155935E-1,-6.0109157E-2,9.067857E-3,-7.0728265E-2,4.3976624E-3,-3.196312E-2,5.0885815E-2,1.1878402E0,-7.4476595E-3,9.3891525E-1,-6.0935892E-2,-1.1983502E0,-3.2554534E-1,9.682189E-1,-3.6494392E-1,3.5653267E-2,-8.6122084E-1,1.2988328E0,2.615344E-1,6.815299E-2,-1.0016058E-2,-6.486153E-2,-1.0605096E-2,-4.5274295E-2,1.222544E-2,5.4825243E-2,-1.3751647E-2,2.8349573E-2,-5.200035E-2,3.3418685E-3,-6.2291343E-2,-1.403326E-4,6.8205886E-2,-3.3565737E-2,5.3848177E-2],"categories":[],"categories_nodes":[],"categories_segments":[],"categories_sizes":[],"default_left":[0,0,0,0,0,0,0,0,0,0,0,0,0,0,0,0,0,0,0,0,0,0,0,0,0,0,0,0,0,0,0,0,0,0,0,0,0,0,0,0,0,0,0,0,0,0,0,0,0,0,0,0,0,0,0,0,0,0,0,0,0,0,0,0,0,0,0,0,0],"id":9,"left_children":[1,3,5,7,9,11,13,15,17,19,21,23,25,27,-1,-1,-1,29,31,33,35,37,39,-1,-1,-1,-1,41,-1,-1,-1,43,45,47,49,-1,-1,-1,-1,-1,-1,51,-1,53,-1,55,57,59,61,-1,63,65,67,-1,-1,-1,-1,-1,-1,-1,-1,-1,-1,-1,-1,-1,-1,-1,-1],"loss_changes":[7.3584274E1,4.353258E1,2.238898E1,2.3748234E1,3.343891E1,1.1679419E1,1.1865471E1,8.994982E0,2.0173294E1,2.2721468E1,1.9236408E1,7.3416204E0,5.7353125E0,1.13871E1,0E0,0E0,0E0,1.9202828E0,1.5900917E1,1.6218536E1,6.0782638E0,7.0515213E0,1.0338288E1,0E0,0E0,0E0,0E0,7.7697296E0,0E0,0E0,0E0,2.3258974E1,1.7821815E1,1.3844421E1,9.4556465E0,0E0,0E0,0E0,0E0,0E0,0E0,6.7889023E0,0E0,6.714823E0,0E0,7.4045715E0,1.2969092E1,1.1443344E1,7.294944E0,0E0,4.2136326E0,5.7201233E0,9.500658E0,0E0,0E0,0E0,0E0,0E0,0E0,0E0,0E0,0E0,0E0,0E0,0E0,0E0,0E0,0E0,0E0],"parents":[2147483647,0,0,1,1,2,2,3,3,4,4,5,5,6,6,7,7,8,8,9,9,10,10,11,11,12,12,13,13,17,17,18,18,19,19,20,20,21,21,22,22,27,27,31,31,32,32,33,33,34,34,41,41,43,43,45,45,46,46,47,47,48,48,50,50,51,51,52,52],"right_children":[2,4,6,8,10,12,14,16,18,20,22,24,26,28,-1,-1,-1,30,32,34,36,38,40,-1,-1,-1,-1,42,-1,-1,-1,44,46,48,50,-1,-1,-1,-1,-1,-1,52,-1,54,-1,56,58,60,62,-1,64,66,68,-1,-1,-1,-1,-1,-1,-1,-1,-1,-1,-1,-1,-1,-1,-1,-1],"split_conditions":[1.5485461E-1,2.066767E-1,1.8437491E-1,7.8419924E-2,1.6246822E-1,4.7358487E-2,8.171512E-2,1.7234577E0,5.796112E-1,1.3962191E-1,1.04972E0,9.844882E-2,8.8993484E-1,6.9126195E-1,-2.8663684E-2,5.9833672E-2,-2.5253111E-2,1.2831851E0,3.9167473E-1,5.154228E-1,5.246633E-1,7.094455E-2,2.5047366E-2,1.722275E-2,-6.0723484E-2,-1.598228E-2,5.7270415E-2,5.8103753E-3,-2.56488E-2,5.7829153E-2,3.577558E-3,1.0991208E-1,6.160153E-1,1.4982712E-1,2.5359679E-2,-6.0109157E-2,9.067857E-3,-7.0728265E-2,4.3976624E-3,-3.196312E-2,5.0885815E-2,1.066734E0,-7.4476595E-3,6.0816196E-4,-6.0935892E-2,1.837509E-1,5.875818E-2,1.0919427E-1,6.4669484E-1,3.5653267E-2,1.8545265E-1,3.7333656E-2,7.5382836E-2,6.815299E-2,-1.0016058E-2,-6.486153E-2,-1.0605096E-2,-4.5274295E-2,1.222544E-2,5.4825243E-2,-1.3751647E-2,2.8349573E-2,-5.200035E-2,3.3418685E-3,-6.2291343E-2,-1.403326E-4,6.8205886E-2,-3.3565737E-2,5.3848177E-2],"split_indices":[1934,1585,271,1657,1936,1918,1017,925,782,1731,480,38,579,1088,0,0,0,573,1061,903,84,500,496,0,0,0,0,1587,0,0,0,1835,1064,1966,1881,0,0,0,0,0,0,607,0,1139,0,1844,1618,1870,456,0,324,327,1870,0,0,0,0,0,0,0,0,0,0,0,0,0,0,0,0],"split_type":[0,0,0,0,0,0,0,0,0,0,0,0,0,0,0,0,0,0,0,0,0,0,0,0,0,0,0,0,0,0,0,0,0,0,0,0,0,0,0,0,0,0,0,0,0,0,0,0,0,0,0,0,0,0,0,0,0,0,0,0,0,0,0,0,0,0,0,0,0],"sum_hessian":[3.8446353E2,2.8175977E2,1.02703766E2,1.5117311E2,1.3058665E2,1.9587667E1,8.31161E1,1.097153E1,1.4020158E2,9.749393E1,3.309273E1,1.1589469E1,7.998198E0,7.9548546E1,3.5675547E0,7.876451E0,3.095079E0,6.5578365E0,1.3364375E2,8.608304E1,1.1410888E1,2.1587927E1,1.1504804E1,3.0823653E0,8.507104E0,3.0555341E0,4.9426637E0,7.619115E1,3.3573997E0,3.5564082E0,3.0014284E0,1.6835102E1,1.1680865E2,7.309782E1,1.298522E1,7.5194983E0,3.891389E0,1.8308643E1,3.2792835E0,4.767274E0,6.73753E0,7.215711E1,4.034033E0,1.0525743E1,6.3093596E0,8.111872E1,3.568993E1,6.545206E1,7.6457577E0,3.977111E0,9.008109E0,6.362152E1,8.535588E0,7.4477453E0,3.0779974E0,7.306159E1,8.057128E0,1.7195147E1,1.8494781E1,5.961694E1,5.8351183E0,3.28408E0,4.3616776E0,3.0473216E0,5.960788E0,3.0568483E0,6.0564674E1,4.0888205E0,4.4467683E0],"tree_param":{"num_deleted":"0","num_feature":"1995","num_nodes":"69","size_leaf_vector":"1"}},{"base_weights":[-2.7879197E-2,5.939423E-1,-2.7405387E-1,-3.194838E-1,1.0396817E0,-3.9288777E-1,7.5646305E-1,-7.4356705E-1,7.422327E-1,1.28684E0,1.3522819E-1,-5.3035444E-1,4.3435797E-1,1.1868981E0,-4.5479104E-1,-1.0377723E0,2.5559703E-2,-1.3779654E-2,5.884115E-2,1.3884547E0,-1.3035896E-2,-4.9113434E-2,7.446012E-1,4.0037203E-1,-6.40542E-1,-5.1169866E-1,1.0045295E0,6.78788E-2,7.862914E-3,-5.4853767E-2,2.0600751E-2,9.819274E-3,-1.3168617E0,7.25646E-2,1.1389236E-2,-2.176744E-2,6.2298298E-2,7.991475E-1,-4.914008E-2,-8.2968056E-1,-1.488435E-1,3.6864433E-2,-1.0441767E0,1.2650071E0,-1.3741697E-2,-7.39618E-2,-1.2250195E-2,1.165132E0,-1.5325881E-2,-9.1662055E-1,7.9857075E-1,-9.6400046E-1,1.4617352E-1,-5.993336E-3,-6.726362E-2,7.01436E-2,1.5505609E-2,6.771896E-2,1.0798973E-2,-1.6799325E-2,-5.550441E-2,9.850866E-3,5.2985877E-2,-6.5600626E-2,6.5567726E-3,-5.2890576E-2,2.3332296E-2],"categories":[],"categories_nodes":[],"categories_segments":[],"categories_sizes":[],"default_left":[0,0,0,0,0,0,0,0,0,0,0,0,0,0,0,0,0,0,0,0,0,0,0,0,0,0,0,0,0,0,0,0,0,0,0,0,0,0,0,0,0,0,0,0,0,0,0,0,0,0,0,0,0,0,0,0,0,0,0,0,0,0,0,0,0,0,0],"id":10,"left_children":[1,3,5,7,9,11,13,15,17,19,21,23,25,27,29,31,-1,-1,-1,33,-1,-1,35,37,39,41,43,-1,-1,-1,-1,-1,45,-1,-1,-1,-1,47,-1,49,51,-1,53,55,-1,-1,-1,57,-1,59,61,63,65,-1,-1,-1,-1,-1,-1,-1,-1,-1,-1,-1,-1,-1,-1],"loss_changes":[5.9362263E1,4.5504814E1,3.459233E1,1.799591E1,1.6150154E1,2.8967018E1,1.6445248E1,1.1403808E1,5.888317E0,9.979797E0,1.3899334E1,2.267698E1,2.0875753E1,3.3327389E0,6.025171E0,8.656414E0,0E0,0E0,0E0,3.177597E0,0E0,0E0,8.878105E0,1.4783407E1,1.7687523E1,1.1587059E1,8.673029E0,0E0,0E0,0E0,0E0,0E0,2.4673882E0,0E0,0E0,0E0,0E0,8.803694E0,0E0,2.1216156E1,1.39389E1,0E0,2.7157345E0,1.6000748E0,0E0,0E0,0E0,2.014164E0,0E0,1.4091362E1,7.2590923E-1,6.314027E0,1.7556196E1,0E0,0E0,0E0,0E0,0E0,0E0,0E0,0E0,0E0,0E0,0E0,0E0,0E0,0E0],"parents":[2147483647,0,0,1,1,2,2,3,3,4,4,5,5,6,6,7,7,8,8,9,9,10,10,11,11,12,12,13,13,14,14,15,15,19,19,22,22,23,23,24,24,25,25,26,26,32,32,37,37,39,39,40,40,42,42,43,43,47,47,49,49,50,50,51,51,52,52],"right_children":[2,4,6,8,10,12,14,16,18,20,22,24,26,28,30,32,-1,-1,-1,34,-1,-1,36,38,40,42,44,-1,-1,-1,-1,-1,46,-1,-1,-1,-1,48,-1,50,52,-1,54,56,-1,-1,-1,58,-1,60,62,64,66,-1,-1,-1,-1,-1,-1,-1,-1,-1,-1,-1,-1,-1,-1],"split_conditions":[4.2718735E-2,4.0583313E-2,1.5673513E-3,6.8441294E-2,2.058165E-1,1.5924656E-1,1.1651578E-1,1.2593005E0,4.6770647E-2,2.2898056E-1,1.0645471E0,3.6146212E-1,2.316035E-1,9.359563E-4,1.8251785E-3,4.669737E-2,2.5559703E-2,-1.3779654E-2,5.884115E-2,2.570143E0,-1.3035896E-2,-4.9113434E-2,3.3703205E-1,1.455356E-1,1.1454631E0,3.173746E-1,7.2127156E-2,6.78788E-2,7.862914E-3,-5.4853767E-2,2.0600751E-2,9.819274E-3,1.0163101E0,7.25646E-2,1.1389236E-2,-2.176744E-2,6.2298298E-2,1.350053E0,-4.914008E-2,2.122876E-1,1.052238E0,3.6864433E-2,3.8134298E-1,2.4962817E-1,-1.3741697E-2,-7.39618E-2,-1.2250195E-2,7.678413E-3,-1.5325881E-2,6.9985056E-1,6.4400814E-2,6.4970285E-1,9.2524774E-2,-5.993336E-3,-6.726362E-2,7.01436E-2,1.5505609E-2,6.771896E-2,1.0798973E-2,-1.6799325E-2,-5.550441E-2,9.850866E-3,5.2985877E-2,-6.5600626E-2,6.5567726E-3,-5.2890576E-2,2.3332296E-2],"split_indices":[1645,500,1128,1783,176,1934,1815,782,1935,1732,542,839,1620,1112,22,1682,0,0,0,981,0,0,409,1735,756,1055,355,0,0,0,0,0,793,0,0,0,0,417,0,1619,778,0,264,416,0,0,0,479,0,919,1932,850,1619,0,0,0,0,0,0,0,0,0,0,0,0,0,0],"split_type":[0,0,0,0,0,0,0,0,0,0,0,0,0,0,0,0,0,0,0,0,0,0,0,0,0,0,0,0,0,0,0,0,0,0,0,0,0,0,0,0,0,0,0,0,0,0,0,0,0,0,0,0,0,0,0,0,0,0,0,0,0,0,0,0,0,0,0],"sum_hessian":[3.8387653E2,1.0795571E2,2.7592084E2,3.5516373E1,7.243934E1,2.4858931E2,2.7331507E1,2.5874695E1,9.641676E0,5.614153E1,1.6297812E1,2.1388574E2,3.4703568E1,2.0256035E1,7.0754733E0,2.1304878E1,4.5698175E0,3.0350626E0,6.6066136E0,5.293592E1,3.2056093E0,5.2613425E0,1.10364685E1,2.198758E1,1.9189816E2,1.3061314E1,2.1642254E1,1.6746023E1,3.5100107E0,3.8251684E0,3.250305E0,3.9725003E0,1.7332378E1,4.966042E1,3.2754989E0,3.3101053E0,7.7263627E0,1.7778673E1,4.208905E0,1.3744856E2,5.444961E1,3.6179435E0,9.44337E0,1.8064863E1,3.5773897E0,1.4310994E1,3.0213833E0,1.334443E1,4.4342446E0,1.3136963E2,6.0789213E0,1.3354299E1,4.1095314E1,3.0890028E0,6.354367E0,1.48743515E1,3.1905127E0,1.0326291E1,3.018138E0,3.4329704E1,9.703993E1,3.0182197E0,3.0607014E0,9.902671E0,3.4516277E0,7.6061397E0,3.3489174E1],"tree_param":{"num_deleted":"0","num_feature":"1995","num_nodes":"67","size_leaf_vector":"1"}},{"base_weights":[1.5761217E-2,-4.3432066E-1,3.9588982E-1,1.064086E0,-5.588366E-1,-1.1041945E0,5.1344204E-1,1.1191645E-2,6.428227E-2,-7.5050706E-1,3.4675792E-1,-6.841809E-2,-8.593122E-4,-8.632756E-2,7.8990024E-1,5.781471E-1,-8.577423E-1,-7.966797E-1,7.5094265E-1,9.9862474E-1,-4.921394E-1,1.2807558E0,4.7415516E-1,-2.5019852E-2,6.110998E-2,-9.5058995E-1,4.758156E-1,-5.1383704E-2,-9.70299E-3,1.0559683E0,-3.3623416E-2,-1.0241931E-2,6.719692E-2,-8.640678E-1,6.6275E-1,-6.79179E-4,1.3734075E0,-9.817664E-2,8.4496254E-1,-1.0463008E0,1.5153642E-1,5.7398796E-2,-2.6100425E-2,-1.6631505E-2,6.764902E-2,3.1040702E-2,-1.0605873E0,5.910733E-2,-5.5899997E-3,7.152154E-2,2.053401E-2,3.1311902E-1,-1.0667266E0,2.8797546E-1,1.2910762E0,-5.5181306E-2,1.24774305E-2,4.0754896E-2,-3.3512913E-2,-6.521302E-2,1.4380418E-2,-4.3243393E-2,3.1309612E-2,-1.4815191E-2,-6.470012E-2,-2.849244E-2,3.709143E-2,6.992011E-2,1.3111283E-2],"categories":[],"categories_nodes":[],"categories_segments":[],"categories_sizes":[],"default_left":[0,0,0,0,0,0,0,0,0,0,0,0,0,0,0,0,0,0,0,0,0,0,0,0,0,0,0,0,0,0,0,0,0,0,0,0,0,0,0,0,0,0,0,0,0,0,0,0,0,0,0,0,0,0,0,0,0,0,0,0,0,0,0,0,0,0,0,0,0],"id":11,"left_children":[1,3,5,7,9,11,13,-1,-1,15,17,-1,-1,19,21,23,25,27,29,31,33,35,37,-1,-1,39,41,-1,-1,43,-1,-1,-1,45,47,-1,49,51,53,55,57,-1,-1,-1,-1,-1,59,-1,-1,-1,-1,61,63,65,67,-1,-1,-1,-1,-1,-1,-1,-1,-1,-1,-1,-1,-1,-1],"loss_changes":[6.579994E1,3.3979374E1,3.785714E1,1.9043579E0,2.9007496E1,4.331602E0,3.2516483E1,0E0,0E0,2.039421E1,1.5012596E1,0E0,0E0,2.8744545E1,1.9329933E1,9.131201E0,1.6639938E1,6.9222593E-1,1.1526528E1,8.056999E0,2.1516796E1,6.293373E0,1.8206806E1,0E0,0E0,1.29795E1,7.6394205E0,0E0,0E0,9.222847E0,0E0,0E0,0E0,1.2091173E1,5.4435215E0,0E0,1.2605133E0,1.46738825E1,1.1941643E1,8.807877E0,7.2076592E0,0E0,0E0,0E0,0E0,0E0,1.1782352E1,0E0,0E0,0E0,0E0,1.0655264E1,9.9143314E-1,1.0853092E1,2.1952438E0,0E0,0E0,0E0,0E0,0E0,0E0,0E0,0E0,0E0,0E0,0E0,0E0,0E0,0E0],"parents":[2147483647,0,0,1,1,2,2,3,3,4,4,5,5,6,6,9,9,10,10,13,13,14,14,15,15,16,16,17,17,18,18,19,19,20,20,21,21,22,22,25,25,26,26,29,29,33,33,34,34,36,36,37,37,38,38,39,39,40,40,46,46,51,51,52,52,53,53,54,54],"right_children":[2,4,6,8,10,12,14,-1,-1,16,18,-1,-1,20,22,24,26,28,30,32,34,36,38,-1,-1,40,42,-1,-1,44,-1,-1,-1,46,48,-1,50,52,54,56,58,-1,-1,-1,-1,-1,60,-1,-1,-1,-1,62,64,66,68,-1,-1,-1,-1,-1,-1,-1,-1,-1,-1,-1,-1,-1,-1],"split_conditions":[1.5034528E-1,2.3067877E-2,1.0297447E-1,2.4733087E-1,3.243227E-2,8.7131545E-2,4.3577496E-2,1.1191645E-2,6.428227E-2,3.5449117E-1,2.1541348E-1,-6.841809E-2,-8.593122E-4,1.389093E-1,5.3543996E-2,4.4031154E-2,2.6794085E-1,1.101418E0,1.7136961E-1,6.240504E-1,1.5643828E-1,2.865983E-1,2.586855E-1,-2.5019852E-2,6.110998E-2,9.925721E-3,6.584238E-2,-5.1383704E-2,-9.70299E-3,9.376021E-2,-3.3623416E-2,-1.0241931E-2,6.719692E-2,2.4410558E-1,1.1860639E0,-6.79179E-4,2.1220276E-1,1.9192466E-1,1.0004973E-1,2.4223056E0,8.174513E-3,5.7398796E-2,-2.6100425E-2,-1.6631505E-2,6.764902E-2,3.1040702E-2,1.0714039E0,5.910733E-2,-5.5899997E-3,7.152154E-2,2.053401E-2,8.331106E-2,4.804652E-2,1.4777164E0,9.9828017E-1,-5.5181306E-2,1.24774305E-2,4.0754896E-2,-3.3512913E-2,-6.521302E-2,1.4380418E-2,-4.3243393E-2,3.1309612E-2,-1.4815191E-2,-6.470012E-2,-2.849244E-2,3.709143E-2,6.992011E-2,1.3111283E-2],"split_indices":[1925,355,1951,1688,1834,1860,500,0,0,820,265,0,0,361,1772,1739,1895,749,219,396,1691,814,189,0,0,1351,1872,0,0,56,0,0,0,94,989,0,1007,73,1992,441,1404,0,0,0,0,0,181,0,0,0,0,1992,40,511,734,0,0,0,0,0,0,0,0,0,0,0,0,0,0],"split_type":[0,0,0,0,0,0,0,0,0,0,0,0,0,0,0,0,0,0,0,0,0,0,0,0,0,0,0,0,0,0,0,0,0,0,0,0,0,0,0,0,0,0,0,0,0,0,0,0,0,0,0,0,0,0,0,0,0,0,0,0,0,0,0,0,0,0,0,0,0],"sum_hessian":[3.8060733E2,1.7401775E2,2.065896E2,1.213172E1,1.6188603E2,1.373101E1,1.9285858E2,3.4645298E0,8.66719E0,1.3398155E2,2.7904467E1,1.0556005E1,3.1750062E0,6.1168564E1,1.3169002E2,9.280466E0,1.24701096E2,6.7158313E0,2.1188637E1,1.578875E1,4.5379814E1,4.903351E1,8.265651E1,3.5785613E0,5.701905E0,1.1719112E2,7.509975E0,3.7151291E0,3.000702E0,1.7932404E1,3.2562327E0,3.637076E0,1.2151673E1,3.477187E1,1.0607945E1,3.3173778E0,4.5716133E1,3.2969585E1,4.9686928E1,1.0800389E2,9.18723E0,4.3673043E0,3.1426706E0,3.058182E0,1.4874221E1,3.4999154E0,3.1271955E1,5.797141E0,4.8108044E0,4.214438E1,3.5717525E0,2.4019753E1,8.949831E0,2.366083E1,2.6026098E1,1.0378646E2,4.2174287E0,5.1593084E0,4.0279217E0,2.6603067E1,4.668888E0,4.2361484E0,1.9783604E1,3.1885774E0,5.7612534E0,7.9337735E0,1.5727056E1,2.282908E1,3.197018E0],"tree_param":{"num_deleted":"0","num_feature":"1995","num_nodes":"69","size_leaf_vector":"1"}},{"base_weights":[-6.738722E-3,-4.1428238E-1,3.5124078E-1,-5.8236617E-1,5.4538345E-1,2.9543206E-2,9.0220404E-1,2.833236E-1,-7.795122E-1,-2.967152E-1,1.0602733E0,-2.1352538E-1,6.740752E-1,-4.7747493E-2,1.0139867E0,-2.5306356E-1,5.601697E-2,-2.9389234E-3,-9.5761997E-1,4.140843E-2,-4.4925716E-2,6.73178E-2,-8.337531E-3,-4.4345903E-1,8.6556756E-1,-7.9868305E-1,1.1013578E0,1.1022251E0,-2.715974E-2,-8.8688517E-1,4.2703148E-2,7.4944067E-1,-5.8276918E-2,3.1350143E-2,-1.0468316E0,9.605889E-2,-7.975566E-1,-1.2406475E-2,1.1442845E0,-5.42683E-2,-5.531708E-3,1.326E0,-1.6019514E-2,1.2282324E0,1.138578E-1,9.940027E-3,-6.255822E-2,1.1870915E0,-2.7650153E-2,-1.1133428E0,2.9688422E-2,-8.0026054E-1,5.1364017E-1,-9.28164E-1,3.2229457E-2,1.8036803E-2,6.464624E-2,1.844489E-2,7.121246E-2,1.3179818E0,1.0936347E-2,3.892147E-2,-3.697111E-2,6.942153E-2,1.4444743E-2,-5.8404725E-2,1.1908565E-2,-6.2006213E-2,7.4770255E-4,5.3146154E-2,-2.0075334E-2,-1.1113751E-2,-6.1992772E-2,6.945277E-2,1.1656898E-2],"categories":[],"categories_nodes":[],"categories_segments":[],"categories_sizes":[],"default_left":[0,0,0,0,0,0,0,0,0,0,0,0,0,0,0,0,0,0,0,0,0,0,0,0,0,0,0,0,0,0,0,0,0,0,0,0,0,0,0,0,0,0,0,0,0,0,0,0,0,0,0,0,0,0,0,0,0,0,0,0,0,0,0,0,0,0,0,0,0,0,0,0,0,0,0],"id":12,"left_children":[1,3,5,7,9,11,13,15,17,19,21,23,25,-1,27,29,-1,31,33,-1,-1,-1,-1,35,37,39,41,43,-1,45,-1,47,-1,-1,49,51,53,-1,55,-1,-1,57,-1,59,61,-1,-1,63,-1,65,-1,67,69,71,-1,-1,-1,-1,-1,73,-1,-1,-1,-1,-1,-1,-1,-1,-1,-1,-1,-1,-1,-1,-1],"loss_changes":[5.5535763E1,2.936778E1,3.5749092E1,2.653759E1,1.2624584E1,2.0707657E1,1.7403374E1,1.3979603E1,1.717826E1,9.564172E0,6.734535E0,2.4505104E1,2.45739E1,0E0,1.1045761E1,1.5305478E1,0E0,2.4022772E1,1.5705475E1,0E0,0E0,0E0,0E0,1.558387E1,6.069583E0,1.4646034E0,1.0198948E1,8.075714E0,0E0,5.955014E0,0E0,1.0836875E1,0E0,0E0,1.1949028E1,1.3344487E1,1.0429916E1,0E0,5.758858E-1,0E0,0E0,1.1636925E0,0E0,4.7208633E0,6.826876E0,0E0,0E0,1.4019241E0,0E0,7.597122E0,0E0,4.234275E0,1.3069364E1,9.35648E0,0E0,0E0,0E0,0E0,0E0,3.4125748E0,0E0,0E0,0E0,0E0,0E0,0E0,0E0,0E0,0E0,0E0,0E0,0E0,0E0,0E0,0E0],"parents":[2147483647,0,0,1,1,2,2,3,3,4,4,5,5,6,6,7,7,8,8,9,9,10,10,11,11,12,12,14,14,15,15,17,17,18,18,23,23,24,24,25,25,26,26,27,27,29,29,31,31,34,34,35,35,36,36,38,38,41,41,43,43,44,44,47,47,49,49,51,51,52,52,53,53,59,59],"right_children":[2,4,6,8,10,12,14,16,18,20,22,24,26,-1,28,30,-1,32,34,-1,-1,-1,-1,36,38,40,42,44,-1,46,-1,48,-1,-1,50,52,54,-1,56,-1,-1,58,-1,60,62,-1,-1,64,-1,66,-1,68,70,72,-1,-1,-1,-1,-1,74,-1,-1,-1,-1,-1,-1,-1,-1,-1,-1,-1,-1,-1,-1,-1],"split_conditions":[1.5034528E-1,3.5697605E-2,9.68999E-2,4.214723E-1,2.8473553E-1,6.3024454E-2,1.0297447E-1,7.457356E-2,1.7442675E-1,8.34201E-1,2.597428E-1,5.0722855E-1,1.3580954E-1,-4.7747493E-2,1.7628197E-1,1.0886458E0,5.601697E-2,1.1669939E-2,5.84572E-2,4.140843E-2,-4.4925716E-2,6.73178E-2,-8.337531E-3,1.6491523E0,2.2774415E-1,9.9306935E-1,2.9984023E-4,9.329214E-1,-2.715974E-2,1.3293438E-1,4.2703148E-2,8.291723E-3,-5.8276918E-2,3.1350143E-2,1.1175156E0,3.4120417E-1,4.7165602E-1,-1.2406475E-2,1.1463017E-1,-5.42683E-2,-5.531708E-3,3.9215943E-1,-1.6019514E-2,1.2570989E-1,9.2841715E-2,9.940027E-3,-6.255822E-2,1.5164733E-1,-2.7650153E-2,1.2640755E-1,2.9688422E-2,5.719092E-3,4.7862712E-1,2.4799937E-1,3.2229457E-2,1.8036803E-2,6.464624E-2,1.844489E-2,7.121246E-2,6.080532E-2,1.0936347E-2,3.892147E-2,-3.697111E-2,6.942153E-2,1.4444743E-2,-5.8404725E-2,1.1908565E-2,-6.2006213E-2,7.4770255E-4,5.3146154E-2,-2.0075334E-2,-1.1113751E-2,-6.1992772E-2,6.945277E-2,1.1656898E-2],"split_indices":[1925,1834,500,820,140,1618,1951,1649,426,652,135,28,461,0,1661,620,0,1314,1970,0,0,0,0,1018,336,723,1279,1506,0,409,0,1114,0,0,707,90,338,0,111,0,0,522,0,1940,1771,0,0,426,0,208,0,1442,247,1693,0,0,0,0,0,1779,0,0,0,0,0,0,0,0,0,0,0,0,0,0,0],"split_type":[0,0,0,0,0,0,0,0,0,0,0,0,0,0,0,0,0,0,0,0,0,0,0,0,0,0,0,0,0,0,0,0,0,0,0,0,0,0,0,0,0,0,0,0,0,0,0,0,0,0,0,0,0,0,0,0,0,0,0,0,0,0,0,0,0,0,0,0,0,0,0,0,0,0,0],"sum_hessian":[3.7662476E2,1.7610355E2,2.0052121E2,1.5061424E2,2.5489298E1,1.2804611E2,7.24751E1,2.7681278E1,1.2293297E2,9.919414E0,1.5569884E1,9.383932E1,3.42068E1,3.2073789E0,6.926772E1,1.7647821E1,1.0033456E1,2.3418715E1,9.951425E1,3.1370876E0,6.7823257E0,1.2534449E1,3.035436E0,7.840376E1,1.5435553E1,7.248882E0,2.6957918E1,6.616689E1,3.100826E0,1.1533287E1,6.114535E0,1.4596975E1,8.82174E0,4.6015625E0,9.491269E1,3.1533316E1,4.687045E1,3.0618234E0,1.2373729E1,4.199053E0,3.049829E0,2.345669E1,3.5012274E0,5.816488E1,8.002017E0,3.056828E0,8.4764595E0,1.1115743E1,3.4812324E0,9.189107E1,3.0216181E0,9.363237E0,2.2170078E1,4.369534E1,3.1751099E0,3.1731615E0,9.200567E0,3.1637793E0,2.0292912E1,5.276375E1,5.4011283E0,4.6629477E0,3.3390691E0,8.09765E0,3.018093E0,8.864535E1,3.2457254E0,5.484302E0,3.8789349E0,1.3720921E1,8.449158E0,1.45319195E1,2.916342E1,4.8906616E1,3.8571346E0],"tree_param":{"num_deleted":"0","num_feature":"1995","num_nodes":"75","size_leaf_vector":"1"}},{"base_weights":[2.1751849E-2,-1.8251492E-1,7.645735E-1,-3.452825E-1,4.670076E-1,1.1886772E0,2.8882375E-1,-2.0106381E-1,-9.798575E-1,7.855199E-1,-3.4475985E-1,-0E0,1.3014275E0,8.1803906E-1,-5.3625435E-1,-1.1157626E0,-4.605346E-2,-1.2325863E0,4.8420753E-2,1.0954136E0,-3.4325972E-1,-7.066622E-1,2.960205E-2,1.31274415E-2,6.864448E-2,1.1477844E0,-2.2913346E-2,-1.0022647E0,1.7446762E-2,-7.0449535E-4,-1.2706175E0,-5.8803207E-1,1.9284293E-1,-6.0766223E-3,-1.3446105E0,-3.4506698E-3,1.2589722E0,3.5088077E-2,-4.8398323E-2,-1.03396E0,1.1790268E-2,6.498767E-2,7.061054E-3,-6.7259963E-3,-6.2712215E-2,-1.6532358E-2,-6.84354E-2,4.7291952E-1,-9.0373284E-1,-2.5952482E-1,5.2776617E-1,-7.025441E-2,-2.0555759E-2,1.3955747E-2,6.886373E-2,-6.1829597E-2,-1.4010759E-2,5.6573283E-2,-3.3364993E-2,2.8765513E-2,-5.291555E-2,7.949384E-3,-4.001309E-2,3.774451E-2,-3.8079046E-2],"categories":[],"categories_nodes":[],"categories_segments":[],"categories_sizes":[],"default_left":[0,0,0,0,0,0,0,0,0,0,0,0,0,0,0,0,0,0,0,0,0,0,0,0,0,0,0,0,0,0,0,0,0,0,0,0,0,0,0,0,0,0,0,0,0,0,0,0,0,0,0,0,0,0,0,0,0,0,0,0,0,0,0,0,0],"id":13,"left_children":[1,3,5,7,9,11,13,15,17,19,21,-1,23,25,27,29,31,33,-1,35,37,39,-1,-1,-1,41,-1,43,-1,-1,45,47,49,-1,51,-1,53,-1,-1,55,-1,-1,-1,-1,-1,-1,-1,57,59,61,63,-1,-1,-1,-1,-1,-1,-1,-1,-1,-1,-1,-1,-1,-1],"loss_changes":[5.7454155E1,3.1683044E1,1.5645657E1,2.1320265E1,1.6148315E1,5.7748833E0,1.8916393E1,2.7717112E1,2.3848312E1,1.6192984E1,7.039922E0,0E0,1.9965363E0,1.2061329E1,7.8816957E0,4.675873E0,2.2362282E1,4.437828E0,0E0,6.960823E0,8.511031E0,4.9361124E0,0E0,0E0,0E0,2.7456474E0,0E0,2.1241417E0,0E0,0E0,1.2090569E0,1.8593407E1,1.8455177E1,0E0,6.708908E-1,0E0,2.6449776E0,0E0,0E0,8.2956886E-1,0E0,0E0,0E0,0E0,0E0,0E0,0E0,1.1585226E1,1.0748486E1,1.2129115E1,2.1541466E1,0E0,0E0,0E0,0E0,0E0,0E0,0E0,0E0,0E0,0E0,0E0,0E0,0E0,0E0],"parents":[2147483647,0,0,1,1,2,2,3,3,4,4,5,5,6,6,7,7,8,8,9,9,10,10,12,12,13,13,14,14,15,15,16,16,17,17,19,19,20,20,21,21,25,25,27,27,30,30,31,31,32,32,34,34,36,36,39,39,47,47,48,48,49,49,50,50],"right_children":[2,4,6,8,10,12,14,16,18,20,22,-1,24,26,28,30,32,34,-1,36,38,40,-1,-1,-1,42,-1,44,-1,-1,46,48,50,-1,52,-1,54,-1,-1,56,-1,-1,-1,-1,-1,-1,-1,58,60,62,64,-1,-1,-1,-1,-1,-1,-1,-1,-1,-1,-1,-1,-1,-1],"split_conditions":[1.610841E-1,4.3427983E-1,2.2791818E-2,3.3803202E-2,1.20787814E-1,1.1674629E-1,1.3029475E0,5.667613E-2,1.5097661E-1,1.2204877E-1,8.1923074E-1,-0E0,1.5301512E-1,2.882873E0,2.1458998E-1,1.8183407E-1,8.5518524E-2,7.1898735E-1,4.8420753E-2,9.8541766E-1,1.987319E-1,1.1017001E-3,2.960205E-2,1.31274415E-2,6.864448E-2,2.566706E0,-2.2913346E-2,4.547264E-3,1.7446762E-2,-7.0449535E-4,3.2929793E-1,7.76559E-2,8.4040034E-1,-6.0766223E-3,8.868541E-2,-3.4506698E-3,1.2135319E-5,3.5088077E-2,-4.8398323E-2,5.5536494E-2,1.1790268E-2,6.498767E-2,7.061054E-3,-6.7259963E-3,-6.2712215E-2,-1.6532358E-2,-6.84354E-2,4.762751E-1,2.7721298E-1,6.529588E-1,7.749027E-2,-7.025441E-2,-2.0555759E-2,1.3955747E-2,6.886373E-2,-6.1829597E-2,-1.4010759E-2,5.6573283E-2,-3.3364993E-2,2.8765513E-2,-5.291555E-2,7.949384E-3,-4.001309E-2,3.774451E-2,-3.8079046E-2],"split_indices":[1934,1585,1671,1629,332,111,866,1682,1654,310,994,0,383,928,1161,1665,288,628,0,636,1692,1484,0,0,0,418,0,1380,0,0,467,1970,398,0,70,0,1207,0,0,1686,0,0,0,0,0,0,0,24,337,945,1675,0,0,0,0,0,0,0,0,0,0,0,0,0,0],"split_type":[0,0,0,0,0,0,0,0,0,0,0,0,0,0,0,0,0,0,0,0,0,0,0,0,0,0,0,0,0,0,0,0,0,0,0,0,0,0,0,0,0,0,0,0,0,0,0,0,0,0,0,0,0,0,0,0,0,0,0,0,0,0,0,0,0],"sum_hessian":[3.7442807E2,2.9474954E2,7.9678505E1,2.3655952E2,5.819003E1,4.043012E1,3.924839E1,1.9502731E2,4.1532207E1,4.1927025E1,1.6263004E1,3.6238756E0,3.680624E1,2.3995588E1,1.5252803E1,2.6371418E1,1.686559E2,3.7459057E1,4.0731506E0,3.3011738E1,8.915289E0,1.21624975E1,4.100507E0,3.060566E0,3.3745674E1,1.9291264E1,4.704326E0,9.893038E0,5.3597655E0,3.5985138E0,2.2772903E1,5.083146E1,1.1782443E2,3.894627E0,3.356443E1,4.1329083E0,2.8878828E1,3.1833518E0,5.731937E0,8.962109E0,3.2003891E0,1.6168299E1,3.1229641E0,3.005956E0,6.8870816E0,3.0742702E0,1.9698633E1,1.1355877E1,3.9475582E1,5.0188477E1,6.7635956E1,3.047271E1,3.091719E0,3.9259017E0,2.4952927E1,5.9489613E0,3.0131474E0,7.263703E0,4.092174E0,3.158993E0,3.631659E1,2.898335E1,2.1205126E1,5.8276836E1,9.359123E0],"tree_param":{"num_deleted":"0","num_feature":"1995","num_nodes":"65","size_leaf_vector":"1"}},{"base_weights":[-1.1308985E-3,-2.0747618E-1,6.829789E-1,-4.8207693E-2,-8.1445926E-1,-2.2657539E-1,1.070634E0,-3.3873582E-1,2.5281078E-1,3.8907684E-2,-1.0890567E0,3.4431866E-1,-9.867507E-1,1.1697307E0,-1.8235072E-2,-5.1866525E-1,5.811605E-1,5.1024085E-1,-5.410317E-1,4.8091006E-2,-8.260471E-1,1.6381843E-2,-1.2403637E0,-3.1372778E-2,9.2632824E-1,-8.450816E-3,-6.055814E-2,2.303207E-3,1.2673051E0,-7.832864E-1,9.398797E-2,-1.5877644E-2,9.605946E-1,-4.0102128E-2,6.061501E-1,7.3273563E-1,-6.496834E-2,-1.0024926E-2,-5.2659642E-2,3.2502655E-3,-6.782012E-2,7.195253E-3,5.8074296E-2,1.5374348E-2,1.3456178E0,-1.0033973E0,1.1524645E-1,4.7115242E-1,-7.8547615E-1,5.9572875E-2,2.1385204E-3,3.4775504E-1,1.2040263E0,5.8417834E-2,-7.865846E-3,7.013779E-2,1.8781086E-2,3.4822494E-2,-5.6570143E-2,-4.12189E-2,4.898415E-2,-1.3605818E-2,4.5846473E-2,-2.300791E-3,-5.8298435E-2,-4.297132E-2,2.9710228E-2,6.648957E-2,8.941731E-3],"categories":[],"categories_nodes":[],"categories_segments":[],"categories_sizes":[],"default_left":[0,0,0,0,0,0,0,0,0,0,0,0,0,0,0,0,0,0,0,0,0,0,0,0,0,0,0,0,0,0,0,0,0,0,0,0,0,0,0,0,0,0,0,0,0,0,0,0,0,0,0,0,0,0,0,0,0,0,0,0,0,0,0,0,0,0,0,0,0],"id":14,"left_children":[1,3,5,7,9,11,13,15,17,19,21,23,25,27,-1,29,31,33,35,-1,37,-1,39,-1,41,-1,-1,-1,43,45,47,-1,49,-1,51,53,-1,-1,-1,-1,-1,-1,-1,-1,55,57,59,61,63,-1,-1,65,67,-1,-1,-1,-1,-1,-1,-1,-1,-1,-1,-1,-1,-1,-1,-1,-1],"loss_changes":[5.246906E1,2.7476246E1,3.0927395E1,2.0184912E1,1.4056095E1,1.2592754E1,9.581093E0,2.0032587E1,2.3707432E1,1.45729475E1,1.0534157E1,1.0807445E1,1.7102432E0,6.0463943E0,0E0,1.6325056E1,7.515909E0,1.1864397E1,2.9611263E1,0E0,7.8899765E-1,0E0,6.526844E0,0E0,1.6519098E0,0E0,0E0,0E0,2.9658203E0,1.4109024E1,1.1205027E1,0E0,2.885684E0,0E0,1.16757965E1,5.0872793E0,0E0,0E0,0E0,0E0,0E0,0E0,0E0,0E0,1.4289093E0,1.3869003E1,1.4158057E1,8.341816E0,2.632307E0,0E0,0E0,1.8900614E1,2.444252E0,0E0,0E0,0E0,0E0,0E0,0E0,0E0,0E0,0E0,0E0,0E0,0E0,0E0,0E0,0E0,0E0],"parents":[2147483647,0,0,1,1,2,2,3,3,4,4,5,5,6,6,7,7,8,8,9,9,10,10,11,11,12,12,13,13,15,15,16,16,17,17,18,18,20,20,22,22,24,24,28,28,29,29,30,30,32,32,34,34,35,35,44,44,45,45,46,46,47,47,48,48,51,51,52,52],"right_children":[2,4,6,8,10,12,14,16,18,20,22,24,26,28,-1,30,32,34,36,-1,38,-1,40,-1,42,-1,-1,-1,44,46,48,-1,50,-1,52,54,-1,-1,-1,-1,-1,-1,-1,-1,56,58,60,62,64,-1,-1,66,68,-1,-1,-1,-1,-1,-1,-1,-1,-1,-1,-1,-1,-1,-1,-1,-1],"split_conditions":[2.0277381E-1,7.603177E-2,3.580121E-1,7.398351E-2,1.8133754E-1,2.1747856E0,9.1368236E-2,1.7725279E-4,3.791542E-2,1.1077641E0,9.7857915E-2,1.7025455E0,3.9768288E-1,8.7980896E-1,-1.8235072E-2,6.990287E-2,4.387782E-2,1.2481676E-1,8.9695656E-1,4.8091006E-2,8.123988E-1,1.6381843E-2,1.6543603E-2,-3.1372778E-2,2.2739267E0,-8.450816E-3,-6.055814E-2,2.303207E-3,2.5057483E-2,6.465748E-2,4.2345997E-2,-1.5877644E-2,3.4981066E-1,-4.0102128E-2,6.764047E-3,9.182928E-2,-6.496834E-2,-1.0024926E-2,-5.2659642E-2,3.2502655E-3,-6.782012E-2,7.195253E-3,5.8074296E-2,1.5374348E-2,3.3785633E-3,2.1849208E0,4.2410994E-1,6.556203E-2,2.5682379E-2,5.9572875E-2,2.1385204E-3,6.872128E-2,8.252657E-1,5.8417834E-2,-7.865846E-3,7.013779E-2,1.8781086E-2,3.4822494E-2,-5.6570143E-2,-4.12189E-2,4.898415E-2,-1.3605818E-2,4.5846473E-2,-2.300791E-3,-5.8298435E-2,-4.297132E-2,2.9710228E-2,6.648957E-2,8.941731E-3],"split_indices":[1925,1872,302,1860,1622,900,1909,1365,1874,696,1683,602,225,584,0,1287,1548,1679,444,0,555,0,1814,0,917,0,0,0,1381,1618,1382,0,1108,0,1416,1911,0,0,0,0,0,0,0,0,1279,1009,712,1256,1884,0,0,158,506,0,0,0,0,0,0,0,0,0,0,0,0,0,0,0,0],"split_type":[0,0,0,0,0,0,0,0,0,0,0,0,0,0,0,0,0,0,0,0,0,0,0,0,0,0,0,0,0,0,0,0,0,0,0,0,0,0,0,0,0,0,0,0,0,0,0,0,0,0,0,0,0,0,0,0,0,0,0,0,0,0,0,0,0,0,0,0,0],"sum_hessian":[3.6802097E2,2.8392224E2,8.409871E1,2.2674849E2,5.7173767E1,2.5303123E1,5.879558E1,1.15426315E2,1.1132217E2,1.4247924E1,4.2925842E1,1.5000362E1,1.0302761E1,5.540981E1,3.3857732E0,9.736334E1,1.8062977E1,8.4696846E1,2.6625322E1,6.840597E0,7.407326E0,3.8535194E0,3.9072323E1,5.4959145E0,9.504448E0,3.0695496E0,7.233211E0,4.74424E0,5.066557E1,6.771963E1,2.964371E1,5.3808126E0,1.2682165E1,4.6946306E0,8.000222E1,9.911958E0,1.6713364E1,3.093525E0,4.3138013E0,3.1911762E0,3.5881145E1,3.039728E0,6.4647202E0,4.661604E0,4.6003967E1,5.4296627E1,1.3423004E1,2.1475878E1,8.16783E0,9.569822E0,3.1123424E0,5.818564E1,2.181658E1,6.310419E0,3.6015391E0,4.2504814E1,3.4991512E0,3.1257327E0,5.1170895E1,6.4207654E0,7.0022383E0,8.259374E0,1.3216504E1,3.6258807E0,4.54195E0,8.952663E0,4.9232975E1,1.8816504E1,3.000078E0],"tree_param":{"num_deleted":"0","num_feature":"1995","num_nodes":"69","size_leaf_vector":"1"}},{"base_weights":[-2.023679E-2,6.5907687E-1,-2.263888E-1,-2.8588343E-1,9.8262805E-1,-7.550158E-2,-9.3895555E-1,-7.569871E-1,4.9278885E-2,1.1489204E0,-2.4944654E-1,5.6970936E-1,-2.697643E-1,-1.0892136E0,3.383767E-2,1.7774437E-2,-6.0350966E-2,-1.8448515E-2,1.2576886E0,3.163499E-2,-4.7230165E-2,-7.1140367E-1,8.288538E-1,-1.0763278E0,-1.0846516E-1,-1.1849422E0,-3.8366863E-3,6.0924413E-3,6.661362E-2,5.6227674E-3,-5.5834528E-2,-3.5628796E-2,1.0134329E0,-1.2706192E0,3.8480354E-3,-9.2959005E-1,4.6957497E-2,-1.3182713E0,2.2497096E-3,-2.4206133E-3,1.1594691E0,-6.75067E-2,-2.0447543E-2,-1.1546364E0,2.0143459E-2,6.124458E-1,-2.1201639E-1,-6.851872E-2,-2.144274E-2,6.3751526E-2,-2.0763231E-3,-6.5433405E-2,-1.19335605E-2,-3.9569777E-2,4.0194485E-2,-3.281302E-2,1.044079E-2],"categories":[],"categories_nodes":[],"categories_segments":[],"categories_sizes":[],"default_left":[0,0,0,0,0,0,0,0,0,0,0,0,0,0,0,0,0,0,0,0,0,0,0,0,0,0,0,0,0,0,0,0,0,0,0,0,0,0,0,0,0,0,0,0,0,0,0,0,0,0,0,0,0,0,0,0,0],"id":15,"left_children":[1,3,5,7,9,11,13,15,-1,17,19,21,23,25,-1,-1,-1,-1,27,-1,-1,29,31,33,35,37,-1,-1,-1,-1,-1,-1,39,41,-1,43,45,47,-1,-1,49,-1,-1,51,-1,53,55,-1,-1,-1,-1,-1,-1,-1,-1,-1,-1],"loss_changes":[5.193156E1,2.70201E1,3.0366611E1,1.5536501E1,1.3944744E1,3.0012823E1,1.3523006E1,1.0117382E1,0E0,1.051741E1,6.917645E0,1.9591017E1,2.3561964E1,4.1576653E0,0E0,0E0,0E0,0E0,4.1224594E0,0E0,0E0,3.8027825E0,1.4871273E1,7.1057663E0,2.0021786E1,7.1113586E0,0E0,0E0,0E0,0E0,0E0,0E0,6.8811874E0,5.097923E-1,0E0,8.486719E0,1.9712711E1,4.0151978E-1,0E0,0E0,5.4902954E0,0E0,0E0,2.3139648E0,0E0,1.2635159E1,1.7571815E1,0E0,0E0,0E0,0E0,0E0,0E0,0E0,0E0,0E0,0E0],"parents":[2147483647,0,0,1,1,2,2,3,3,4,4,5,5,6,6,7,7,9,9,10,10,11,11,12,12,13,13,18,18,21,21,22,22,23,23,24,24,25,25,32,32,33,33,35,35,36,36,37,37,40,40,43,43,45,45,46,46],"right_children":[2,4,6,8,10,12,14,16,-1,18,20,22,24,26,-1,-1,-1,-1,28,-1,-1,30,32,34,36,38,-1,-1,-1,-1,-1,-1,40,42,-1,44,46,48,-1,-1,50,-1,-1,52,-1,54,56,-1,-1,-1,-1,-1,-1,-1,-1,-1,-1],"split_conditions":[1.0897564E-2,1.853202E-1,8.045529E-2,2.7014655E-1,3.0700895E-1,8.8604584E-2,9.7881384E-2,1.3064854E-1,4.9278885E-2,4.1453022E-1,4.1226184E-1,6.069456E-2,1.066486E-1,6.328921E-1,3.383767E-2,1.7774437E-2,-6.0350966E-2,-1.8448515E-2,2.9019293E-1,3.163499E-2,-4.7230165E-2,8.1584024E-1,3.5461727E-1,1.3834243E-3,4.0800467E-2,2.610342E-1,-3.8366863E-3,6.0924413E-3,6.661362E-2,5.6227674E-3,-5.5834528E-2,-3.5628796E-2,1.0307346E-1,1.9151896E-1,3.8480354E-3,6.887795E-1,6.018701E-1,7.3467565E-1,2.2497096E-3,-2.4206133E-3,6.144584E-1,-6.75067E-2,-2.0447543E-2,2.6219687E-1,2.0143459E-2,4.4653118E-2,1.250014E-1,-6.851872E-2,-2.144274E-2,6.3751526E-2,-2.0763231E-3,-6.5433405E-2,-1.19335605E-2,-3.9569777E-2,4.0194485E-2,-3.281302E-2,1.044079E-2],"split_indices":[1629,271,1872,44,1807,224,1816,1885,0,503,860,1841,1951,930,0,0,0,0,562,0,0,829,1023,1368,1504,142,0,0,0,0,0,0,151,273,0,384,942,865,0,0,161,0,0,105,0,1967,240,0,0,0,0,0,0,0,0,0,0],"split_type":[0,0,0,0,0,0,0,0,0,0,0,0,0,0,0,0,0,0,0,0,0,0,0,0,0,0,0,0,0,0,0,0,0,0,0,0,0,0,0,0,0,0,0,0,0,0,0,0,0,0,0,0,0,0,0,0,0],"sum_hessian":[3.6700687E2,8.430971E1,2.8269714E2,2.1484901E1,6.2824806E1,2.3523746E2,4.7459682E1,1.6324308E1,5.160593E0,5.554419E1,7.2806187E0,5.342273E1,1.8181474E2,4.4074448E1,3.3852348E0,4.758729E0,1.1565579E1,3.33262E0,5.221157E1,3.2245452E0,4.056073E0,8.336062E0,4.5086666E1,2.8306187E1,1.5350854E2,3.9865753E1,4.208694E0,3.6243513E0,4.858722E1,3.1437762E0,5.192286E0,4.1518097E0,4.0934856E1,2.412513E1,4.181058E0,2.2948572E1,1.3055998E2,3.59106E1,3.9551568E0,5.0279956E0,3.590686E1,2.0942713E1,3.1824164E0,1.9925245E1,3.0233269E0,4.0274353E1,9.028562E1,3.2795452E1,3.1151454E0,3.2718605E1,3.1882546E0,1.6229416E1,3.6958294E0,4.018326E0,3.6256027E1,4.34924E1,4.679322E1],"tree_param":{"num_deleted":"0","num_feature":"1995","num_nodes":"57","size_leaf_vector":"1"}},{"base_weights":[-7.717062E-3,6.140465E-1,-1.8534027E-1,-9.320112E-1,8.29461E-1,-3.4024736E-1,5.418008E-1,-5.6772072E-2,-1.1536929E-2,9.640491E-1,-2.5054762E-2,-2.320059E-1,-1.2194426E0,-3.8626817E-1,7.780099E-1,-2.793456E-1,1.1160762E0,-7.7704036E-1,-4.2747322E-2,-2.027634E-2,-6.463473E-2,2.3168562E-2,-4.6849336E-2,-2.7945397E-2,9.232922E-1,-4.2461418E-2,2.1535086E-2,1.224314E0,-1.4495397E-2,-1.1055896E0,-1.486866E-1,-4.1080666E-1,3.847047E-1,1.0640807E0,-1.0222762E-2,-4.356347E-5,6.7512654E-2,-1.2868528E0,-7.3608756E-3,-7.784759E-1,6.747465E-1,4.850696E-1,-6.1059785E-1,6.504797E-1,-4.4883132E-1,1.2078373E0,1.2192036E-3,-1.3104193E-2,-6.947346E-2,1.5247579E-2,-5.969399E-2,5.6097206E-2,-8.373347E-3,4.786766E-2,-3.421997E-2,-4.0691834E-2,2.957951E-2,4.2059343E-2,-2.379247E-2,1.8558135E-2,-5.0515085E-2,6.463268E-2,1.32948635E-2],"categories":[],"categories_nodes":[],"categories_segments":[],"categories_sizes":[],"default_left":[0,0,0,0,0,0,0,0,0,0,0,0,0,0,0,0,0,0,0,0,0,0,0,0,0,0,0,0,0,0,0,0,0,0,0,0,0,0,0,0,0,0,0,0,0,0,0,0,0,0,0,0,0,0,0,0,0,0,0,0,0,0,0],"id":16,"left_children":[1,3,5,7,9,11,13,-1,-1,15,-1,17,19,21,23,25,27,29,31,-1,-1,-1,-1,-1,33,-1,-1,35,-1,37,39,41,43,45,-1,-1,-1,47,-1,49,51,53,55,57,59,61,-1,-1,-1,-1,-1,-1,-1,-1,-1,-1,-1,-1,-1,-1,-1,-1,-1],"loss_changes":[3.962909E1,2.8079012E1,3.182658E1,8.561001E-1,1.3738964E1,2.1340887E1,1.1543528E1,0E0,0E0,1.3049194E1,0E0,2.1399277E1,2.6211166E-1,6.222431E0,8.914635E0,4.27001E0,9.728706E0,1.0608711E1,2.506697E1,0E0,0E0,0E0,0E0,0E0,6.4366817E0,0E0,0E0,8.609306E0,0E0,5.518429E0,1.1855048E1,1.5929359E1,1.6928175E1,4.8285027E0,0E0,0E0,0E0,2.1452103E0,0E0,6.5739446E0,4.2462425E0,1.052573E1,1.8328215E1,1.3033287E1,9.518898E0,1.4996338E0,0E0,0E0,0E0,0E0,0E0,0E0,0E0,0E0,0E0,0E0,0E0,0E0,0E0,0E0,0E0,0E0,0E0],"parents":[2147483647,0,0,1,1,2,2,3,3,4,4,5,5,6,6,9,9,11,11,12,12,13,13,14,14,15,15,16,16,17,17,18,18,24,24,27,27,29,29,30,30,31,31,32,32,33,33,37,37,39,39,40,40,41,41,42,42,43,43,44,44,45,45],"right_children":[2,4,6,8,10,12,14,-1,-1,16,-1,18,20,22,24,26,28,30,32,-1,-1,-1,-1,-1,34,-1,-1,36,-1,38,40,42,44,46,-1,-1,-1,48,-1,50,52,54,56,58,60,62,-1,-1,-1,-1,-1,-1,-1,-1,-1,-1,-1,-1,-1,-1,-1,-1,-1],"split_conditions":[9.0326846E-2,3.7792078E-1,1.610841E-1,4.8960622E-2,1.297861E0,9.295443E-2,1.8437491E-1,-5.6772072E-2,-1.1536929E-2,2.0476505E-2,-2.5054762E-2,7.918131E-2,7.348038E-2,3.6327532E-1,5.03987E-2,9.477451E-3,2.7045568E-2,8.394268E-1,7.525707E-2,-2.027634E-2,-6.463473E-2,2.3168562E-2,-4.6849336E-2,-2.7945397E-2,2.9385686E0,-4.2461418E-2,2.1535086E-2,6.945052E-1,-1.4495397E-2,1.3103598E-1,7.0622635E-1,5.7664387E-2,9.9237144E-1,5.354143E-1,-1.0222762E-2,-4.356347E-5,6.7512654E-2,2.8884448E-2,-7.3608756E-3,2.010025E-1,1.307043E0,1.6966388E0,1.9736774E-3,6.8385735E-2,1.0171346E-1,1.4732309E-1,1.2192036E-3,-1.3104193E-2,-6.947346E-2,1.5247579E-2,-5.969399E-2,5.6097206E-2,-8.373347E-3,4.786766E-2,-3.421997E-2,-4.0691834E-2,2.957951E-2,4.2059343E-2,-2.379247E-2,1.8558135E-2,-5.0515085E-2,6.463268E-2,1.32948635E-2],"split_indices":[1654,1101,1934,1974,572,1872,271,0,0,1786,0,1504,267,1043,1722,1250,1629,510,1860,0,0,0,0,0,956,0,0,618,0,200,690,77,686,926,0,0,0,1902,0,319,554,983,1128,1987,1736,177,0,0,0,0,0,0,0,0,0,0,0,0,0,0,0,0,0],"split_type":[0,0,0,0,0,0,0,0,0,0,0,0,0,0,0,0,0,0,0,0,0,0,0,0,0,0,0,0,0,0,0,0,0,0,0,0,0,0,0,0,0,0,0,0,0,0,0,0,0,0,0,0,0,0,0,0,0,0,0,0,0,0,0],"sum_hessian":[3.551575E2,7.769877E1,2.7745874E2,8.631556E0,6.9067215E1,2.297215E2,4.7737236E1,5.6203384E0,3.0112169E0,6.3291256E1,5.775957E0,2.068917E2,2.282981E1,9.341284E0,3.8395954E1,6.641256E0,5.665E1,5.158766E1,1.5530403E2,3.0770824E0,1.9752728E1,3.7269847E0,5.614299E0,3.137905E0,3.525805E1,3.5449157E0,3.0963402E0,5.290661E1,3.7433925E0,3.2773262E1,1.8814402E1,8.361705E1,7.168697E1,3.1524143E1,3.733905E0,5.0425725E0,4.7864037E1,2.6896336E1,5.876925E0,1.0791409E1,8.022993E0,1.4635275E1,6.898177E1,5.4779575E1,1.69074E1,2.7326185E1,4.1979575E0,3.1838288E0,2.3712507E1,3.0715244E0,7.719884E0,4.8840995E0,3.1388936E0,1.0744452E1,3.8908226E0,5.9630116E1,9.35166E0,4.7356415E1,7.4231606E0,7.074826E0,9.832575E0,2.428834E1,3.037846E0],"tree_param":{"num_deleted":"0","num_feature":"1995","num_nodes":"63","size_leaf_vector":"1"}},{"base_weights":[-1.1137409E-2,-3.9596897E-1,3.2239628E-1,-5.495363E-1,6.9010174E-1,-1.7373587E-1,5.958052E-1,2.6203686E-1,-7.136383E-1,1.1249796E0,-2.1353202E-2,4.3832555E-1,-6.530875E-1,9.810136E-1,1.3885929E-1,-3.5668802E-1,9.352998E-1,8.664823E-3,-9.3875533E-1,9.372941E-3,6.53557E-2,7.901748E-1,-6.2935406E-1,-8.4342545E-1,2.271681E-2,-1.1428045E-1,1.1006513E0,5.451539E-1,-5.811903E-1,-4.9889322E-2,3.6837883E-2,1.337692E-3,5.996729E-2,5.9560966E-2,-4.2226735E-1,-4.4477668E-1,-1.2240692E0,-2.5315187E-3,1.024492E0,2.147029E-3,-5.0471533E-2,-1.1138736E0,2.388758E-2,3.580249E-2,-4.4946097E-2,1.2180547E0,-0E0,8.7900305E-1,-3.5149083E-1,-9.7441787E-1,2.9380595E-2,-8.96944E-1,5.89166E-1,-1.0995419E0,4.2813766E-1,6.1191316E-3,-6.6090286E-2,4.256828E-3,5.9947968E-2,2.8286458E-3,-1.2981226E0,1.2985553E0,9.925977E-3,1.0956056E0,-2.7088672E-2,-4.162907E-2,2.7197465E-2,-6.2459897E-2,7.659218E-3,1.0843981E-2,-5.912407E-2,5.3365123E-2,-4.986723E-3,-3.964336E-3,-6.4697795E-2,-2.5642132E-2,5.4671075E-2,-1.6970959E-2,-6.973168E-2,6.719411E-2,1.783158E-2,6.1801452E-2,1.1529488E-3],"categories":[],"categories_nodes":[],"categories_segments":[],"categories_sizes":[],"default_left":[0,0,0,0,0,0,0,0,0,0,0,0,0,0,0,0,0,0,0,0,0,0,0,0,0,0,0,0,0,0,0,0,0,0,0,0,0,0,0,0,0,0,0,0,0,0,0,0,0,0,0,0,0,0,0,0,0,0,0,0,0,0,0,0,0,0,0,0,0,0,0,0,0,0,0,0,0,0,0,0,0,0,0],"id":17,"left_children":[1,3,5,7,9,11,13,15,17,19,-1,21,23,25,27,29,31,33,35,-1,-1,37,39,41,-1,43,45,47,49,-1,-1,-1,-1,-1,51,53,55,-1,57,-1,-1,59,-1,-1,-1,61,-1,63,65,67,-1,69,71,73,75,-1,-1,-1,-1,-1,77,79,-1,81,-1,-1,-1,-1,-1,-1,-1,-1,-1,-1,-1,-1,-1,-1,-1,-1,-1,-1,-1],"loss_changes":[4.5707436E1,2.8334639E1,2.6108053E1,1.9880219E1,1.1378269E1,2.0881605E1,2.1351326E1,1.152978E1,1.9977299E1,2.0832863E0,0E0,1.2834753E1,9.167772E0,9.071251E0,1.7870638E1,1.1932034E1,2.944107E0,1.6834274E1,1.1890793E1,0E0,0E0,5.0537777E0,2.4432952E0,1.3502123E1,0E0,6.7022758E0,7.6729736E0,1.2283598E1,1.1358125E1,0E0,0E0,0E0,0E0,0E0,1.2643068E1,2.2396645E1,8.057373E0,0E0,2.8550224E0,0E0,0E0,6.6134377E0,0E0,0E0,0E0,3.7981339E0,0E0,1.0142986E1,6.04933E0,5.8775635E0,0E0,6.0927773E0,3.217332E0,4.022848E0,1.2080194E1,0E0,0E0,0E0,0E0,0E0,1.2455063E0,1.0040665E0,0E0,3.7056332E0,0E0,0E0,0E0,0E0,0E0,0E0,0E0,0E0,0E0,0E0,0E0,0E0,0E0,0E0,0E0,0E0,0E0,0E0,0E0],"parents":[2147483647,0,0,1,1,2,2,3,3,4,4,5,5,6,6,7,7,8,8,9,9,11,11,12,12,13,13,14,14,15,15,16,16,17,17,18,18,21,21,22,22,23,23,25,25,26,26,27,27,28,28,34,34,35,35,36,36,38,38,41,41,45,45,47,47,48,48,49,49,51,51,52,52,53,53,54,54,60,60,61,61,63,63],"right_children":[2,4,6,8,10,12,14,16,18,20,-1,22,24,26,28,30,32,34,36,-1,-1,38,40,42,-1,44,46,48,50,-1,-1,-1,-1,-1,52,54,56,-1,58,-1,-1,60,-1,-1,-1,62,-1,64,66,68,-1,70,72,74,76,-1,-1,-1,-1,-1,78,80,-1,82,-1,-1,-1,-1,-1,-1,-1,-1,-1,-1,-1,-1,-1,-1,-1,-1,-1,-1,-1],"split_conditions":[1.5034528E-1,3.9459106E-2,4.63399E-2,4.214723E-1,1.9031711E-1,1.2709333E0,1.5499899E-2,2.3312402E-1,1.790628E-1,1.8916851E-1,-2.1353202E-2,9.578586E-4,9.2375267E-1,3.031725E-1,9.616873E-1,9.8233014E-2,3.5236293E-1,1.194096E-1,2.1635266E-2,9.372941E-3,6.53557E-2,1.8182878E-1,8.1213105E-1,1.1924683E0,2.271681E-2,2.740026E-1,7.7129704E-1,3.0017212E-1,8.578108E-1,-4.9889322E-2,3.6837883E-2,1.337692E-3,5.996729E-2,5.9560966E-2,1.3864733E0,5.2143056E-2,6.8358E-2,-2.5315187E-3,1.7470833E0,2.147029E-3,-5.0471533E-2,7.919667E-2,2.388758E-2,3.580249E-2,-4.4946097E-2,2.2121298E-1,-0E0,2.2327151E0,3.9036162E0,1.4248222E-1,2.9380595E-2,1.7397873E-1,1.0279794E-1,1.980285E-1,2.9128653E-1,6.1191316E-3,-6.6090286E-2,4.256828E-3,5.9947968E-2,2.8286458E-3,8.512553E-1,4.5379896E-2,9.925977E-3,2.9380718E-2,-2.7088672E-2,-4.162907E-2,2.7197465E-2,-6.2459897E-2,7.659218E-3,1.0843981E-2,-5.912407E-2,5.3365123E-2,-4.986723E-3,-3.964336E-3,-6.4697795E-2,-2.5642132E-2,5.4671075E-2,-1.6970959E-2,-6.973168E-2,6.719411E-2,1.783158E-2,6.1801452E-2,1.1529488E-3],"split_indices":[1925,1834,500,820,131,604,1629,110,1622,366,0,1388,750,640,557,1685,891,1599,1814,0,0,258,312,756,0,589,692,156,510,0,0,0,0,0,808,1949,1878,0,475,0,0,1627,0,0,0,1828,0,965,955,1654,0,348,1839,477,589,0,0,0,0,0,530,1972,0,1629,0,0,0,0,0,0,0,0,0,0,0,0,0,0,0,0,0,0,0],"split_type":[0,0,0,0,0,0,0,0,0,0,0,0,0,0,0,0,0,0,0,0,0,0,0,0,0,0,0,0,0,0,0,0,0,0,0,0,0,0,0,0,0,0,0,0,0,0,0,0,0,0,0,0,0,0,0,0,0,0,0,0,0,0,0,0,0,0,0,0,0,0,0,0,0,0,0,0,0,0,0,0,0,0,0],"sum_hessian":[3.520572E2,1.6342392E2,1.8863327E2,1.4412514E2,1.9298784E1,6.714829E1,1.21484985E2,2.3937635E1,1.2018751E2,1.3945686E1,5.3530974E0,2.9475271E1,3.767302E1,6.455341E1,5.6931572E1,1.288671E1,1.1050925E1,2.8909203E1,9.1278305E1,3.0180507E0,1.0927635E1,2.2630857E1,6.844413E0,3.2631565E1,5.041456E0,6.283265E0,5.827015E1,3.6794567E1,2.0137007E1,8.291652E0,4.5950584E0,3.06974E0,7.981185E0,6.8406706E0,2.2068531E1,3.5420776E1,5.585753E1,5.1809673E0,1.744989E1,3.0176356E0,3.826777E0,2.7410147E1,5.2214165E0,3.0757773E0,3.2074876E0,5.238334E1,5.8868084E0,2.692166E1,9.872907E0,1.5380594E1,4.7564125E0,1.5241016E1,6.8275146E0,2.0008154E1,1.54126215E1,3.6768236E0,5.2180706E1,3.2892509E0,1.4160639E1,3.8426688E0,2.3567478E1,4.7951725E1,4.4316134E0,2.3818554E1,3.1031058E0,6.5863514E0,3.2865558E0,1.2264845E1,3.1157494E0,3.136572E0,1.21044445E1,3.4674768E0,3.3600376E0,3.7353938E0,1.627276E1,6.511164E0,8.901458E0,3.0765128E0,2.0490965E1,4.4834564E1,3.117163E0,2.0709124E1,3.1094303E0],"tree_param":{"num_deleted":"0","num_feature":"1995","num_nodes":"83","size_leaf_vector":"1"}},{"base_weights":[9.276251E-3,-1.6577205E-1,6.472545E-1,-3.2177073E-1,3.760777E-1,2.526527E-1,1.0974379E0,4.8777017E-1,-4.380454E-1,5.256017E-1,-7.222545E-1,9.3288696E-1,-2.4858192E-1,-6.015507E-3,6.1238557E-2,8.225501E-1,-4.7657526E-1,-2.9132448E-3,-6.936983E-1,-5.4456115E-1,6.9406193E-1,-4.8077386E-2,-9.352758E-3,1.0875981E0,2.8406293E-3,6.007233E-1,-7.896348E-1,-1.4051325E-2,1.0757873E0,-4.5333665E-2,7.623131E-3,2.4982038E-1,-8.164944E-1,-8.085505E-1,4.3101916E-1,-4.874788E-2,5.71314E-3,9.658335E-1,-9.935685E-2,1.5917819E-2,6.1020505E-2,-1.1008103E-2,4.8651036E-2,-1.0811822E0,5.8178212E-3,6.1553627E-2,1.08168945E-2,5.3957796E-1,-5.667337E-1,-5.3861346E-2,1.324942E-2,-9.021525E-1,2.1967974E-1,4.8001233E-2,-3.1206826E-2,-1.6088802E-2,1.1210623E0,3.2807335E-2,-6.2792397E-1,-3.6896446E-3,-6.781022E-2,-2.9485745E-2,4.3646183E-2,-5.2264612E-2,2.5338402E-2,-4.8189323E-2,8.010937E-3,3.8082715E-2,-3.2898422E-2,3.493862E-3,6.250294E-2,-5.4835647E-2,7.812521E-3],"categories":[],"categories_nodes":[],"categories_segments":[],"categories_sizes":[],"default_left":[0,0,0,0,0,0,0,0,0,0,0,0,0,0,0,0,0,0,0,0,0,0,0,0,0,0,0,0,0,0,0,0,0,0,0,0,0,0,0,0,0,0,0,0,0,0,0,0,0,0,0,0,0,0,0,0,0,0,0,0,0,0,0,0,0,0,0,0,0,0,0,0,0],"id":18,"left_children":[1,3,5,7,9,11,13,15,17,19,21,23,25,-1,-1,27,29,31,33,35,37,-1,-1,39,-1,41,43,-1,45,-1,-1,47,49,51,53,-1,-1,55,57,-1,-1,-1,-1,59,-1,-1,-1,61,63,-1,-1,65,67,-1,-1,-1,69,-1,71,-1,-1,-1,-1,-1,-1,-1,-1,-1,-1,-1,-1,-1,-1],"loss_changes":[3.9889187E1,2.3896217E1,1.29760895E1,2.0994677E1,1.1143208E1,1.5435774E1,5.865822E0,9.950842E0,2.1314651E1,1.1046115E1,5.9518766E-1,2.3439445E0,1.321895E1,0E0,0E0,6.778762E0,2.6457996E0,1.5538467E1,1.6359638E1,2.8018286E0,1.1104059E1,0E0,0E0,7.0199203E-1,0E0,3.9996681E0,4.8971434E0,0E0,1.7550106E0,0E0,0E0,1.4183161E1,5.710208E0,1.1102188E1,8.170868E0,0E0,0E0,8.331776E0,6.6229835E0,0E0,0E0,0E0,0E0,3.3436556E0,0E0,0E0,0E0,1.7418232E1,9.287536E0,0E0,0E0,7.0539246E0,6.121846E0,0E0,0E0,0E0,4.322342E0,0E0,3.9834993E0,0E0,0E0,0E0,0E0,0E0,0E0,0E0,0E0,0E0,0E0,0E0,0E0,0E0,0E0],"parents":[2147483647,0,0,1,1,2,2,3,3,4,4,5,5,6,6,7,7,8,8,9,9,10,10,11,11,12,12,15,15,16,16,17,17,18,18,19,19,20,20,23,23,25,25,26,26,28,28,31,31,32,32,33,33,34,34,37,37,38,38,43,43,47,47,48,48,51,51,52,52,56,56,58,58],"right_children":[2,4,6,8,10,12,14,16,18,20,22,24,26,-1,-1,28,30,32,34,36,38,-1,-1,40,-1,42,44,-1,46,-1,-1,48,50,52,54,-1,-1,56,58,-1,-1,-1,-1,60,-1,-1,-1,62,64,-1,-1,66,68,-1,-1,-1,70,-1,72,-1,-1,-1,-1,-1,-1,-1,-1,-1,-1,-1,-1,-1,-1],"split_conditions":[1.6018036E-1,4.1161838E-1,1.3411222E-1,3.3959052E-1,5.07071E-1,3.222086E-1,6.1130154E-1,7.780711E-1,6.7559674E-2,1.4681384E-2,3.9887443E-1,7.8616214E-1,2.5807643E-1,-6.015507E-3,6.1238557E-2,4.8202214E-1,6.8446213E-1,7.2830915E-2,3.4454257E0,7.1250275E-2,1.21737055E-1,-4.8077386E-2,-9.352758E-3,1.4077637E-1,2.8406293E-3,1.0093322E-1,8.6191714E-1,-1.4051325E-2,4.884823E-1,-4.5333665E-2,7.623131E-3,2.0776555E-1,7.7721916E-2,1.3660027E-3,8.4023446E-1,-4.874788E-2,5.71314E-3,1.259154E-1,6.580832E-2,1.5917819E-2,6.1020505E-2,-1.1008103E-2,4.8651036E-2,2.3013242E-1,5.8178212E-3,6.1553627E-2,1.08168945E-2,1.0569665E0,1.063244E-1,-5.3861346E-2,1.324942E-2,1.21469565E-1,7.866556E-1,4.8001233E-2,-3.1206826E-2,-1.6088802E-2,6.890055E-2,3.2807335E-2,8.472787E-1,-3.6896446E-3,-6.781022E-2,-2.9485745E-2,4.3646183E-2,-5.2264612E-2,2.5338402E-2,-4.8189323E-2,8.010937E-3,3.8082715E-2,-3.2898422E-2,3.493862E-3,6.250294E-2,-5.4835647E-2,7.812521E-3],"split_indices":[1934,1585,1762,53,1039,286,621,514,1922,500,911,101,160,0,0,1065,883,1645,969,1921,1806,0,0,341,0,1947,571,0,225,0,0,107,1816,1457,791,0,0,83,1735,0,0,0,0,192,0,0,0,695,1923,0,0,1757,642,0,0,0,1628,0,1010,0,0,0,0,0,0,0,0,0,0,0,0,0,0],"split_type":[0,0,0,0,0,0,0,0,0,0,0,0,0,0,0,0,0,0,0,0,0,0,0,0,0,0,0,0,0,0,0,0,0,0,0,0,0,0,0,0,0,0,0,0,0,0,0,0,0,0,0,0,0,0,0,0,0,0,0,0,0,0,0,0,0,0,0,0,0,0,0,0,0],"sum_hessian":[3.528308E2,2.7790335E2,7.4927475E1,2.1655421E2,6.1349133E1,4.1710926E1,3.3216545E1,2.628686E1,1.9026735E2,5.4996075E1,6.3530583E0,1.7049671E1,2.4661257E1,3.0805712E0,3.0135973E1,1.9808098E1,6.478761E0,7.130948E1,1.1895787E2,6.7917757E0,4.8204296E1,3.160077E0,3.1929812E0,1.3983252E1,3.0664198E0,9.439081E0,1.5222175E1,3.5823398E0,1.6225758E1,3.4179893E0,3.0607717E0,5.5371616E1,1.5937866E1,1.0852664E2,1.0431235E1,3.619394E0,3.1723819E0,3.5675655E1,1.2528641E1,3.1699662E0,1.0813286E1,3.1163845E0,6.3226967E0,1.1307171E1,3.9150035E0,1.2911722E1,3.3140364E0,4.146017E1,1.3911445E1,1.2922696E1,3.01517E0,9.9785446E1,8.741195E0,7.1311173E0,3.300118E0,3.538022E0,3.2137634E1,4.8806252E0,7.648015E0,3.046879E0,8.260292E0,9.03014E0,3.243003E1,9.722805E0,4.18864E0,9.457816E1,5.2072787E0,5.6378937E0,3.1033013E0,3.9344742E0,2.8203161E1,4.3674865E0,3.2805288E0],"tree_param":{"num_deleted":"0","num_feature":"1995","num_nodes":"73","size_leaf_vector":"1"}},{"base_weights":[-2.1375049E-2,-3.7263438E-1,2.6701665E-1,1.546381E-1,-6.3724256E-1,-2.2431652E-1,5.483822E-1,5.998076E-2,-1.04554445E-1,-7.5781935E-1,6.898651E-1,6.1464363E-1,-5.9640986E-1,-4.071041E-1,7.3258275E-1,-8.1280863E-1,3.5320458E-1,5.055916E-1,-8.556746E-1,5.244136E-2,-2.625035E-3,-1.4443959E-2,9.5637244E-1,-8.654168E-1,2.4227166E-1,5.8146006E-1,-9.467803E-1,9.855058E-1,2.1873441E-1,1.4323822E-2,-5.6270815E-2,8.5376024E-1,-4.4964963E-1,-4.4168676E-3,4.547724E-2,-9.2572373E-1,1.46477E-2,-1.000164E-3,5.937968E-2,1.6339585E-1,-1.0764518E0,-3.1019935E-2,4.8104905E-2,5.1745147E-2,-6.8958844E-3,-0E0,-5.969258E-2,1.1002092E0,-1.0671242E-2,-3.2416543E-1,9.3393195E-1,1.1379669E0,-1.6876046E-2,2.5412435E-2,-4.735622E-2,2.1227524E-2,-9.886566E-1,3.9575145E-2,-2.5564594E-2,-1.2330828E0,6.3045076E-3,1.4716261E-3,1.1825582E0,6.167399E-1,-8.655381E-1,-9.834246E-3,6.440672E-2,6.812056E-2,6.1258837E-3,-5.2799802E-2,7.947814E-3,-6.891925E-2,-1.961192E-2,1.1324906E-2,6.182232E-2,-0E0,4.848142E-2,-6.0333874E-2,1.2637665E-2],"categories":[],"categories_nodes":[],"categories_segments":[],"categories_sizes":[],"default_left":[0,0,0,0,0,0,0,0,0,0,0,0,0,0,0,0,0,0,0,0,0,0,0,0,0,0,0,0,0,0,0,0,0,0,0,0,0,0,0,0,0,0,0,0,0,0,0,0,0,0,0,0,0,0,0,0,0,0,0,0,0,0,0,0,0,0,0,0,0,0,0,0,0,0,0,0,0,0,0],"id":19,"left_children":[1,3,5,7,9,11,13,-1,15,17,19,21,23,25,27,29,31,33,35,-1,-1,-1,37,39,41,43,45,47,49,-1,-1,51,53,-1,-1,55,-1,-1,-1,57,59,-1,-1,-1,-1,-1,-1,61,-1,63,65,67,-1,-1,-1,-1,69,-1,-1,71,-1,-1,73,75,77,-1,-1,-1,-1,-1,-1,-1,-1,-1,-1,-1,-1,-1,-1],"loss_changes":[3.5495975E1,2.2295282E1,2.6861986E1,1.5065557E1,1.7974007E1,2.2992516E1,2.2274231E1,0E0,1.5295651E1,1.301149E1,2.8174257E0,7.662862E0,1.187463E1,1.2381108E1,1.2952824E1,7.073125E0,1.2383494E1,2.2163427E0,7.9868393E0,0E0,0E0,0E0,4.0239305E0,8.858969E0,9.757636E0,3.185642E0,3.3194304E0,1.0038048E1,1.5023405E1,0E0,0E0,7.1146526E0,6.8654966E0,0E0,0E0,8.2911E0,0E0,0E0,0E0,4.335041E0,6.544861E0,0E0,0E0,0E0,0E0,0E0,0E0,5.3921204E0,0E0,1.2515331E1,7.2438755E0,3.043169E0,0E0,0E0,0E0,0E0,6.9031906E0,0E0,0E0,2.2873878E0,0E0,0E0,2.315567E0,2.0275638E0,6.479005E0,0E0,0E0,0E0,0E0,0E0,0E0,0E0,0E0,0E0,0E0,0E0,0E0,0E0,0E0],"parents":[2147483647,0,0,1,1,2,2,3,3,4,4,5,5,6,6,8,8,9,9,10,10,11,11,12,12,13,13,14,14,15,15,16,16,17,17,18,18,22,22,23,23,24,24,25,25,26,26,27,27,28,28,31,31,32,32,35,35,39,39,40,40,47,47,49,49,50,50,51,51,56,56,59,59,62,62,63,63,64,64],"right_children":[2,4,6,8,10,12,14,-1,16,18,20,22,24,26,28,30,32,34,36,-1,-1,-1,38,40,42,44,46,48,50,-1,-1,52,54,-1,-1,56,-1,-1,-1,58,60,-1,-1,-1,-1,-1,-1,62,-1,64,66,68,-1,-1,-1,-1,70,-1,-1,72,-1,-1,74,76,78,-1,-1,-1,-1,-1,-1,-1,-1,-1,-1,-1,-1,-1,-1],"split_conditions":[1.5034528E-1,3.282068E-1,4.63399E-2,3.3750615E-1,4.1415576E-2,4.8804358E-1,1.21925384E-1,5.998076E-2,8.38376E-2,3.6305627E-1,9.296765E-1,6.541357E-6,3.0790275E-1,3.303887E-1,5.6077454E-2,5.5024654E-2,2.2635451E-1,3.823055E-1,2.1771412E0,5.244136E-2,-2.625035E-3,-1.4443959E-2,1.2457921E-3,8.634759E-3,3.2048088E-1,4.5026943E-2,7.641979E-1,1.0135632E0,1.2190177E0,1.4323822E-2,-5.6270815E-2,3.4253547E-1,4.5213467E-1,-4.4168676E-3,4.547724E-2,6.755957E-2,1.46477E-2,-1.000164E-3,5.937968E-2,4.2125E-4,7.563153E-2,-3.1019935E-2,4.8104905E-2,5.1745147E-2,-6.8958844E-3,-0E0,-5.969258E-2,2.1425098E-1,-1.0671242E-2,3.7649784E-2,1.896667E-1,1.175084E0,-1.6876046E-2,2.5412435E-2,-4.735622E-2,2.1227524E-2,8.265177E-2,3.9575145E-2,-2.5564594E-2,6.4135474E-1,6.3045076E-3,1.4716261E-3,3.5964586E-5,4.227014E-3,9.883807E-2,-9.834246E-3,6.440672E-2,6.812056E-2,6.1258837E-3,-5.2799802E-2,7.947814E-3,-6.891925E-2,-1.961192E-2,1.1324906E-2,6.182232E-2,-0E0,4.848142E-2,-6.0333874E-2,1.2637665E-2],"split_indices":[1925,225,500,1045,1834,432,1951,0,345,820,1002,1216,105,712,1857,1766,348,28,954,0,0,0,495,1629,336,433,793,96,473,0,0,1647,432,0,0,1657,0,0,0,1208,1636,0,0,0,0,0,0,51,0,188,269,670,0,0,0,0,972,0,0,397,0,0,1605,1487,1908,0,0,0,0,0,0,0,0,0,0,0,0,0,0],"split_type":[0,0,0,0,0,0,0,0,0,0,0,0,0,0,0,0,0,0,0,0,0,0,0,0,0,0,0,0,0,0,0,0,0,0,0,0,0,0,0,0,0,0,0,0,0,0,0,0,0,0,0,0,0,0,0,0,0,0,0,0,0,0,0,0,0,0,0,0,0,0,0,0,0,0,0,0,0,0,0],"sum_hessian":[3.4633487E2,1.5604073E2,1.9029413E2,5.2292725E1,1.0374801E2,6.931074E1,1.209834E2,9.027229E0,4.3265495E1,9.5962456E1,7.785552E0,2.081243E1,4.849831E1,1.9074883E1,1.01908516E2,1.646214E1,2.6803358E1,6.225791E0,8.9736664E1,4.782232E0,3.0033202E0,5.7160387E0,1.5096391E1,3.676229E1,1.1736019E1,6.615905E0,1.2458979E1,6.693286E1,3.4975655E1,3.6110768E0,1.2851062E1,1.6508526E1,1.0294831E1,3.0526254E0,3.1731658E0,8.5026505E1,4.71016E0,3.1575434E0,1.1938847E1,6.2535143E0,3.0508776E1,5.400802E0,6.335217E0,3.6052265E0,3.010678E0,3.0364227E0,9.422556E0,6.131487E1,5.617991E0,2.0424942E1,1.4550713E1,1.3468715E1,3.0398114E0,3.4354568E0,6.859374E0,3.2038655E0,8.182264E1,3.1359806E0,3.117534E0,2.702158E1,3.4871967E0,4.659316E0,5.6655552E1,7.29065E0,1.3134292E1,3.615883E0,1.093483E1,1.0390305E1,3.0784101E0,7.75207E1,4.3019414E0,2.184854E1,5.1730404E0,3.6772573E0,5.2978294E1,3.3753614E0,3.9152887E0,1.0011571E1,3.1227212E0],"tree_param":{"num_deleted":"0","num_feature":"1995","num_nodes":"79","size_leaf_vector":"1"}},{"base_weights":[-9.653518E-3,-3.2052463E-1,3.1755945E-1,3.4701863E-1,-4.8558518E-1,-1.878321E-1,6.1499447E-1,-6.779633E-1,6.067666E-1,-3.1773043E-1,-1.0991789E0,6.104085E-1,-4.7377738E-1,1.0914669E0,3.2948756E-1,-7.0224623E-3,-4.561032E-2,8.5648936E-1,-3.1239847E-2,4.698688E-1,-4.9957317E-1,-1.3503819E-3,-6.1130773E-2,-1.6849076E-2,1.006403E0,-7.082306E-1,3.5491592E-1,1.1889052E0,-7.587415E-5,-1.9380827E-1,6.488385E-1,1.1290618E0,1.1524444E-2,-3.6693856E-2,8.198271E-1,-6.1718345E-1,8.2193184E-1,5.8346838E-2,1.3403602E-2,-0E0,-9.2674303E-1,-2.918945E-2,